
\data\
ngram 1=9647
ngram 2=72773

\1-grams:
-5.560658	1	-0.111721
-5.259628	2	-0.1792224
-5.560658	3	-0.1775372
-5.560658	4	-0.1787679
-0.8395324	</s>
-99	<s>	-0.9727131
-0.5522457	<sw>	-0.8774413
-4.606416	A	-0.8934489
-5.560658	ATC	-0.03670274
-5.560658	Archi	-0.111721
-4.861689	B	-0.7279348
-4.41453	D	-0.5602616
-5.560658	DOTA	-0.1769933
-5.560658	Deutsche	-0.179539
-5.560658	I	-0.03670274
-5.259628	IHG	-0.036643
-5.560658	II	-0.03670274
-4.606416	IT	-0.2023702
-5.259628	Intel	-0.2775199
-5.560658	Inter	-0.1787212
-5.259628	K	-0.176938
-4.861689	LA	-0.01905827
-5.560658	MINDEF	-0.03670274
-5.560658	MIS	-0.1791387
-5.560658	MQA	-0.03670274
-5.560658	Master	-0.03670274
-5.560658	P	-0.03670274
-5.560658	PREFECTORIAL	-0.1795713
-5.560658	Penang	-0.1795127
-5.560658	Psychometric	-0.1794721
-5.560658	QA	-0.1795677
-5.560658	SDLC	-0.03670274
-5.560658	SK	-0.1796011
-5.560658	SKII	-0.03670274
-5.560658	Shearwood	-0.03670274
-5.560658	UK	-0.03670274
-4.71556	UML	-0.4020151
-4.446715	US	-0.4441313
-5.560658	Xylitol	-0.1796011
-2.323869	a	-0.1164668
-5.560658	aback	-0.1769872
-5.560658	abalone	-0.1794984
-5.560658	abandoned	-0.1793156
-5.259628	abdomen	-0.2775199
-5.560658	abiding	-0.1769872
-5.560658	abilities	-0.03670274
-4.958599	ability	-0.2699154
-3.897901	abit	-0.230587
-4.180447	able	-1.393779
-5.259628	abortion	-0.1684204
-3.026632	about	-0.2356539
-5.560658	aboutforensic	-0.1793909
-4.384567	above	-0.1143571
-4.861689	abrasion	-0.3241215
-5.560658	absolute	-0.03670274
-4.71556	absolutely	-0.03261067
-4.519266	absorb	-0.4834417
-4.861689	abu	-0.4216111
-4.782507	abuse	-0.2305157
-5.259628	aca	-0.179594
-5.259628	acad	-0.2775199
-4.519266	academic	-0.2465114
-4.958599	academically	-0.2628375
-4.861689	academy	-0.1199922
-5.560658	accelerate	-0.111721
-5.560658	accelerated	-0.111721
-4.145685	accent	-0.6412799
-5.560658	accents	-0.03670274
-4.055509	accept	-0.3242668
-4.861689	acceptable	-0.2479915
-4.958599	acceptance	-0.04305604
-4.782507	accepted	-0.06287232
-4.519266	access	-0.2252002
-5.259628	accessories	-0.2775199
-5.560658	accessory	-0.1754417
-4.657568	accident	-0.09899984
-5.560658	accidental	-0.03670274
-5.259628	accidentally	-0.03662308
-5.560658	accidents	-0.03670274
-5.083537	accommodate	-0.1815653
-5.560658	accommodating	-0.03670274
-4.657568	accommodation	-0.2323975
-5.560658	accomodate	-0.03670274
-5.560658	accompainment	-0.111721
-5.560658	accompany	-0.111721
-5.560658	accomplish	-0.03670274
-5.083537	accomplishment	-0.03314814
-5.560658	accordinator	-0.03670274
-4.446715	according	-1.144854
-5.259628	accordingly	-0.2775199
-4.069297	account	-0.4820772
-3.92719	accountancy	-0.4107744
-4.71556	accountant	-0.04912204
-3.947875	accounting	-0.3464432
-5.259628	accounts	-0.03489324
-4.782507	accumulate	-0.3235952
-5.560658	accumulation	-0.03670274
-5.560658	accumulative	-0.03670274
-4.606416	accuracy	-0.9908473
-4.41453	accurate	-0.5932409
-5.560658	accuse	-0.1763692
-4.958599	ace	0.06145462
-5.560658	achers	-0.111721
-4.41453	achieve	-0.3693995
-5.560658	achievement	-0.03670274
-5.560658	achiever	-0.1795438
-5.259628	achievers	-0.2775199
-4.958599	acid	-0.1782117
-5.560658	acidic	-0.111721
-5.560658	acidify	-0.03670274
-5.560658	acids	-0.111721
-5.259628	acknowledge	-0.03629594
-5.560658	acoustic	-0.1795868
-5.560658	acoustics	-0.111721
-5.560658	acquisition	-0.1796011
-5.560658	acquisitions	-0.1790406
-5.560658	acronyms	-0.1783009
-4.657568	across	-0.194158
-4.238439	act	-0.04397029
-5.259628	acted	-0.1752343
-4.782507	acting	0.002746239
-4.238439	action	-0.520478
-5.560658	actions	-0.03670274
-4.069297	active	-0.6306868
-5.560658	actively	-0.1761044
-3.804784	activities	-0.5024894
-3.804784	activity	-0.6838804
-5.560658	activties	-0.1747877
-5.083537	actor	-0.178465
-5.560658	actors	-0.1795963
-4.861689	actress	-0.4179795
-5.259628	actresses	-0.1107592
-4.305386	actual	-0.1373253
-2.679274	actually	-0.4088362
-5.259628	actuarial	-0.4202081
-5.560658	acturial	-0.1793909
-5.560658	acute	-0.1795999
-5.083537	ad	-0.1754393
-4.657568	adapt	-0.4333016
-3.888561	add	-0.151254
-5.259628	added	-0.1795581
-4.861689	addict	-0.1166953
-4.958599	addicted	-0.03587015
-5.259628	addictive	-0.2775199
-5.259628	adding	-0.1783117
-4.861689	addition	-0.1878198
-4.861689	additional	-0.1174951
-5.560658	additive	-0.03670274
-4.606416	address	-0.2868131
-5.083537	addresses	0.06689599
-5.083537	adeline	-0.3975357
-5.259628	adept	-0.1763415
-4.861689	adidas	-0.1048475
-4.861689	adipocyte	-0.4215564
-5.083537	adjective	-0.08414865
-4.560658	adjust	-0.2692598
-5.259628	adjustment	0.06079353
-5.560658	adjustments	-0.1754417
-4.145685	admin	-0.2788532
-5.560658	administator	-0.1754417
-5.560658	administer	-0.1795342
-5.083537	administration	-0.1815802
-5.259628	administrative	-0.1084073
-5.259628	administrator	-0.03091016
-5.083537	admiralty	-0.1008635
-4.861689	admire	-0.1064262
-5.560658	admission	-0.03670274
-4.606416	admit	-0.3297474
-4.782507	adobe	-0.1022346
-5.560658	adolescence	-0.111721
-5.259628	adopt	-0.2775199
-5.083537	adopted	-0.03585881
-5.560658	adredaline	-0.1795868
-5.259628	adrian	-0.1117182
-4.519266	adult	-0.1118017
-5.259628	adulthood	-0.17698
-5.083537	adults	0.06160031
-3.947875	advance	-0.5235896
-4.958599	advanced	-0.6130921
-4.519266	advantage	-0.6784084
-5.560658	advantages	-0.1773163
-4.71556	adventure	-0.3292401
-5.560658	adventurous	-0.03670274
-5.259628	advert	-0.1107116
-4.861689	advertise	-0.4170094
-5.560658	advertised	-0.111721
-4.606416	advertisement	-0.4577825
-4.481477	advertising	-0.5105689
-5.259628	advice	-0.03091016
-5.259628	advise	-0.03649357
-5.560658	advisor	-0.03670274
-5.560658	advocate	-0.1794948
-5.560658	aero	-0.179582
-5.560658	aerobic	-0.1794112
-5.259628	aerodynamics	-0.03306445
-5.259628	aeroplane	-0.1694351
-4.33021	aerospace	-0.3640205
-5.259628	aesthetic	-0.2775199
-4.782507	affair	-0.2546518
-4.657568	affairs	-0.3318406
-4.356538	affect	-0.6633372
-4.958599	affected	-0.02806169
-5.560658	affectionately	-0.1795916
-5.259628	affinity	-0.1733155
-5.560658	affirmation	-0.1754417
-4.606416	afford	-0.05325171
-5.259628	affordable	-0.109047
-5.259628	afraid	-0.4183136
-4.560658	africa	-0.7352743
-5.259628	aft	-0.03276142
-2.70696	after	-0.6624686
-4.782507	afterall	-0.4124415
-4.129295	afternoon	-0.4047834
-5.259628	afterwards	-0.02383226
-3.820296	again	-0.3649096
-4.560658	against	-0.48693
-3.92719	age	-0.3750725
-5.560658	agencies	-0.03670274
-4.41453	agency	-0.3815075
-5.083537	agenda	-0.1687744
-4.218236	agent	-0.7733133
-5.083537	aggregate	-0.1815802
-4.71556	aggressive	-0.683648
-4.41453	agilent	-0.4772542
-5.259628	aging	-0.4204028
-4.446715	ago	-0.2615825
-4.162718	agree	-0.3994497
-4.958599	agreement	-0.6130921
-5.560658	agricultural	-0.03670274
-4.958599	agriculture	-0.1782117
-2.221605	ah	-0.5346764
-5.560658	ahah	-0.03670274
-5.083537	ahead	0.06198968
-4.958599	ahh	0.06257752
-5.259628	ahnorh	-0.4169216
-4.782507	aid	-0.005538225
-5.560658	aided	-0.03670274
-4.71556	aids	-0.1713574
-4.238439	aim	-0.4299298
-5.560658	aiming	-0.1776848
-4.606416	aims	-0.4371502
-3.663031	air	-0.4219475
-4.41453	aircon	-0.5347084
-4.657568	aircond	-0.4309855
-5.083537	aircraft	-0.1780066
-5.560658	airfare	-0.1773163
-5.560658	airforce	-0.1789605
-4.356538	airline	-0.3380076
-5.083537	airlines	-0.08414865
-5.560658	airound	-0.03670274
-4.33021	airport	-0.216775
-4.782507	airway	-0.322707
-5.259628	airways	-0.1086619
-4.218236	aiya	-0.4029569
-4.481477	aiyah	-0.5121262
-5.560658	aiyo	-0.111721
-4.861689	ajinomoto	-0.7279348
-5.560658	al	-0.1796011
-5.560658	alam	-0.03670274
-5.259628	alamanda	0.06079353
-5.083537	alan	-0.17846
-4.958599	alarm	-0.1721895
-5.560658	albino	-0.1793311
-4.958599	album	0.06200841
-5.560658	albums	-0.111721
-4.861689	alcohol	-0.1757455
-5.560658	alergy	-0.03670274
-5.083537	alert	-0.03581224
-4.384567	alex	-1.212135
-5.560658	alfred	-0.03670274
-5.560658	algebra	-0.03670274
-5.560658	algo	-0.03670274
-5.259628	algori	-0.2775199
-3.72815	algorithm	-0.8254474
-4.958599	alien	-0.1403934
-5.560658	aliens	-0.1795378
-5.083537	alight	-0.3146657
-5.560658	align	-0.03670274
-5.259628	alignment	-0.2775199
-4.861689	alike	-0.009536594
-5.259628	alive	-0.1700863
-5.083537	aljunied	0.06534186
-5.259628	alkaline	-0.1795856
-5.560658	alkaloid	-0.1795975
-2.72307	all	-0.3886739
-5.560658	allah	-0.03670274
-5.560658	allen	-0.03670274
-5.259628	allergic	-0.2775199
-5.560658	allergy	-0.03670274
-5.083537	alley	-0.17846
-5.083537	alliance	-0.03668615
-4.71556	allocate	-0.4222369
-5.259628	allocated	-0.1748649
-4.519266	allow	0.01178047
-5.560658	allowable	-0.03670274
-4.281905	allowance	-0.5686005
-4.861689	allowed	-0.8666737
-5.560658	almond	-0.1795963
-3.870462	almost	-0.1961319
-5.560658	alogrithm	-0.03670274
-4.33021	alone	-0.07915127
-4.042145	along	-0.5945139
-3.253162	alot	-0.7797555
-5.560658	alphabet	-0.03670274
-5.560658	alphabets	-0.111721
-5.560658	alread	-0.111721
-3.135777	already	-0.3187528
-4.519266	alright	-0.2640168
-2.880323	also	-0.2347814
-5.560658	alter	-0.03670274
-5.560658	altera	-0.03670274
-4.782507	alternate	-0.004847795
-4.71556	alternative	-0.1335492
-5.259628	alternatives	-0.1758166
-5.560658	alternity	-0.03670274
-3.768267	although	-0.3304079
-5.560658	altitude	-0.1795975
-4.958599	altogether	-0.1063636
-4.657568	alumni	-0.2258856
-4.657568	alvin	-0.3350361
-3.440085	always	-0.1148804
-3.364759	am	-0.1580457
-4.861689	amanda	-0.1180012
-5.560658	amateur	-0.1780205
-5.560658	amazed	-0.1789162
-4.481477	amazing	-0.424588
-5.259628	amazon	0.06079353
-5.560658	ambassador	-0.111721
-5.560658	ambassitor	-0.03670274
-5.560658	ambiance	-0.1795952
-4.958599	ambience	-0.6130921
-5.083537	ambiguous	-0.1814308
-4.71556	ambition	-0.1699956
-5.259628	ambitious	-0.03351778
-5.259628	ambulance	-0.03669778
-4.958599	amelia	-0.1399432
-4.446715	america	-0.5509527
-4.180447	american	-0.3807403
-5.560658	amin	-0.111721
-5.560658	ammonia	-0.1754417
-5.560658	ammunition	-0.03670274
-4.305386	among	-0.2974567
-5.560658	amos	-0.03670274
-4.069297	amount	-0.4189527
-5.560658	amounts	-0.1794602
-5.560658	amplify	-0.1793431
-5.560658	amplitude	-0.03670274
-5.083537	amusement	-0.5403183
-4.606416	amway	-0.8571004
-5.083537	amy	-0.1767764
-3.606416	an	-0.2613152
-5.560658	anaesthetic	-0.111721
-5.560658	analog	-0.1795892
-5.560658	analogy	-0.111721
-5.560658	analys	-0.1769872
-4.281905	analyse	-0.4369937
-5.560658	analyses	-0.1773163
-4.069297	analysis	-0.3909986
-5.259628	analyst	-0.2775199
-5.560658	analysts	-0.03670274
-5.083537	analytical	-0.03648859
-4.71556	analyze	-0.2776781
-5.560658	analyzing	-0.03670274
-5.083537	anatomy	-0.181635
-4.71556	ancient	-0.1564605
-2.279853	and	-0.2003841
-5.259628	andersen	0.06079353
-5.083537	anderson	-0.1815404
-5.083537	andrew	0.06079976
-5.560658	andriod	-0.03670274
-4.305386	android	-0.5810258
-5.560658	andy	-0.03670274
-4.606416	ang	-0.3238716
-5.560658	angbao	-0.03670274
-4.606416	angel	-0.2780911
-5.259628	angeles	-0.2775199
-4.958599	angelina	-0.7559869
-5.560658	angels	-0.1761044
-5.560658	angkor	-0.1795999
-4.481477	angle	-0.1343461
-5.560658	angles	-0.03670274
-5.560658	anglican	-0.1794363
-5.259628	anglo	-0.4199965
-5.259628	angmoh	-0.03491658
-4.606416	angry	-0.006064117
-4.71556	animal	-0.05430107
-4.71556	animals	-0.1686971
-5.083537	animated	-0.1815935
-4.083537	animation	-0.9364892
-4.446715	anime	-0.5259807
-5.083537	anise	-0.1812946
-5.560658	anitmation	-0.1789605
-5.083537	ankle	0.07083456
-5.083537	anniversary	-0.02546017
-5.560658	annotation	-0.03670274
-4.861689	announce	-0.7279348
-5.560658	announcement	-0.03670274
-5.259628	annoying	-0.03655833
-4.861689	annual	-0.2604412
-3.587531	another	-0.0859704
-3.897901	answer	-0.3293997
-5.560658	answering	-0.1769933
-5.259628	answers	-0.1728074
-5.083537	anthem	-0.3975357
-5.083537	anthony	-0.03351444
-4.356538	anti	-0.4479185
-4.958599	antibody	-0.1782117
-5.560658	antioxidant	-0.03670274
-5.560658	antique	-0.03670274
-4.782507	antivirus	-0.175474
-5.560658	antonio	-0.03670274
-5.560658	ants	-0.111721
-5.560658	antwerp	-0.03670274
-5.560658	anxious	-0.03670274
-3.592175	any	-0.06820554
-4.958599	anybody	-0.03570913
-4.657568	anyhow	-0.04015893
-4.238439	anymore	-0.2396782
-4.71556	anyone	-0.0543683
-3.71556	anything	-0.2664557
-4.782507	anytime	-0.08356032
-3.768267	anyway	-0.2626717
-4.861689	anywhere	0.0875124
-4.958599	ao	-0.03600015
-5.083537	apart	-0.2559952
-4.657568	apartment	-0.5276079
-5.560658	apathetic	-0.111721
-5.560658	apen	-0.03670274
-4.560658	apex	-0.5723424
-5.083537	apita	-0.03056353
-5.083537	apologise	-0.02009268
-5.259628	apostrophe	-0.2775199
-5.083537	apparatus	-0.1812946
-4.41453	apparently	0.02816653
-4.519266	appeal	-0.1105452
-5.560658	appealing	-0.1754417
-4.958599	appear	-0.2145821
-5.259628	appearance	-0.03630424
-5.560658	appeared	-0.1787392
-5.560658	appears	-0.1786386
-5.560658	appetizing	-0.03670274
-4.238439	apple	-0.3990341
-5.259628	appliances	-0.03538129
-4.861689	applicable	-0.3518563
-3.747745	application	-0.5922133
-5.560658	applications	-0.03670274
-4.519266	applied	-0.4859484
-5.560658	applies	-0.1754417
-3.427119	apply	-0.6520963
-4.657568	applying	-0.2261435
-5.560658	appoint	-0.03670274
-4.861689	appointment	-0.3241215
-5.560658	appointments	-0.111721
-5.560658	appraise	-0.03670274
-4.41453	appreciate	-0.2302156
-5.560658	appreciated	-0.1789162
-5.560658	appreciation	-0.1794841
-4.305386	approach	-0.3071869
-5.560658	approached	-0.1763692
-5.560658	appropriate	-0.1769933
-5.259628	approval	-0.4198483
-4.259628	approve	-0.9280574
-4.384567	april	-0.3819917
-5.259628	aquarium	-0.2775199
-5.560658	aquilidation	-0.1793741
-4.861689	ar	-0.3241215
-5.560658	arabic	-0.1795068
-5.083537	arashi	-0.181625
-4.958599	arcade	-0.03749369
-5.259628	archaeology	-0.1107116
-5.560658	archery	-0.1769872
-5.560658	archi	-0.03670274
-5.083537	archieve	-0.1816416
-5.259628	archievement	-0.03638563
-4.042145	architect	-0.7450969
-4.958599	architects	-0.6130921
-3.897901	architecture	-0.6048861
-5.560658	archive	-0.1795546
-2.764778	are	-0.3261148
-3.315146	area	-0.7633694
-4.560658	areas	-0.2855403
-5.259628	argentina	-0.2775199
-4.657568	argue	-0.1037945
-5.560658	arguement	-0.03670274
-4.782507	argument	-0.3000394
-5.560658	arises	-0.03670274
-4.71556	arizona	-0.3713909
-4.356538	arm	-0.2172424
-5.560658	arms	-0.1703792
-3.703326	army	-0.3953312
-4.958599	arnold	-0.6130921
-5.560658	arnorh	-0.1761044
-3.272857	around	-0.2529095
-4.198931	arr	-0.06615824
-4.560658	arrange	-0.2531903
-5.560658	arranged	-0.1776848
-5.560658	arrangement	-0.03670274
-5.259628	arrangements	-0.03584383
-5.560658	arrive	-0.03670274
-5.560658	arrogant	-0.111721
-5.560658	arrow	-0.03670274
-5.560658	arsenal	-0.03670274
-3.969594	art	-0.4999861
-4.33021	article	-0.6833129
-4.560658	articles	-0.2870134
-5.560658	articulation	-0.03670274
-5.259628	artificial	-0.1795796
-5.560658	artis	-0.03670274
-4.481477	artist	-0.6862066
-5.560658	artistic	-0.03670274
-5.259628	artists	-0.03325187
-3.937409	arts	-0.393836
-2.702121	as	-0.7053397
-4.782507	asean	-0.5095509
-5.259628	ash	-0.2775199
-5.560658	ashley	-0.111721
-3.907446	asia	-0.5332248
-4.384567	asian	-0.115856
-5.560658	asians	-0.03670274
-4.958599	aside	-0.03979209
-3.40837	ask	-0.4361296
-4.41453	asked	-0.2009985
-4.560658	asking	-0.2560944
-4.657568	asleep	-0.1416663
-5.259628	aspects	-0.03406414
-5.560658	aspire	-0.1754417
-5.560658	ass	-0.1795784
-4.782507	assembly	-0.03152531
-5.259628	assess	-0.2775199
-4.560658	assessment	-0.3200204
-5.259628	asset	-0.03091016
-4.41453	assign	-0.6009462
-5.083537	assigned	-0.03357963
-3.836383	assignment	-0.670792
-4.861689	assignments	-0.01752652
-4.861689	assist	-0.2125864
-5.083537	assistance	-0.03667951
-4.259628	assistant	-0.2945987
-5.560658	assistants	-0.111721
-5.083537	associate	-0.03658988
-5.259628	association	-0.2775199
-4.657568	assume	-0.6094622
-4.958599	assuming	-0.1359285
-5.560658	assumption	-0.03670274
-5.560658	assurance	-0.1769872
-5.560658	astar	-0.111721
-4.519266	astro	-0.3905827
-2.830684	at	-0.6459923
-4.861689	ate	-0.2564908
-5.560658	athlete	-0.111721
-5.560658	athletes	-0.111721
-5.560658	athletic	-0.03670274
-5.560658	atlantic	-0.03670274
-4.782507	atmosphere	-0.4124415
-4.861689	atom	-0.7279348
-5.560658	atoms	-0.1796011
-5.560658	atract	-0.03670274
-4.657568	attach	-0.5675744
-4.481477	attached	-0.2891043
-4.09826	attachment	-0.5638651
-4.606416	attack	-0.01130587
-5.259628	attacker	-0.1009179
-5.259628	attacking	-0.03665295
-5.560658	attact	-0.03670274
-4.71556	attempt	-0.3962435
-5.560658	attempted	-0.1790406
-4.238439	attend	-0.7333093
-4.958599	attendance	-0.2739951
-5.560658	attendant	-0.03670274
-4.259628	attention	-0.4061461
-5.259628	attire	0.06079353
-4.113501	attitude	-0.5161784
-4.519266	attract	-0.2181977
-5.259628	attracted	-0.4162589
-4.606416	attraction	-0.2671524
-5.259628	attractive	-0.03642549
-5.560658	attracts	-0.03670274
-5.259628	attribute	-0.4162589
-4.958599	au	-0.6130921
-5.083537	auckland	-0.3975357
-4.71556	audi	-0.2265875
-4.657568	audience	-0.09613132
-5.259628	audio	-0.03577566
-4.384567	audit	-0.4660813
-4.782507	audition	-0.08134757
-5.560658	aug	-0.179588
-4.481477	august	-0.02615404
-4.356538	aunt	-0.5334084
-3.980875	auntie	-0.356879
-4.606416	aunties	-0.2017306
-5.560658	aunty	-0.1794554
-5.560658	austin	-0.03670274
-3.734584	australia	-0.5522004
-4.958599	australian	-0.04299578
-5.259628	authentic	-0.0294697
-4.560658	author	-0.2992222
-5.259628	authorisation	0.06079353
-5.259628	authorise	0.06079353
-5.560658	authoritative	-0.1773163
-4.782507	authority	-0.003601387
-5.560658	authorize	-0.03670274
-5.560658	autism	-0.03670274
-5.560658	autistic	-0.111721
-4.356538	auto	-0.451844
-5.560658	autoclave	-0.03670274
-4.782507	automate	-0.5473441
-5.259628	automated	-0.111626
-4.71556	automatic	-0.1574647
-4.71556	automatically	-0.2678106
-5.083537	automation	-0.3975357
-5.560658	autonomous	-0.176291
-4.782507	autumn	-0.08270925
-5.560658	availability	-0.03670274
-4.384567	available	-0.03109652
-5.560658	avalable	-0.1771218
-4.560658	avatar	-0.308491
-5.259628	avenue	-0.1772971
-4.09826	average	-0.3515646
-5.560658	averagely	-0.03670274
-5.560658	aviation	-0.03670274
-5.560658	avid	-0.1795999
-5.560658	avin	-0.03670274
-4.560658	avoid	-0.193124
-5.083537	awake	-0.08414865
-5.560658	awaken	-0.111721
-5.083537	award	-0.03574406
-5.259628	awards	0.06079353
-5.560658	aware	-0.1774964
-5.560658	awareness	-0.03670274
-3.844655	away	-0.583912
-5.560658	aways	-0.1790311
-5.083537	awesome	-0.18164
-4.958599	awhile	0.07982424
-4.782507	awkward	-0.0651179
-5.560658	axel	-0.1795677
-4.71556	ay	-0.08271632
-3.888561	b	-0.5140991
-5.259628	ba	-0.03652678
-5.083537	babies	-0.1723838
-4.218236	baby	-0.3878302
-5.560658	babysit	-0.03670274
-5.560658	babysitter	-0.03670274
-5.560658	bac	-0.1794757
-4.519266	bachelor	-0.3309472
-3.248905	back	-0.3542615
-4.958599	backdrop	0.06104703
-3.917206	background	-0.4468032
-5.560658	backgrounds	-0.111721
-4.446715	backpack	-1.05315
-5.259628	backpacker	-0.4204172
-4.861689	backpacking	-0.01515356
-4.71556	backs	-0.3032883
-5.560658	backseat	-0.03670274
-5.560658	backstab	-0.1777052
-5.259628	backstabbing	-0.03647365
-4.71556	backstage	-0.2703622
-5.259628	backstreet	-0.1795474
-4.71556	backup	-0.1340412
-5.259628	backward	-0.1752113
-3.937409	bacteria	-0.775508
-5.560658	bacterias	-0.1796011
-3.298208	bad	-0.3436324
-4.958599	badly	0.0641762
-3.844655	badminton	-0.385866
-4.042145	bag	-0.5779828
-5.259628	baggy	-0.1763668
-5.259628	bags	-0.03306445
-4.198931	bah	-0.7735049
-5.560658	bahasa	-0.1795581
-5.560658	bahru	-0.111721
-5.259628	bail	-0.420416
-4.861689	baileys	-0.1071003
-4.782507	bake	-0.1787151
-4.958599	baked	-0.2756681
-5.560658	baker	-0.03670274
-5.560658	bakery	-0.179508
-4.782507	baking	-0.1784303
-4.055509	balance	-0.4170396
-5.560658	balanced	-0.03670274
-5.083537	balancing	-0.1787157
-5.259628	balastier	-0.03574905
-5.259628	balcony	0.06079353
-5.560658	balding	-0.1769872
-4.41453	bali	-0.7222507
-3.969594	ball	-0.4551398
-5.083537	ballarat	-0.3975357
-5.560658	ballet	-0.1703792
-4.384567	balloon	-0.7476841
-4.71556	ballot	-0.3012478
-4.861689	balloting	-0.1092297
-5.560658	ballroom	-0.1795952
-5.259628	balls	-0.1748686
-5.259628	bamboo	-0.1795832
-5.083537	ban	-0.3975357
-4.606416	banana	-0.2048211
-3.853088	band	-0.5233645
-5.560658	bandit	-0.1783177
-5.259628	bands	-0.1734742
-5.560658	bandwagon	-0.03670274
-5.560658	bandwidth	-0.03670274
-5.560658	bang	-0.1794602
-5.560658	bangalore	-0.1773163
-5.560658	bangi	-0.03670274
-4.113501	bangkok	-0.4563293
-5.560658	bangkokay	-0.03670274
-5.560658	bangla	-0.1795963
-5.083537	bangladesh	-0.18164
-3.836383	bank	-0.3220508
-5.259628	banker	-0.03577566
-4.162718	banking	-0.4275949
-4.782507	bankrupt	0.01287742
-4.560658	banks	-0.1763324
-5.560658	banned	-0.1776848
-4.958599	banner	-0.2708395
-5.083537	bao	-0.2458601
-4.481477	bar	-0.5250698
-5.560658	barbe	-0.03670274
-4.560658	barbecue	-0.1017787
-4.481477	barbeque	-0.6861962
-5.259628	barber	-0.4203252
-5.560658	barcelona	-0.03670274
-5.560658	barclay	-0.1795868
-5.259628	barcode	-0.03669943
-5.560658	barefoot	-0.1789605
-4.71556	bargain	-0.3735811
-5.259628	baristar	-0.02999757
-5.560658	barker	-0.03670274
-5.560658	barn	-0.1795892
-5.560658	barracks	-0.111721
-5.259628	barracuda	0.06079353
-5.083537	barrage	-0.08414865
-5.560658	barren	-0.1795689
-5.560658	barricade	-0.03670274
-4.958599	barrier	-0.03914262
-5.259628	bars	-0.2775199
-3.789807	base	-0.9152544
-5.083537	baseball	-0.1075115
-3.685597	based	-0.8108774
-5.560658	baseline	-0.03670274
-5.259628	basement	0.06079353
-5.560658	bases	-0.1786386
-4.41453	bash	-0.4165097
-3.535353	basic	-0.6260515
-3.888561	basically	-0.5652801
-5.560658	basics	-0.1774964
-5.083537	basin	-0.08414865
-4.782507	basis	0.06954601
-4.861689	basket	-0.02609842
-3.828265	basketball	-0.3508781
-5.259628	basketballer	-0.2775199
-5.259628	bass	-0.0366513
-5.560658	bastard	-0.176291
-5.560658	bat	-0.03670274
-5.259628	batam	-0.2775199
-3.64158	batch	-0.7024623
-5.560658	bath	-0.1796011
-5.083537	bathe	-0.1098261
-5.560658	bathing	-0.03670274
-5.083537	bathroom	-0.08414865
-5.560658	bathtub	-0.111721
-5.259628	batik	-0.1795976
-5.259628	batok	-0.03638563
-4.519266	battery	-0.5870253
-4.958599	batu	-0.7559869
-5.259628	baxter	-0.2775199
-4.657568	bay	-0.2375322
-5.560658	bbc	-0.03670274
-5.259628	bbq	0.06079353
-2.847168	be	-0.1492323
-4.162718	beach	-0.2713531
-4.782507	beam	-0.2314912
-4.861689	bean	-0.2161754
-4.481477	bear	-0.3303016
-5.560658	bearing	-0.1787595
-5.560658	bears	-0.03670274
-5.560658	beast	-0.1769933
-5.560658	beastie	-0.03670274
-4.861689	beat	-0.2543136
-5.560658	beatrice	-0.03670274
-5.560658	beautician	-0.111721
-4.33021	beautiful	-0.1641634
-4.446715	beauty	-0.1011651
-5.259628	became	-0.1737793
-2.732643	because	-0.6244816
-3.992457	become	-0.2038214
-5.083537	becomes	-0.3180661
-5.083537	becoming	-0.322477
-4.606416	bed	-0.2533162
-5.560658	bedok	-0.1795999
-5.259628	bee	-0.1795976
-4.657568	beef	-0.1928367
-3.861689	been	-0.1682192
-4.71556	beep	-0.5459917
-4.861689	beer	-0.4212674
-3.095276	before	-0.4579226
-5.560658	beg	-0.1776848
-5.083537	begin	0.06805629
-5.560658	begining	-0.1794674
-5.259628	beginner	-0.03667951
-4.356538	beginning	-0.1957535
-5.259628	behave	-0.2775199
-5.259628	behaves	-0.4156049
-4.519266	behavior	-0.5228052
-5.560658	behavioral	-0.1773127
-5.560658	behaviorial	-0.1794172
-5.560658	behaviours	-0.03670274
-4.238439	behind	-0.09105968
-5.083537	beijing	-0.02998579
-4.198931	being	-0.1187886
-5.560658	beings	-0.03670274
-5.083537	belated	0.06087039
-4.861689	belgium	-0.7279348
-4.02918	believe	-0.2249207
-5.560658	believeable	-0.1787392
-5.560658	believer	-0.1771218
-5.083537	bell	-0.5404222
-5.560658	belly	-0.111721
-4.71556	belong	-0.5648671
-5.259628	belongs	-0.4162589
-4.481477	below	-0.06801423
-4.958599	belt	-0.6130921
-4.519266	ben	-0.9805992
-5.560658	bench	-0.03670274
-4.519266	bend	-0.2335962
-5.560658	bending	-0.179459
-5.560658	beneficial	-0.111721
-3.969594	benefit	-0.7410707
-4.861689	benefits	-0.3241215
-5.560658	benificial	-0.03670274
-5.560658	bertam	-0.03670274
-4.305386	beside	-0.1639155
-4.41453	besides	-0.2969047
-3.697336	best	-0.1675386
-4.958599	bet	-0.1324636
-5.083537	beta	-0.1816018
-5.259628	betray	-0.03669278
-5.560658	betrayal	-0.1774964
-3.578387	better	-0.2889725
-3.870462	between	-0.2300283
-5.560658	beverage	-0.111721
-5.560658	beverly	-0.1773163
-5.560658	beware	-0.1774964
-5.083537	beyond	-0.02772802
-5.259628	bhatt	-0.03653011
-4.71556	bi	0.07857804
-5.560658	bia	-0.03670274
-4.861689	bias	-0.01447408
-5.560658	biathlon	-0.03670274
-4.657568	bible	0.0177245
-5.560658	bibles	-0.1769872
-4.606416	bicycle	-0.3716367
-4.861689	bid	-0.2003454
-5.259628	bidding	-0.03657825
-3.657568	big	-0.06536397
-4.481477	bigger	-0.02874672
-4.657568	biggest	-0.1779498
-4.481477	bike	-0.1697674
-5.560658	biker	-0.1763692
-5.560658	biking	-0.1780205
-4.861689	bilingual	-0.114747
-5.560658	bilingualism	-0.03670274
-5.560658	bilinguals	-0.111721
-4.41453	bill	-0.2275768
-5.259628	billion	-0.1117042
-5.259628	billions	-0.0335228
-4.958599	bills	-0.133779
-5.560658	billy	-0.03670274
-5.560658	bimbo	-0.1780205
-5.560658	bimbotic	-0.1793921
-5.560658	binary	-0.1795892
-4.519266	bind	-0.6723064
-5.560658	binder	-0.111721
-5.259628	binding	-0.03665295
-5.560658	binds	-0.03670274
-5.259628	binomial	-0.03667453
-3.741115	bio	-0.4141244
-5.259628	biochemistry	0.06079353
-5.083537	biodegradable	-0.1815686
-4.861689	biodiversity	-0.7279348
-4.958599	bioinformatics	-0.2708395
-5.560658	bioinformation	-0.03670274
-4.606416	biological	-0.2828737
-5.560658	biologist	-0.03670274
-4.446715	biology	-0.4337898
-5.259628	biomedical	-0.03640889
-5.259628	bioplastic	-0.2775199
-5.259628	bios	-0.03630091
-5.259628	bioscience	0.06079353
-4.782507	biotech	0.06812602
-4.71556	bird	-0.2321171
-5.259628	birds	-0.1761165
-5.083537	birth	-0.1068087
-3.81247	birthday	-0.2817317
-5.560658	birthdays	-0.03670274
-5.083537	bis	-0.3244788
-4.782507	biscuit	-0.1787837
-5.083537	bishan	-0.08414865
-3.685597	bit	-0.3031539
-5.259628	bitch	-0.03613476
-4.958599	bite	-0.03637402
-5.259628	bites	0.06079353
-4.958599	bitter	-0.04313083
-5.560658	bitterness	-0.1769872
-4.259628	biz	-0.5485631
-5.560658	blabbering	-0.1795987
-4.145685	black	-0.1833996
-4.606416	blackberry	-0.1762096
-5.560658	blackmail	-0.111721
-5.560658	blacks	-0.1790992
-5.560658	blading	-0.176291
-4.606416	blah	-0.2866243
-5.083537	blame	-0.0321044
-5.560658	blamed	-0.111721
-4.958599	blank	-0.03982767
-5.560658	blatantly	-0.111721
-4.71556	bleach	-0.3292401
-4.657568	blend	-0.3101721
-5.259628	blending	-0.2775199
-5.560658	blew	-0.1775372
-4.782507	blind	-0.2552548
-5.259628	blindfold	-0.2775199
-5.083537	blindfolded	-0.1687744
-5.560658	blindly	-0.03670274
-5.560658	blinds	-0.03670274
-4.958599	bling	-0.3525326
-5.259628	blinking	0.06079353
-5.259628	blister	-0.2775199
-5.560658	blisters	-0.03670274
-5.560658	blob	-0.03670274
-3.62616	block	-0.4067062
-4.958599	blocks	0.06283207
-4.113501	blog	-0.5088075
-5.560658	blogspot	-0.111721
-5.560658	blond	-0.03670274
-5.259628	blonde	-0.1743684
-3.861689	blood	-0.2924605
-4.861689	bloody	-0.1160429
-5.560658	blot	-0.03670274
-5.560658	blotting	-0.03670274
-5.560658	blouse	-0.03670274
-4.782507	blow	-0.09671271
-5.083537	blowing	-0.02382714
-5.560658	blown	-0.1789509
-5.560658	blows	-0.03670274
-5.259628	blu	-0.4204136
-4.519266	blue	-0.104036
-5.259628	blueray	-0.2775199
-5.083537	bluetooth	-0.3975357
-5.083537	bluff	-0.3239661
-4.218236	blur	-0.5929427
-5.560658	blurry	-0.03670274
-5.560658	bo	-0.1793753
-4.145685	board	-0.3315583
-5.083537	boards	0.06102626
-4.41453	boat	-0.586415
-4.958599	bob	-0.4185132
-5.259628	bodies	-0.2775199
-4.016591	body	-0.06742913
-5.083537	boh	-0.1815653
-5.083537	boil	-0.08414865
-5.560658	boiling	-0.03670274
-5.560658	bok	-0.03670274
-4.861689	bollywood	0.08247814
-4.861689	bomb	-0.3445823
-5.083537	bombastic	-0.1815951
-4.042145	bond	-0.4301046
-5.259628	bondage	-0.03491658
-4.446715	bonded	-0.4323556
-4.41453	bonding	-0.1653097
-4.657568	bonds	-0.1695665
-5.259628	bone	-0.03618628
-5.560658	bong	-0.03670274
-5.560658	bonjour	-0.1773163
-4.657568	bonus	-0.2566566
-3.477873	book	-0.5042106
-5.259628	booked	-0.2775199
-4.958599	booking	-0.1782117
-4.560658	booklet	-0.4498192
-5.560658	bookmark	-0.03670274
-4.519266	books	-0.1756011
-5.560658	bookshop	-0.111721
-5.259628	bookstore	-0.2775199
-4.958599	boom	-0.2736353
-5.560658	boomz	-0.111721
-4.861689	boon	-0.3454762
-5.083537	boost	-0.1774244
-5.259628	booster	-0.4204016
-5.560658	boot	-0.03670274
-5.259628	booth	-0.1117084
-5.560658	booths	-0.03670274
-5.083537	boots	-0.1687744
-5.259628	borderline	-0.3525382
-5.560658	borders	-0.111721
-4.958599	bored	0.0644757
-5.560658	boredom	-0.03670274
-3.789807	boring	-0.4943665
-4.782507	born	-0.1678906
-5.560658	borough	-0.03670274
-4.519266	borrow	-0.1491832
-5.083537	borrowing	-0.0331565
-4.083537	boss	-0.4693231
-5.560658	bossy	-0.03670274
-5.259628	boston	-0.4204172
-5.259628	botanic	-0.179582
-5.560658	botanical	-0.1796011
-3.879417	both	-0.3066214
-4.861689	bother	-0.03027393
-5.083537	bothered	-0.1747309
-4.446715	bottle	-0.8487356
-4.861689	bottom	-0.1752862
-4.782507	bought	-0.2376639
-4.782507	bouldering	-0.07335901
-5.083537	bounce	-0.5401904
-5.083537	bound	-0.08414865
-5.560658	boundaries	-0.03670274
-5.259628	boundary	-0.3525382
-5.560658	bouquets	-0.1773163
-5.560658	boutique	-0.03670274
-5.083537	bow	-0.181635
-5.560658	bowel	-0.111721
-4.657568	bowl	-0.1195629
-4.481477	bowling	-0.1714584
-4.113501	box	-0.3049005
-5.259628	boxers	0.06079353
-5.259628	boxing	-0.03624776
-4.281905	boy	-0.0458543
-4.083537	boyfriend	-0.3698109
-4.129295	boys	-0.2337683
-5.259628	bra	0.06079353
-5.259628	brace	-0.4204088
-5.259628	braces	-0.2775199
-5.259628	bracket	-0.1116567
-4.384567	brain	-0.0724782
-5.560658	brainless	-0.03670274
-5.083537	brains	-0.02917427
-5.560658	brainstorm	-0.03670274
-5.259628	brake	0.06079353
-4.41453	branch	-0.2289803
-4.305386	brand	-0.3285668
-4.861689	branded	-0.7279348
-5.259628	branding	-0.1114584
-4.958599	brandon	-0.6130921
-5.259628	brass	-0.2775199
-4.305386	braun	-0.560105
-5.083537	brave	-0.03210272
-5.560658	brazil	-0.03670274
-5.560658	brazilian	-0.111721
-4.519266	bread	-0.07239372
-3.721809	break	-0.444401
-5.560658	breakdown	-0.1788792
-4.356538	breakfast	-0.1291262
-5.259628	breaking	-0.0294697
-5.560658	breaks	-0.1771218
-5.259628	breakthrough	-0.03656498
-5.560658	breakup	-0.03670274
-4.71556	breast	-0.3078405
-5.259628	breath	-0.3525382
-4.657568	breathe	-0.1001866
-5.560658	breathing	-0.03670274
-5.560658	bred	-0.1771218
-5.560658	breed	-0.03670274
-5.560658	brendy	-0.03670274
-5.560658	brew	-0.03670274
-5.259628	brian	-0.03306445
-5.259628	bribe	-0.2775199
-5.083537	bricks	-0.3975357
-5.560658	bride	-0.03670274
-4.305386	bridge	-0.259414
-5.560658	bridging	-0.1790992
-5.560658	brief	-0.1793741
-5.083537	brigade	-0.2563586
-4.958599	bright	-0.1008478
-5.259628	brightness	-0.2775199
-3.897901	bring	-0.2793323
-5.259628	bringing	-0.1743418
-5.083537	brisbane	-0.3975357
-5.560658	british	-0.1795952
-5.083537	broad	-0.1795366
-4.861689	broadband	-0.1147533
-4.356538	broadcast	-0.4088391
-5.560658	broadcaster	-0.111721
-5.560658	broadcasting	-0.1783009
-4.606416	brochure	-0.251994
-5.083537	broke	-0.1807395
-5.259628	broken	-0.4204136
-5.560658	brokering	-0.03670274
-5.560658	bronze	-0.1795892
-5.560658	broth	-0.111721
-3.734584	brother	-0.3222419
-4.71556	brothers	-0.1594952
-5.560658	brouchures	-0.03670274
-4.657568	brought	-0.219102
-4.782507	brown	-0.2314392
-5.560658	brownie	-0.03670274
-5.560658	browse	-0.1794685
-5.560658	browser	-0.03670274
-5.083537	bruce	-0.5404317
-4.782507	brunei	-0.3267231
-4.958599	brush	-0.2823448
-5.259628	brussel	0.06079353
-4.958599	bryan	-0.2750369
-4.606416	bubble	-0.2531381
-5.560658	bubbling	-0.03670274
-4.958599	buck	-0.7553403
-5.560658	bucket	-0.03670274
-5.560658	buckle	-0.03670274
-4.41453	bucks	-0.03847739
-5.560658	buddha	-0.111721
-5.560658	buddhism	-0.1703792
-4.446715	buddhist	-0.06651163
-5.560658	buddhists	-0.111721
-4.519266	buddy	-1.017625
-3.861689	budget	-0.4852829
-5.560658	buffect	-0.1795569
-4.958599	buffer	-0.1800236
-4.069297	buffet	-0.4615836
-4.861689	bug	-0.4170094
-4.446715	bugis	-0.2824461
-4.958599	bugs	-0.6130921
-4.069297	build	-0.6051602
-3.414531	building	-0.5451159
-5.259628	buildings	-0.0356642
-5.560658	builds	-0.1789509
-5.259628	built	-0.03506488
-4.782507	bukit	-0.2762978
-5.083537	bulb	0.06204593
-4.958599	bulk	-0.138783
-4.519266	bull	-0.200091
-5.083537	bulldog	-0.023028
-4.782507	bullet	-0.6900812
-5.259628	bullshit	-0.1108753
-4.71556	bully	-0.2778174
-5.259628	bump	-0.1794578
-5.560658	bumpkin	-0.111721
-4.861689	bunch	-0.1163309
-5.560658	bundle	-0.1777052
-4.657568	bungalow	-0.1365795
-4.606416	bungee	-0.8159834
-5.083537	bunk	-0.1807178
-4.861689	buoyancy	-0.02003627
-4.71556	burden	-0.1722796
-4.861689	burger	-0.03451644
-4.259628	burn	-0.4350022
-5.560658	burning	-0.1796011
-5.259628	burns	-0.1787631
-5.259628	burnt	-0.111714
-5.560658	burp	-0.03670274
-5.560658	burst	-0.1794602
-3.295841	bus	-0.6362358
-4.71556	buses	-0.1580267
-5.259628	bush	-0.2775199
-5.560658	bushy	-0.1767697
-5.560658	busic	-0.03670274
-3.214306	business	-0.4101317
-5.560658	businessman	-0.1703792
-5.560658	businessmen	-0.111721
-4.09826	busy	-0.1530438
-2.119435	but	-0.7342458
-5.259628	butt	-0.03659485
-4.71556	butter	-0.05926114
-5.259628	butterfly	-0.03654006
-5.083537	butterworth	-0.3975357
-4.481477	button	-0.02310482
-3.761318	buy	-0.1818416
-4.384567	buyer	-0.4021421
-4.861689	buying	-0.1899993
-5.560658	buys	-0.1793598
-3.180447	by	-0.1835609
-4.560658	bye	-0.2839332
-5.560658	byran	-0.03670274
-3.351144	c	-0.4000692
-5.560658	ca	-0.1795975
-4.782507	cab	-0.4124415
-5.560658	cabbage	-0.03670274
-5.560658	cabin	-0.03670274
-4.180447	cable	-1.10274
-4.958599	cabohidrate	-0.1339712
-5.259628	cac	0.06079353
-5.560658	cactus	-0.179551
-5.259628	cadet	-0.1790789
-5.259628	cadets	-0.1760767
-4.356538	cafe	-0.3075415
-3.879417	cake	-0.7175558
-5.560658	calamary	-0.03670274
-5.083537	calcium	-0.3975357
-5.560658	calcul	-0.03670274
-4.113501	calculate	-0.4592452
-5.560658	calculated	-0.1786781
-4.33021	calculation	-0.6506183
-5.083537	calculations	-0.3975357
-5.560658	calculator	-0.03670274
-5.560658	calculus	-0.111721
-5.560658	caleb	-0.03670274
-4.71556	calendar	-0.2772998
-5.560658	calibration	-0.1794375
-4.657568	california	-0.03724407
-3.322613	call	-0.4450538
-3.754478	called	-0.1934599
-5.560658	caller	-0.03670274
-5.560658	calligraphy	-0.1769872
-4.861689	calling	-0.2900758
-4.41453	calls	-0.2131842
-5.259628	calm	-0.2775199
-4.560658	calorie	-0.2259086
-4.958599	calories	-0.2699154
-5.560658	cam	-0.03670274
-5.560658	camaraderie	-0.1769872
-4.356538	cambodia	-0.1443092
-5.083537	cambridge	-0.3975357
-4.09826	came	-0.452287
-5.560658	cameo	-0.03670274
-3.870462	camera	-0.5677761
-4.861689	cameraman	-0.4179795
-5.560658	cameras	-0.111721
-4.41453	cameron	-1.175085
-3.222202	camp	-0.6647915
-4.519266	campaign	-0.3896827
-5.560658	campaigns	-0.03670274
-5.560658	camper	-0.03670274
-5.560658	campfire	-0.03670274
-4.958599	camping	0.06688966
-4.958599	camps	-0.03540628
-5.083537	campsite	-0.1733821
-4.259628	campus	-0.3056037
-2.716803	can	-0.3395457
-4.782507	canada	-0.2265709
-4.606416	canadian	-0.3505718
-5.560658	canal	-0.178915
-4.33021	cancel	-0.6289549
-4.958599	cancelled	-0.1340268
-4.259628	cancer	-0.6837791
-4.958599	cancerous	-0.1782117
-5.083537	candice	0.06080183
-5.560658	candid	-0.1795916
-5.259628	candidate	-0.2775199
-4.606416	candle	-0.188952
-5.560658	candles	-0.1747877
-4.129295	candy	-0.3555025
-5.083537	cane	-0.03122458
-5.560658	caned	-0.1776848
-5.560658	canidae	-0.03670274
-4.861689	caning	-0.01568924
-5.259628	cannon	-0.2775199
-3.132524	cannot	-0.3008805
-4.356538	cannula	-0.3223347
-5.259628	cannulation	-0.1114374
-4.657568	canoe	-0.2323122
-4.958599	canoeing	-0.1003291
-5.259628	canon	-0.1795104
-5.560658	cans	-0.1774964
-4.71556	cant	-0.2704908
-3.969594	canteen	-0.3406931
-4.198931	cantonese	-0.5380477
-4.71556	canvas	-0.05980261
-4.481477	canvass	-0.07221282
-3.947875	canvassing	-0.3959878
-5.083537	canyon	0.06573249
-4.657568	cap	-0.3149315
-4.958599	capability	-0.1800236
-5.083537	capable	-0.1063396
-5.259628	capacitor	0.06079353
-4.657568	capacity	-0.2291504
-4.446715	capital	-0.8477816
-5.259628	capsule	-0.2775199
-4.41453	captain	-0.2366446
-5.560658	captains	-0.111721
-5.560658	captivating	-0.1793311
-4.238439	capture	-0.9513232
-3.734584	car	-0.2689853
-5.259628	caramel	0.06079353
-5.083537	caravan	-0.18164
-5.560658	carbohydrate	-0.03670274
-4.09826	carbon	-0.4399922
-5.560658	carbonated	-0.03670274
-3.668564	card	-0.6749555
-4.861689	cardboard	-0.7279348
-5.560658	cardboards	-0.111721
-4.861689	cards	-0.003615141
-3.917206	care	-0.2438693
-4.41453	career	-0.2521952
-5.560658	careers	-0.03670274
-5.560658	carefree	-0.03670274
-4.861689	careful	-0.02850166
-5.560658	cargo	-0.1796011
-5.560658	caribbean	-0.111721
-5.560658	carlo	-0.03670274
-5.560658	carnegie	-0.03670274
-5.560658	carnival	-0.03670274
-4.356538	caroling	-0.1442332
-5.083537	carolling	-0.03472322
-5.259628	carols	0.06079353
-5.083537	carpark	-0.3975357
-5.083537	carpet	-0.3975357
-5.083537	carried	-0.0357374
-5.083537	carrot	-0.324486
-4.218236	carry	-0.3777584
-4.958599	carrying	-0.1673542
-4.481477	cars	-0.3258849
-5.560658	carton	-0.1795689
-4.113501	cartoon	-0.5277711
-5.560658	carved	-0.1791949
-5.560658	carvings	-0.111721
-3.697336	case	-0.3960788
-4.481477	cases	-0.1439492
-4.519266	cash	-0.2660525
-4.782507	cashier	-0.1687151
-4.958599	casing	-0.2114379
-4.41453	casino	-0.587095
-5.259628	casinos	-0.02383226
-4.281905	cast	-0.2374447
-5.560658	casted	-0.1754417
-5.259628	caster	-0.03644542
-5.560658	casting	-0.1793765
-5.259628	castle	-0.1769356
-4.356538	castor	-0.4423363
-5.083537	casual	-0.1815785
-4.958599	cat	-0.1395058
-5.560658	catalog	-0.03670274
-4.861689	catalyst	-0.1179305
-4.055509	catch	-0.5115255
-4.958599	catchy	-0.03107665
-5.083537	categories	-0.08414865
-5.259628	categorise	-0.1115548
-4.958599	categorize	-0.6130921
-4.356538	category	-0.528335
-4.782507	cater	-0.2678156
-4.606416	cathay	-0.3700702
-5.560658	cathedral	-0.03670274
-5.560658	cather	-0.1776848
-4.606416	catheter	-0.2099923
-5.560658	cathode	-0.1795963
-4.782507	catholic	0.07540178
-5.259628	cats	-0.03668781
-5.560658	catter	-0.1795199
-5.560658	catwalk	-0.03670274
-5.560658	caucasian	-0.03670274
-4.861689	caught	-0.2909833
-5.560658	causation	-0.03670274
-3.157538	cause	-0.494981
-5.083537	caused	-0.1744119
-5.259628	cave	-0.1734681
-5.560658	cd	-0.03670274
-5.560658	cds	-0.111721
-5.560658	cecification	-0.1795677
-5.259628	ceiling	-0.4204016
-4.958599	celcom	0.06081429
-4.042145	celebrate	-0.3082638
-5.560658	celebrated	-0.1795354
-5.083537	celebrating	-0.1775768
-4.519266	celebration	-0.1426332
-5.259628	celebrations	-0.1088194
-4.71556	celebrity	-0.2777509
-5.083537	celestica	-0.08414865
-5.560658	celine	-0.1796011
-3.992457	cell	-0.7032921
-5.259628	cello	-0.02383226
-4.958599	cells	-0.1396688
-5.259628	celtics	-0.2775199
-5.083537	cement	-0.1814158
-5.560658	cemented	-0.1795462
-5.560658	cemetery	-0.111721
-5.560658	censor	-0.03670274
-4.71556	cent	-0.05140935
-4.09826	center	-0.5959611
-5.560658	centers	-0.111721
-5.560658	centimeters	-0.03670274
-5.560658	centimetre	-0.1796011
-4.446715	central	-0.1589766
-5.560658	centralised	-0.111721
-5.560658	centralize	-0.03670274
-5.259628	centralized	-0.2775199
-3.616176	centre	-0.5491561
-5.560658	centres	-0.1747877
-5.560658	centric	-0.1795868
-4.782507	cents	-0.08217476
-5.560658	century	-0.1795856
-5.560658	cep	-0.1747877
-5.560658	ceramic	-0.1795987
-5.259628	cereal	-0.2775199
-4.71556	ceremony	-0.4002254
-4.069297	cert	-0.565648
-3.71556	certain	-0.1627878
-4.782507	certificate	-0.1756235
-5.560658	certificates	-0.111721
-4.861689	certification	-0.7279348
-4.519266	certified	-0.7759603
-4.657568	certify	-0.2376757
-4.782507	cervic	-0.467354
-4.782507	cervix	-0.268274
-5.259628	cetera	-0.02869949
-5.259628	cha	-0.03669943
-5.560658	chachuchat	-0.1773127
-4.560658	chain	-0.263487
-4.180447	chair	-0.5328065
-5.259628	chairman	-0.03498989
-5.259628	chairperson	-0.177135
-5.560658	chairs	-0.03670274
-4.356538	chalet	-0.3955036
-5.560658	chalets	-0.03670274
-4.481477	challenge	-0.1425759
-5.560658	challenger	-0.03670274
-5.259628	challenges	-0.2775199
-4.519266	challenging	-0.2293682
-5.083537	champ	-0.08414865
-5.259628	champaign	-0.2775199
-4.782507	champion	0.08080208
-4.958599	champions	-0.2789797
-4.958599	championship	-0.1800236
-4.560658	chan	-0.2362132
-3.980875	chance	-0.5252932
-4.71556	chances	-0.290847
-3.685597	change	-0.2821723
-5.083537	changed	-0.02994195
-5.083537	changers	-0.1813228
-4.560658	changes	-0.04253137
-4.606416	changi	-0.0835541
-5.259628	changing	-0.1777951
-4.238439	channel	-0.3313051
-5.560658	channels	-0.1795175
-4.782507	chap	-0.08220397
-5.083537	chapel	0.07696436
-4.305386	chapter	-0.6512912
-5.560658	char	-0.111721
-4.09826	character	-0.5365288
-4.71556	characteristic	-0.3292401
-5.259628	characteristics	-0.2775199
-4.861689	characters	-0.01845789
-5.083537	charcoal	-0.178465
-3.861689	charge	-0.7987713
-4.782507	charged	-0.08137415
-5.560658	charger	-0.1703792
-5.259628	charges	-0.03574738
-5.560658	charging	-0.03670274
-5.560658	charitable	-0.1795713
-4.71556	charity	-0.2324826
-5.560658	charlie	-0.1773163
-4.958599	charming	-0.6130921
-4.519266	chart	-0.03351435
-5.259628	chartered	-0.03669778
-5.560658	charts	-0.1795963
-4.71556	chase	-0.05840403
-4.238439	chat	-0.4387324
-4.782507	chatting	-0.178015
-5.259628	che	-0.179539
-5.259628	cheah	0.06079353
-4.055509	cheap	-0.212285
-4.446715	cheaper	-0.06311779
-5.560658	cheapest	-0.1795999
-5.560658	cheapo	-0.03670274
-4.861689	cheat	-0.216879
-5.560658	cheated	-0.178988
-5.560658	cheating	-0.1785596
-3.373138	check	-0.6422184
-5.259628	checked	-0.1743503
-4.958599	checking	-0.02858284
-5.560658	checkup	-0.03670274
-5.259628	cheena	-0.1770161
-4.129295	cheer	-0.1271476
-5.560658	cheerful	-0.03670274
-5.560658	cheerleader	-0.111721
-5.259628	cheerleaders	-0.1788756
-4.069297	cheerleading	-0.2960624
-3.958599	cheese	-0.6624575
-5.259628	cheesecake	-0.03209433
-5.560658	chef	-0.03670274
-5.259628	chefs	-0.2775199
-5.560658	cheh	-0.111721
-5.259628	chelsea	-0.2775199
-4.162718	chem	-0.3020239
-4.055509	chemical	-0.4543366
-5.560658	chemicals	-0.03670274
-5.560658	chemist	-0.1776848
-3.853088	chemistry	-0.401685
-5.560658	chemotherapy	-0.111721
-5.259628	chen	-0.2775199
-5.083537	chendol	-0.4725539
-5.560658	cheong	-0.1796011
-4.861689	cheque	-0.1197491
-5.560658	cherish	-0.111721
-4.861689	cheryl	-0.1741697
-4.958599	chess	-0.04164711
-5.259628	chest	-0.1791028
-5.560658	chestand	-0.179588
-5.259628	chester	-0.1775288
-5.560658	chestnut	-0.111721
-5.560658	chey	-0.03670274
-5.259628	chi	-0.174389
-5.560658	chia	-0.111721
-5.083537	chiang	-0.3245409
-5.560658	chicago	-0.03670274
-5.560658	chick	-0.111721
-3.958599	chicken	-0.2463133
-4.657568	chief	-0.1343317
-4.259628	child	-0.1881964
-4.861689	childhood	-0.1186334
-4.069297	children	-0.187196
-4.861689	chili	-0.2162086
-5.560658	chimpanzee	-0.111721
-5.560658	chin	-0.111721
-3.828265	china	-0.2531751
-4.861689	chinatown	-0.3241215
-3.011655	chinese	-0.3561324
-5.560658	ching	-0.03670274
-5.083537	chingay	-0.5403696
-5.560658	chio	-0.179594
-4.657568	chiong	0.03534266
-4.958599	chip	-0.2153401
-4.958599	chips	-0.1782117
-5.560658	chipset	-0.03670274
-4.861689	chit	-0.8708093
-5.259628	choa	-0.420416
-4.33021	chocolate	-0.3583316
-5.083537	chocolates	-0.02986608
-3.646845	choice	-0.5426891
-4.71556	choices	-0.392666
-4.016591	choir	-0.3897972
-5.259628	choking	-0.2775199
-5.259628	cholera	-0.2775199
-5.560658	cholesterol	-0.03670274
-5.083537	chong	-0.1798354
-3.697336	choose	-0.2285035
-4.71556	chop	-0.1058006
-5.259628	chopper	0.06079353
-5.083537	chord	-0.2566604
-5.560658	chords	-0.03670274
-5.560658	chore	-0.03670274
-5.560658	choreograph	-0.03670274
-5.259628	chores	-0.1760249
-5.259628	chorus	-0.0363657
-4.958599	chose	-0.275958
-5.259628	chosen	-0.03670108
-4.782507	chris	-0.0784186
-4.861689	christchurch	-0.4216095
-4.09826	christian	-0.2757919
-5.560658	christians	-0.1794446
-3.768267	christmas	-0.276586
-4.71556	chromosome	-0.1349572
-5.259628	chronicle	0.06079353
-5.259628	chronicles	-0.2775199
-5.083537	chu	-0.181635
-5.560658	chua	-0.03670274
-5.560658	chuan	-0.1780205
-5.259628	chui	-0.1113675
-5.560658	chun	-0.1795916
-5.259628	chunky	-0.2775199
-3.861689	church	-0.3643893
-5.560658	cicada	-0.03670274
-5.259628	cigarette	-0.2775199
-4.861689	cigarettes	-0.01883034
-5.259628	cinderalla	-0.03662142
-5.560658	cinderella	-0.03670274
-4.71556	cinema	-0.3292401
-5.259628	cinemas	-0.1106402
-4.481477	circle	-0.3731011
-5.259628	circles	-0.0366015
-4.657568	circuit	-0.237892
-5.560658	circuits	-0.111721
-5.560658	circumstances	-0.03670274
-5.259628	cisco	-0.03668448
-5.083537	citation	-0.08414865
-5.560658	cite	-0.1795987
-4.861689	citibank	-0.1126958
-4.958599	cities	-0.02983744
-5.259628	citizen	0.06079353
-5.259628	citizens	-0.2775199
-3.754478	city	-0.379128
-5.560658	cityhall	-0.1794817
-4.356538	civil	-0.2066385
-5.083537	civilian	-0.03305776
-5.560658	civilized	-0.03670274
-4.481477	claim	-0.5075064
-5.259628	claimed	-0.4178105
-5.560658	claiming	-0.1796011
-5.259628	clara	-0.177662
-5.560658	clarence	-0.1792845
-4.861689	clarify	-0.2166529
-5.560658	clarinet	-0.111721
-4.481477	clash	-0.2439086
-5.560658	clashes	-0.179
-3.356539	class	-0.4480454
-4.861689	classes	-0.1010938
-5.083537	classic	-0.181625
-5.560658	classical	-0.03670274
-4.606416	classmate	-0.3939709
-5.259628	classmates	-0.1116078
-5.083537	classroom	-0.1740879
-5.259628	classy	-0.03632584
-5.259628	clay	-0.03662142
-4.446715	clean	-0.02046108
-5.083537	cleaner	-0.09778149
-5.083537	cleaning	0.06080599
-5.083537	cleanliness	-0.03560098
-3.652174	clear	-0.3797639
-5.083537	clearing	-0.3243498
-5.560658	clearly	-0.1761044
-5.560658	cleary	-0.03670274
-4.560658	clementi	-0.3032923
-5.259628	clerical	-0.4200766
-4.782507	clerk	-0.2302012
-5.560658	clerks	-0.1787798
-4.861689	clever	-0.1133351
-5.083537	cliche	-0.3975357
-3.980875	click	-0.2462031
-5.560658	clicks	-0.111721
-4.384567	client	-0.5109487
-4.782507	clients	-0.06324509
-5.560658	cliff	-0.1795999
-5.259628	climate	-0.1794877
-5.259628	climax	-0.2775199
-4.560658	climb	-0.2968897
-5.560658	climber	-0.03670274
-4.305386	climbing	-0.4604501
-4.481477	clinic	-0.2093649
-4.958599	clinical	-0.2828953
-5.083537	clint	-0.5404317
-4.782507	clip	-0.1776208
-4.069297	clique	-0.4297467
-5.259628	cliques	-0.1677078
-4.446715	clock	-0.1725144
-5.560658	cloning	-0.03670274
-5.560658	clooney	-0.03670274
-3.481477	close	-0.5828866
-4.71556	closed	-0.1619783
-5.083537	closely	-0.2566115
-4.71556	closer	-0.4721965
-5.083537	closest	-0.03636736
-5.560658	closet	-0.1795999
-4.657568	closing	-0.09483683
-5.259628	cloth	-0.2775199
-4.519266	clothes	-0.1725289
-5.560658	clothings	-0.1795175
-5.259628	cloud	-0.1795725
-5.083537	cloudy	-0.1816383
-3.565023	club	-0.5796102
-4.384567	clubbing	-0.1802517
-4.71556	clubs	0.01517841
-5.560658	clueless	-0.03670274
-5.560658	clumsy	-0.03670274
-4.782507	cluster	-0.2632902
-5.560658	clustered	-0.03670274
-4.606416	clustering	-0.8934489
-5.560658	clutering	-0.03670274
-5.560658	cluttered	-0.03670274
-5.259628	cm	-0.1795808
-4.238439	co	-0.1964143
-4.004356	coach	-0.6091288
-5.259628	coaching	0.06079353
-5.560658	coagulate	-0.03670274
-4.218236	coast	-0.6585197
-4.481477	coaster	-0.504064
-5.560658	coasters	-0.03670274
-5.083537	coat	-0.1687744
-5.560658	coby	-0.1795975
-4.958599	coca	-0.7559869
-4.71556	cock	-0.1280635
-4.71556	cockroach	-0.1584221
-5.083537	cocktail	-0.3975357
-5.560658	cocoa	-0.1795963
-5.083537	coconut	-0.3245111
-5.259628	cod	-0.1115911
-3.947875	code	-0.8346049
-4.41453	coding	-0.7531512
-4.129295	coffee	-0.348839
-4.861689	cognitive	-0.214414
-5.259628	cohort	-0.1782423
-5.259628	coin	-0.3525382
-5.083537	coincide	-0.1808076
-5.560658	coincidence	-0.1769933
-5.259628	coincidentally	-0.1760707
-4.958599	cola	-0.1405827
-4.519266	cold	-0.08802998
-5.259628	colder	-0.0335228
-5.259628	coli	0.06079353
-4.71556	collaborate	-0.3043371
-5.083537	collaboration	-0.1810005
-5.259628	collage	-0.1755695
-5.083537	collapse	-0.08414865
-5.083537	collate	-0.105608
-3.947875	colleague	-0.8506539
-4.71556	colleagues	-0.1722231
-4.016591	collect	-0.141335
-5.560658	collected	-0.1791937
-4.958599	collection	-0.1084312
-5.560658	collective	-0.1767697
-5.259628	collectively	-0.2775199
-5.259628	collector	-0.03377351
-5.259628	collects	-0.178574
-5.560658	colledge	-0.1794578
-3.861689	college	-0.6128582
-5.560658	colleges	-0.1771218
-5.560658	collegue	-0.179459
-5.560658	collin	-0.17911
-5.560658	colllaborate	-0.03670274
-5.259628	colony	-0.2775199
-4.180447	color	-0.5664638
-5.560658	colorful	-0.03670274
-5.259628	coloring	-0.1795402
-5.560658	colosseum	-0.03670274
-4.02918	colour	-0.4397843
-5.259628	coloured	-0.4203335
-5.560658	colourful	-0.1773163
-4.606416	column	-0.9909353
-5.560658	columns	-0.03670274
-3.543625	com	-0.399849
-5.259628	coma	-0.1009179
-4.861689	combat	-0.8708284
-4.861689	combination	-0.2139757
-4.083537	combine	-0.5093822
-4.958599	combined	-0.2766826
-5.560658	combo	-0.03670274
-5.083537	combustion	-0.1787157
-3.255307	come	-0.6767808
-4.958599	comedy	-0.1782117
-4.198931	comes	-0.3565769
-5.560658	comfartable	-0.03670274
-4.198931	comfortable	-0.1935706
-4.446715	comic	-0.7209437
-5.560658	comical	-0.1773163
-4.09826	coming	-0.1482464
-4.145685	comm	-0.5393764
-5.560658	comma	-0.03670274
-4.198931	command	-0.5246202
-5.083537	commander	-0.3975357
-4.657568	commando	-0.0892514
-5.560658	commendable	-0.1789162
-5.560658	commendator	-0.03670274
-4.238439	comment	-0.4497335
-5.560658	commentary	-0.03670274
-5.259628	commentator	-0.2775199
-5.259628	commentators	-0.2775199
-5.560658	commented	-0.1786386
-5.560658	commenter	-0.03670274
-5.083537	commenting	-0.03242297
-4.782507	comments	-0.3203058
-5.560658	commer	-0.03670274
-5.560658	commerce	-0.03670274
-4.519266	commercial	-0.1963321
-5.560658	commercialism	-0.111721
-5.083537	commercialize	-0.08414865
-5.259628	commision	-0.2775199
-4.71556	commission	-0.4099359
-4.519266	commit	-0.1363635
-4.33021	commitee	-0.3421121
-4.782507	commitment	-0.5064869
-5.083537	commitments	-0.1068412
-5.083537	committed	-0.1744119
-3.582935	committee	-0.4538343
-4.41453	committees	-0.132766
-3.879417	common	-0.2394483
-5.259628	commonly	-0.03654338
-5.560658	commonsense	-0.03670274
-5.083537	comms	0.06086832
-4.162718	communicate	-0.5652022
-3.844655	communication	-0.4195398
-4.281905	communications	-0.2707241
-5.259628	communicator	-0.2775199
-5.083537	communism	-0.3975357
-4.782507	communist	-0.08309589
-4.33021	community	-0.4119043
-4.446715	comp	-0.2724191
-4.606416	compact	-0.1764736
-5.560658	compactness	-0.03670274
-4.606416	companies	-0.1887757
-3.286501	company	-0.5817652
-5.560658	comparable	-0.03670274
-5.560658	comparative	-0.1754417
-5.560658	comparatively	-0.03670274
-3.768267	compare	-0.9460896
-3.636379	compared	-1.147546
-5.259628	comparison	-0.02999757
-5.560658	compartment	-0.1703792
-5.259628	compass	-0.1114039
-5.560658	compatible	-0.03670274
-5.560658	compensating	-0.179
-5.083537	compensation	0.06477751
-4.782507	compete	-0.4697016
-4.861689	competency	-0.8707555
-5.560658	competi	-0.1795546
-3.958599	competition	-0.3012676
-5.259628	competitions	0.06079353
-4.657568	competitive	-0.2545282
-5.560658	competitively	-0.1761044
-4.861689	competitor	-0.7279348
-4.606416	compile	-0.2740013
-5.560658	compiled	-0.1773163
-5.259628	compiler	-0.03668781
-5.560658	compla	-0.03670274
-4.004356	complain	-0.4570362
-4.657568	complaining	-0.3010417
-4.657568	complaint	-0.811343
-5.560658	complement	-0.03670274
-5.560658	complementary	-0.03670274
-4.198931	complete	-0.3285847
-4.958599	completely	-0.140503
-5.560658	completion	-0.03670274
-4.446715	complex	-0.1197052
-4.657568	complicated	-0.1322282
-5.560658	complusory	-0.1795963
-4.657568	component	-0.5255525
-5.259628	components	-0.1117182
-4.958599	compose	-0.2811996
-5.560658	composed	-0.1774964
-5.259628	composing	-0.1774112
-5.560658	composition	-0.03670274
-4.238439	compound	-0.5077944
-5.259628	compounds	-0.4162589
-5.560658	comprehension	-0.03670274
-5.259628	compress	-0.2775199
-5.560658	compressed	-0.1795868
-5.083537	compressor	-0.08414865
-5.083537	compromise	0.06805629
-5.560658	compromising	-0.03670274
-4.606416	compulsory	-0.3615822
-5.259628	compute	-0.4202917
-3.456855	computer	-0.4184701
-5.560658	computerised	-0.03670274
-5.560658	computerize	-0.03670274
-5.560658	computers	-0.03670274
-4.446715	computing	-0.2825065
-5.083537	coms	0.06535235
-4.218236	con	-0.3167276
-5.259628	conan	-0.2775199
-5.560658	concede	-0.03670274
-4.180447	concentrate	-0.6275456
-4.861689	concentration	-0.1150676
-5.560658	concentrations	-0.03670274
-4.281905	concept	-0.9127923
-4.481477	concern	-0.2493039
-5.560658	concerns	-0.1769872
-4.129295	concert	-0.4952972
-5.560658	concerts	-0.1769872
-5.560658	concise	-0.03670274
-4.657568	conclusion	-0.01831606
-5.560658	conclusions	-0.1787978
-5.259628	concrete	-0.0364587
-5.259628	concurrently	0.06079353
-5.083537	cond	-0.3975357
-5.560658	condiment	-0.111721
-5.259628	condiments	0.06079353
-4.481477	condition	-0.3063414
-5.560658	conditional	-0.1795975
-5.083537	conditions	-0.1749398
-5.259628	condo	-0.2775199
-4.384567	condominium	-0.6159722
-5.259628	conducive	0.06079353
-4.657568	conduct	-0.4623747
-4.861689	conductor	0.002243757
-5.083537	conductors	-0.1110488
-5.259628	cone	-0.2775199
-3.888561	conference	-0.7440138
-5.083537	conferencing	-0.08414865
-4.782507	confidence	-0.3245151
-4.782507	confident	0.003984913
-5.259628	confidential	-0.2775199
-4.71556	configuration	-0.05338806
-4.782507	configure	-0.3730427
-5.560658	confinement	-0.111721
-3.897901	confirm	-0.4397932
-5.560658	confirmation	-0.1703792
-5.560658	confirmed	-0.03670274
-4.657568	conflict	-0.2564321
-5.560658	conflicts	-0.1793598
-5.560658	confront	-0.03670274
-5.560658	confuse	-0.03670274
-5.083537	confused	-0.108936
-5.560658	confusing	-0.1783704
-5.560658	congested	-0.111721
-5.083537	congo	-0.08414865
-5.560658	congratulations	-0.1792666
-4.218236	connect	-0.6568085
-5.560658	connected	-0.1754417
-5.259628	connecting	-0.1721774
-4.657568	connection	-0.3290043
-5.560658	connective	-0.1795904
-5.560658	conning	-0.1791518
-5.560658	conquer	-0.1795498
-5.560658	cons	-0.1769872
-4.861689	conscious	-0.1124842
-5.083537	consecutive	-0.08414865
-5.083537	consent	-0.5403159
-5.560658	consequences	-0.1788504
-5.560658	conservation	-0.03670274
-5.560658	conservative	-0.03670274
-5.259628	conserve	-0.03665295
-3.844655	consider	-0.2789188
-4.958599	consideration	-0.2747077
-4.259628	considered	-0.03529578
-5.560658	considering	-0.1784866
-5.560658	consign	-0.1794351
-5.560658	consist	-0.1774964
-5.560658	consistant	-0.03670274
-5.560658	consistency	-0.1773127
-5.083537	consistent	-0.1113144
-5.259628	console	-0.2775199
-5.259628	constant	-0.1776956
-5.560658	constantly	-0.03670274
-5.560658	constitute	-0.1794255
-4.958599	constraint	-0.2757063
-5.560658	constraints	-0.1787798
-4.606416	construct	-0.2072124
-4.129295	construction	-0.5484617
-5.259628	constructive	-0.1102803
-5.560658	constructor	-0.03670274
-4.958599	consult	-0.6130921
-4.281905	consultant	-0.9161669
-5.560658	consultation	-0.03670274
-5.083537	consulting	-0.1816134
-5.259628	consumable	-0.0366762
-5.560658	consumables	-0.03670274
-5.560658	consume	-0.1795784
-4.446715	consumer	-0.1977661
-5.560658	consumers	-0.17922
-4.71556	consuming	-0.2738687
-4.606416	consumption	-0.1888986
-3.768267	contact	-0.5636219
-5.083537	contacted	-0.3191994
-5.259628	contacts	-0.03600346
-4.958599	contain	-0.1769296
-4.861689	container	-0.1177637
-5.560658	contains	-0.1744095
-5.259628	contamination	-0.03183426
-5.259628	contemporary	-0.4204124
-5.560658	contempt	-0.111721
-5.560658	contended	-0.111721
-4.281905	content	-0.4357715
-5.560658	contented	-0.111721
-5.560658	contents	-0.03670274
-4.958599	context	-0.03749369
-5.560658	continent	-0.1793132
-5.560658	continents	-0.1771218
-5.560658	contingency	-0.03670274
-5.560658	continual	-0.1795223
-5.560658	continuation	-0.176291
-3.789807	continue	-0.33168
-5.560658	continuos	-0.1787392
-5.083537	continuous	-0.1790063
-4.958599	continuously	-0.1378252
-3.836383	contract	-0.5743852
-4.606416	contractor	-0.2980186
-5.259628	contractors	-0.1787583
-5.560658	contradicting	-0.1783009
-5.259628	contrary	-0.2775199
-5.560658	contrast	-0.03670274
-5.560658	contrasting	-0.1795319
-4.281905	contribute	-0.4723554
-5.560658	contributed	-0.1788792
-5.083537	contributing	-0.1813046
-4.180447	contribution	-0.6717082
-5.560658	contributions	-0.1754417
-5.560658	contributor	-0.03670274
-3.601617	control	-0.6034811
-4.782507	controller	-0.07918663
-5.259628	controlling	-0.0351515
-5.560658	controversial	-0.1795665
-4.71556	convenience	-0.4267081
-4.606416	convenient	-0.07024091
-5.560658	convening	-0.111721
-4.606416	convent	-0.3462034
-5.560658	conventional	-0.1793837
-5.560658	conventionalised	-0.03670274
-4.180447	conversation	-0.290585
-5.560658	conversational	-0.1795928
-5.560658	conversion	-0.1790992
-4.145685	convert	-0.4989769
-5.259628	convertion	-0.03668948
-5.560658	convey	-0.03670274
-5.560658	conveyor	-0.1795975
-4.657568	convince	-0.3522183
-5.560658	convinced	-0.03670274
-5.259628	convincing	-0.2775199
-5.259628	convo	-0.02383226
-5.083537	convocation	-0.1767764
-5.083537	convoluted	-0.03653508
-4.384567	cook	-0.02561605
-5.259628	cooked	-0.1792905
-4.861689	cookie	-0.2479915
-5.259628	cookies	-0.2775199
-4.958599	cooking	-0.2756217
-3.992457	cool	-0.3654473
-5.259628	cooling	-0.1116106
-4.958599	cooper	-0.03857408
-5.083537	cooperate	-0.2559588
-5.560658	cooperation	-0.03670274
-5.560658	cooperative	-0.111721
-5.560658	coopers	-0.03670274
-5.560658	coordi	-0.03670274
-4.958599	coordinate	-0.1782117
-5.560658	coordination	-0.1795438
-4.782507	coordinator	-0.3274332
-4.519266	cope	-0.3453563
-5.560658	coping	-0.1794817
-4.083537	copy	-0.2435055
-5.560658	copying	-0.1792845
-5.560658	copyright	-0.03670274
-4.41453	coral	-0.483208
-3.734584	core	-0.5517592
-5.259628	cores	-0.03664133
-4.519266	corner	-0.1862608
-5.259628	corp	0.06079353
-5.259628	corporal	-0.2775199
-4.606416	corporate	-0.07917173
-5.259628	corpus	-0.111053
-3.888561	correct	-0.3222033
-5.259628	corrective	-0.1795653
-5.259628	correctly	-0.1109397
-5.560658	corrector	-0.03670274
-5.560658	correlate	-0.03670274
-5.560658	correlated	-0.03670274
-5.560658	correlation	-0.1769872
-5.560658	corresponding	-0.179
-5.560658	correspondingly	-0.03670274
-5.083537	corridor	-0.1086549
-5.560658	corroded	-0.1777052
-5.259628	corrosive	0.06079353
-5.560658	corrupt	-0.1796011
-5.560658	corrupted	-0.03670274
-5.560658	corruption	-0.03670274
-5.560658	corrupts	-0.1791518
-5.560658	cortex	-0.111721
-3.606416	cos	-0.3101641
-5.083537	cosmetic	-0.5404234
-5.560658	cosmetics	-0.1773163
-5.560658	cosplay	-0.03670274
-3.747745	cost	-0.4970021
-4.861689	costa	-0.8708284
-5.083537	costly	-0.08414865
-5.560658	costs	-0.03670274
-4.560658	costume	-0.3162879
-5.560658	costumer	-0.1773163
-5.560658	cosway	-0.03670274
-5.259628	cosy	0.06079353
-5.560658	cotent	-0.111721
-5.560658	cottage	-0.03670274
-4.71556	cotton	-0.3753307
-5.259628	couch	-0.03581057
-5.560658	cough	-0.179588
-4.446715	could	-0.3405453
-4.782507	council	-0.3158518
-5.259628	counsellors	-0.02383226
-4.519266	count	-0.08453286
-4.657568	countdown	0.02392018
-4.782507	counted	-0.1718158
-4.519266	counter	-0.2987295
-5.560658	counterpart	-0.03670274
-5.560658	counterparts	-0.03670274
-5.560658	counting	-0.03670274
-4.055509	countries	-0.335767
-3.657568	country	-0.3917323
-5.259628	countryside	-0.1116093
-5.560658	counts	-0.03670274
-5.259628	county	-0.03209433
-4.861689	couple	-0.4216095
-4.560658	coupon	-0.238541
-5.560658	coupons	-0.111721
-5.560658	coupun	-0.03670274
-2.936376	course	-0.5572096
-4.958599	coursemate	-0.03857408
-4.145685	courses	-0.5552297
-4.71556	coursework	-0.683648
-4.129295	court	-0.3424239
-5.259628	courts	0.06079353
-5.560658	courtship	-0.179539
-5.560658	courtyard	-0.111721
-5.560658	couse	-0.03670274
-5.560658	couseller	-0.03670274
-4.113501	cousin	-0.4154701
-5.560658	cousine	-0.03670274
-4.657568	cousins	-0.132746
-3.870462	cover	-0.5163634
-4.861689	covered	-0.2587303
-5.259628	cow	-0.03663138
-4.958599	cowboy	-0.272528
-5.259628	cows	0.06079353
-5.560658	coxed	-0.1791506
-5.560658	coz	-0.1786781
-5.259628	cozy	-0.03643711
-4.782507	crab	-0.4124415
-4.606416	crack	-0.1765547
-5.560658	cracker	-0.111721
-4.657568	cracking	-0.3146426
-4.519266	craft	-0.6794798
-5.560658	cram	-0.03670274
-5.560658	cramp	-0.1794375
-5.259628	cramped	-0.1111327
-5.259628	cranky	-0.1060864
-4.657568	crap	-0.2337806
-5.560658	crappers	-0.1763692
-5.083537	crappy	-0.3975357
-4.356538	crash	-0.4346427
-5.259628	crashed	-0.4152267
-5.560658	crashes	-0.1773127
-5.560658	crashing	-0.111721
-5.560658	crave	-0.1795617
-5.560658	craving	-0.1776848
-5.259628	crawl	0.06079353
-4.305386	crazy	-0.338024
-4.02918	cream	-0.4493649
-5.259628	creamy	-0.0335228
-4.069297	create	-0.4686762
-5.560658	creating	-0.03670274
-5.560658	creation	-0.03670274
-4.606416	creative	-0.2863882
-5.259628	credentials	-0.2775199
-3.879417	credit	-0.7721874
-5.560658	creditor	-0.03670274
-4.560658	credits	-0.3334661
-5.560658	crescent	-0.03670274
-5.083537	crew	-0.1115324
-5.560658	cricket	-0.03670274
-5.083537	crime	-0.178465
-5.560658	crimes	-0.1763692
-5.083537	criminal	-0.03667951
-4.71556	crisis	-0.1316966
-4.958599	crispy	-0.2756947
-5.560658	crist	-0.03670274
-5.560658	cristal	-0.1795056
-4.446715	criteria	-0.2705179
-5.560658	critic	-0.03670274
-4.782507	critical	-0.3283168
-4.958599	criticise	-0.03406024
-5.560658	criticism	-0.03670274
-5.560658	criticize	-0.03670274
-5.560658	critics	-0.03670274
-5.560658	critique	-0.03670274
-4.861689	crocodile	-0.3454164
-5.560658	crocodiles	-0.111721
-5.560658	crop	-0.1791949
-4.069297	cross	-0.235656
-4.71556	crowd	-0.3751348
-4.446715	crowded	-0.26764
-5.560658	crown	-0.1795892
-4.861689	cruel	-0.1141784
-4.861689	cruise	-0.01815741
-5.560658	crunches	-0.03670274
-5.560658	crush	-0.1786386
-4.861689	cry	-0.01864977
-5.259628	crying	-0.02383226
-5.560658	cryptography	-0.03670274
-5.259628	cryptology	0.06079353
-4.281905	crystal	-0.6419717
-4.958599	crystalized	-0.6130921
-5.560658	crystallize	-0.03670274
-5.560658	cube	-0.03670274
-4.861689	cubicle	-0.116922
-5.259628	cubicles	-0.1703304
-5.083537	cucumber	-0.3975357
-5.560658	cues	-0.1773163
-4.958599	cui	-0.1254927
-5.083537	cuisine	-0.253985
-5.560658	culcure	-0.03670274
-4.016591	cultural	-0.2116192
-3.741115	culture	-0.5683923
-5.259628	cultures	-0.109047
-5.560658	culturing	-0.1787978
-5.560658	cum	-0.03670274
-5.560658	cumulative	-0.03670274
-4.33021	cup	-0.5254252
-5.560658	cupboard	-0.03670274
-5.560658	cupid	-0.03670274
-5.560658	curd	-0.1795868
-5.259628	cure	-0.2775199
-4.958599	curfew	-0.1782117
-4.958599	curious	-0.3496454
-4.958599	curly	0.06086622
-5.560658	currencies	-0.03670274
-4.259628	currency	-0.3578908
-4.33021	current	-0.2697561
-4.162718	currently	-0.5045
-4.782507	curriculum	-0.2275196
-4.113501	curry	-0.3447203
-4.782507	curse	-0.2275259
-4.71556	cursive	-0.5695977
-5.560658	curtain	-0.1793957
-4.519266	curve	-0.5228052
-5.560658	curved	-0.1796011
-5.560658	cus	-0.1795748
-5.259628	custard	-0.4203945
-4.606416	custom	-0.4690172
-3.552058	customer	-0.7837093
-4.782507	customers	-0.0755551
-5.083537	customization	-0.1804849
-4.958599	customized	-0.1375913
-3.685597	cut	-0.4987726
-3.853088	cute	-0.3423838
-5.560658	cutlet	-0.111721
-5.259628	cutoff	-0.03632584
-5.560658	cy	-0.03670274
-5.560658	cyb	-0.1795928
-4.657568	cyber	-0.2824714
-4.958599	cybertron	-0.1800236
-4.281905	cycle	-0.230177
-4.481477	cycling	-0.02769578
-5.560658	cynthia	-0.03670274
-5.560658	cyrptology	-0.03670274
-5.259628	czech	-0.03669778
-3.992457	d	-0.1478556
-4.861689	da	-0.8708284
-4.384567	dad	0.06444637
-5.083537	daddy	-0.1816134
-5.083537	daemon	-0.1815951
-5.560658	dail	-0.1776848
-4.33021	daily	-0.3554579
-5.560658	dair	-0.1796011
-5.560658	dairy	-0.1796011
-4.782507	dam	-0.5098946
-5.083537	damage	-0.08414865
-3.79723	damn	-0.1049525
-3.789807	dance	-0.2493194
-5.083537	dancer	-0.1813461
-5.560658	dancers	-0.03670274
-5.560658	dances	-0.03670274
-4.782507	dancing	0.0006523579
-5.560658	danesh	-0.03670274
-4.560658	dangerous	0.04797214
-5.560658	dangling	-0.1796011
-5.560658	daniel	-0.03670274
-5.560658	danny	-0.03670274
-5.560658	daphne	-0.03670274
-4.384567	dare	-0.3097231
-5.560658	dared	-0.1754417
-5.259628	daring	0.06079353
-5.560658	darius	-0.03670274
-4.481477	dark	-0.02668458
-5.560658	darling	-0.03670274
-4.606416	darts	-0.01820141
-5.560658	daryl	-0.03670274
-5.560658	dash	-0.03670274
-3.7094	data	-0.5064553
-4.02918	database	-0.6843871
-5.083537	dataset	-0.1687744
-4.238439	date	-0.2313163
-5.083537	dateline	-0.1815138
-5.083537	dates	-0.03350273
-5.560658	dating	-0.03670274
-4.560658	daughter	0.01365349
-4.958599	dave	-0.1800236
-5.560658	david	-0.1796011
-3.122908	day	-0.3395254
-5.259628	daydreaming	-0.1009179
-3.674168	days	-0.3164019
-5.560658	daytime	-0.1787798
-5.259628	de	-0.2775199
-4.41453	dead	-0.08816797
-4.481477	deadline	-0.2417381
-5.259628	deadlines	-0.1731337
-4.657568	deaf	-0.3315692
-3.897901	deal	-1.090274
-5.259628	dealing	-0.4198172
-5.560658	dealings	-0.111721
-4.198931	dean	-0.9179521
-5.560658	deans	-0.1795378
-4.33021	death	-0.1568332
-5.560658	deathnote	-0.03670274
-5.259628	debate	-0.03670108
-5.560658	debit	-0.179545
-5.560658	debra	-0.1796011
-4.782507	debt	-0.1744911
-5.560658	decades	-0.111721
-5.560658	decay	-0.03670274
-5.560658	decease	-0.111721
-3.980875	december	-0.4631692
-4.356538	decide	-0.2598953
-4.41453	decided	-0.6505489
-5.560658	deciding	-0.179496
-5.560658	decipher	-0.03670274
-4.71556	decision	-0.1058657
-5.560658	decisions	-0.03670274
-5.560658	deck	-0.03670274
-5.560658	decker	-0.03670274
-5.560658	declaration	-0.1795462
-4.782507	declare	-0.1783488
-5.083537	deco	-0.1790063
-5.083537	decode	-0.3975357
-5.259628	decoding	-0.2775199
-5.560658	decommit	-0.1754417
-4.606416	decorate	-0.2963064
-4.861689	decorations	-0.1137983
-5.259628	decrease	-0.03630424
-5.259628	decreasing	-0.1766988
-5.083537	dedicated	-0.3975357
-5.560658	dedicating	-0.03670274
-5.560658	dee	-0.1775372
-4.861689	deejay	-0.1199798
-4.560658	deep	-0.06947935
-5.560658	def	-0.03670274
-5.560658	default	-0.1744095
-5.560658	defeats	-0.1744095
-5.083537	defect	-0.3975357
-5.259628	defects	0.06079353
-4.384567	defence	-0.6378065
-4.71556	defend	-0.683648
-5.083537	defender	-0.3219715
-5.560658	defending	-0.03670274
-5.259628	defensive	-0.03665295
-5.259628	deferment	-0.03574738
-5.259628	deficit	0.06079353
-4.861689	define	-0.1187352
-5.560658	definite	-0.1795832
-4.305386	definitely	-0.2012466
-4.861689	definition	-0.1150676
-5.560658	deform	-0.03670274
-5.560658	degenerate	-0.1796011
-4.71556	degrade	-0.2955159
-5.560658	degration	-0.1774964
-5.560658	degredation	-0.1795211
-3.503754	degree	-0.4290806
-4.782507	degrees	-0.1637219
-5.560658	degu	-0.111721
-5.560658	del	-0.1796011
-4.519266	delay	-0.6440963
-5.560658	delegate	-0.03670274
-4.958599	delete	-0.2754988
-5.560658	deleted	-0.1792845
-5.560658	delhi	-0.1703792
-5.259628	deli	-0.1795964
-5.560658	deliberation	-0.1786386
-5.560658	delicacy	-0.1780205
-5.560658	delicious	-0.111721
-5.560658	delight	-0.03670274
-4.560658	deliver	-0.3675178
-5.560658	deliverables	-0.03670274
-5.083537	delivery	-0.03556438
-4.02918	dell	-0.6376546
-5.560658	delta	-0.179545
-4.519266	demand	-0.2312146
-4.958599	demanding	-0.1800236
-5.560658	demands	-0.111721
-5.560658	demark	-0.03670274
-5.259628	democracy	-0.2775199
-5.560658	demolish	-0.03670274
-5.560658	demolition	-0.03670274
-5.560658	demonstrate	-0.1796011
-5.560658	demonstration	-0.03670274
-5.560658	demoralised	-0.03670274
-5.083537	demoralize	-0.1806896
-5.560658	demoralizing	-0.03670274
-5.560658	denial	-0.1774964
-5.259628	denmark	-0.03670108
-5.259628	denominator	-0.2775199
-4.958599	density	-0.6130921
-5.083537	dentist	-0.181278
-4.958599	deny	-0.4165699
-5.560658	dep	-0.1795127
-5.083537	depand	-0.3975357
-5.560658	depart	-0.03670274
-3.62616	department	-0.7924937
-4.09826	depend	-1.165332
-5.083537	dependent	-0.1803052
-4.71556	depending	-0.4253966
-3.685597	depends	-1.070858
-5.083537	deploy	-0.3975357
-4.606416	deposit	-0.3695508
-5.560658	deposition	-0.03670274
-5.560658	deposits	-0.03670274
-5.560658	depreciated	-0.03670274
-5.560658	depreciation	-0.03670274
-5.259628	depress	-0.03574738
-5.560658	depressed	-0.03670274
-5.259628	depression	-0.2775199
-4.782507	depth	0.0674146
-5.560658	derick	-0.1795999
-5.560658	derivative	-0.1795677
-5.560658	derivatives	-0.1795677
-5.083537	derive	-0.1807528
-5.560658	derived	-0.1790311
-5.259628	derrick	-0.03669943
-5.560658	des	-0.1795987
-5.560658	descendants	-0.1790299
-4.384567	describe	-0.3562219
-5.560658	describes	-0.1744095
-5.083537	description	-0.1090878
-5.560658	descriptive	-0.03670274
-5.083537	desert	-0.08414865
-5.560658	deserted	-0.176291
-5.083537	deserve	-0.3211995
-5.560658	deserves	-0.1754417
-5.560658	desi	-0.03670274
-3.279625	design	-0.6550696
-5.560658	designation	-0.111721
-4.782507	designer	-0.4124415
-4.958599	designing	-0.02565601
-5.560658	desirable	-0.03670274
-5.560658	desires	-0.1774964
-4.71556	desk	-0.1753112
-4.861689	desktop	-0.3241215
-5.083537	desmond	-0.1808492
-5.259628	desperate	-0.03403576
-5.259628	despite	-0.4152267
-5.083537	despo	-0.3975357
-4.958599	dessert	0.06082468
-4.782507	destination	-0.07591201
-5.560658	destinations	-0.111721
-5.259628	destiny	-0.1117182
-5.560658	destroy	-0.1794148
-5.560658	detached	-0.03670274
-4.560658	detail	-0.2659672
-5.259628	detailed	-0.0366513
-5.259628	detailing	0.06079353
-4.446715	details	-0.2121241
-4.356538	detect	-0.4046667
-5.259628	detective	-0.2775199
-5.560658	detention	-0.1796011
-4.861689	determination	-0.3241215
-5.560658	determind	-0.1793156
-4.384567	determine	-0.6309052
-5.560658	determining	-0.1795856
-5.560658	detonate	-0.1796011
-5.560658	detour	-0.1769872
-5.560658	deve	-0.03670274
-3.992457	develop	-0.4019872
-5.259628	develope	-0.0335228
-4.71556	developed	-0.4015535
-5.259628	developement	-0.03670108
-3.992457	developer	-0.5275688
-5.560658	developing	-0.03670274
-4.519266	development	-0.1901893
-5.560658	deviate	-0.1795402
-5.259628	deviation	0.06079353
-4.519266	device	-0.2210714
-4.958599	devices	-0.6130921
-5.560658	devil	-0.1795402
-5.259628	devious	-0.03642716
-5.560658	devision	-0.1783177
-5.560658	devote	-0.1787798
-5.259628	devotion	-0.1115562
-5.560658	dft	-0.1795963
-4.958599	dhabi	-0.275703
-4.782507	di	-0.3283517
-4.281905	diabetes	-0.5545616
-4.782507	diabetic	-0.5098564
-4.958599	diablo	-0.04312667
-4.606416	diagnosis	-0.4362628
-5.560658	diagon	-0.03670274
-5.560658	diagonal	-0.1793132
-5.560658	diagonally	-0.1795928
-4.861689	diagram	-0.1187227
-4.481477	dialect	-0.3918389
-4.958599	dialects	-0.1782117
-5.083537	diameter	-0.1813228
-5.083537	diamond	-0.03563759
-5.560658	dian	-0.03670274
-5.259628	diapers	-0.03183426
-5.560658	diaphragm	-0.03670274
-5.259628	diarrhea	-0.03670108
-5.560658	diarrheoa	-0.03670274
-5.259628	diary	-0.2775199
-5.083537	dicom	-0.1816267
-4.958599	dictionary	-0.273041
-3.652174	did	-0.2082492
-4.016591	die	-0.2377384
-4.958599	died	-0.2084739
-5.259628	diego	0.06079353
-5.083537	diet	-0.08414865
-5.259628	diff	-0.03663138
-4.004356	difference	-0.1925873
-5.560658	differences	-0.1788552
-3.176843	different	-0.1655327
-4.958599	differentiate	-0.1401675
-5.259628	differentiation	-0.2775199
-3.870462	difficult	-0.7553051
-4.861689	difficulties	-0.1108836
-4.861689	difficulty	-0.111064
-5.083537	dig	-0.1739935
-5.259628	digest	-0.2775199
-4.958599	digestive	-0.2835001
-4.861689	digi	-0.2161489
-5.259628	digit	-0.03654838
-4.560658	digital	-0.2591015
-5.560658	digitalize	-0.03670274
-5.560658	dignity	-0.111721
-5.083537	dilemma	-0.02368008
-5.560658	dilute	-0.111721
-5.560658	diluted	-0.1761044
-4.782507	dim	-0.6902341
-5.083537	dimension	-0.08414865
-5.259628	dimensional	-0.2775199
-5.083537	din	-0.1792343
-5.560658	dinasaur	-0.03670274
-5.259628	ding	-0.4204172
-5.560658	dining	-0.1795307
-3.747745	dinner	-0.5899249
-5.560658	dinobot	-0.03670274
-5.259628	dinosaur	0.06079353
-5.560658	dio	-0.03670274
-5.560658	dion	-0.03670274
-5.083537	dioxide	-0.4725539
-5.560658	dip	-0.03670274
-3.969594	diploma	-0.538657
-5.560658	diplomatic	-0.1791937
-3.72815	direct	-0.4068643
-5.560658	directing	-0.03670274
-4.305386	direction	-1.134266
-5.560658	directions	-0.03670274
-4.71556	directly	0.07300423
-3.937409	director	-0.4463813
-4.782507	directors	-0.3730427
-5.560658	direst	-0.1794936
-4.657568	dirty	-0.06727006
-4.861689	dis	-0.1058558
-5.560658	disabled	-0.03670274
-4.861689	disadvantage	-0.4181669
-5.560658	disadvantages	-0.111721
-5.560658	disagree	-0.173858
-5.259628	disappear	-0.0359087
-5.560658	disappoint	-0.1795916
-4.446715	disappointed	-0.3786475
-5.560658	disappointing	-0.1787487
-5.560658	disastrous	-0.03670274
-5.560658	disbanded	-0.111721
-5.560658	disc	-0.1761044
-4.259628	discipline	-0.2232097
-5.259628	disclaimer	-0.1110152
-4.958599	disclose	-0.03982767
-5.259628	disconnect	-0.2775199
-4.41453	discount	-0.5597718
-5.259628	discounted	-0.03662308
-4.71556	discover	-0.5423734
-4.560658	discovery	-0.3815696
-5.560658	discrete	-0.1795139
-5.560658	discretionary	-0.1795677
-3.958599	discuss	-0.648047
-5.083537	discussing	-0.03546286
-4.305386	discussion	-0.4400335
-4.606416	disease	-0.2521314
-5.560658	disguise	-0.1795952
-4.71556	disgusting	-0.2235023
-4.861689	dish	-0.3241215
-4.958599	dishes	0.07491216
-5.560658	dishwasher	-0.03670274
-5.083537	disinfectant	-0.1798588
-5.560658	disipline	-0.03670274
-4.657568	disk	-0.5284253
-4.606416	disney	-0.4372448
-4.09826	disneyland	-0.7557336
-5.560658	disneysea	-0.03670274
-5.259628	disneyworld	-0.2775199
-4.861689	disorder	-0.1199091
-5.560658	dispatch	-0.03670274
-5.560658	dispenser	-0.111721
-4.560658	display	-0.3678067
-4.657568	disposable	-0.3539487
-4.958599	dispose	-0.2755104
-5.560658	disposition	-0.03670274
-5.560658	disqualify	-0.03670274
-5.560658	disruption	-0.1754417
-5.560658	dissapoint	-0.03670274
-5.560658	dissect	-0.03670274
-5.560658	dissecting	-0.1775372
-4.560658	dissolve	-1.036686
-4.113501	distance	-0.3132763
-4.782507	distinction	-0.3000394
-5.259628	distract	-0.03383031
-5.560658	distracting	-0.1769872
-5.560658	distracts	-0.1763692
-4.560658	distribute	-0.2934592
-5.560658	distributed	-0.03670274
-5.560658	distribution	-0.03670274
-4.71556	distributor	-0.3292401
-4.958599	district	-0.1403303
-4.861689	disturb	-0.3409884
-5.560658	disturbing	-0.1795486
-4.519266	dive	-0.2620423
-5.083537	diver	-0.3975357
-5.560658	diverse	-0.111721
-5.560658	diversified	-0.03670274
-5.259628	diversify	-0.2775199
-4.519266	divide	-0.3960137
-5.560658	divided	-0.1793156
-4.657568	diving	-0.2079224
-4.481477	division	-0.6339329
-4.782507	divorce	-0.2396623
-5.560658	divorced	-0.1703792
-5.560658	dna	-0.03670274
-2.833117	do	-0.4131534
-4.958599	doc	-0.2628375
-5.259628	docking	0.06079353
-3.775329	doctor	-0.3449515
-5.259628	doctors	-0.03592199
-4.71556	document	-0.683648
-5.560658	documentaries	-0.03670274
-4.356538	documentary	-0.4231335
-5.560658	documentation	-0.1776848
-5.560658	documented	-0.03670274
-4.259628	does	-0.1523958
-4.560658	dog	-0.3240842
-5.560658	dogs	-0.1795737
-3.652174	doing	-0.0470438
-4.02918	dollar	-0.1809389
-3.734584	dollars	-0.3639661
-4.606416	dolphin	-0.3939709
-4.606416	domain	-0.2028997
-5.560658	dome	-0.111721
-5.083537	domestic	-0.1795796
-4.861689	dominant	-0.4214036
-5.259628	dominate	-0.109502
-5.259628	don	-0.1117196
-4.71556	donald	-0.5074189
-4.446715	donate	-0.2835395
-5.560658	donated	-0.1795426
-4.356538	donation	-0.4479898
-4.238439	done	-0.1336012
-5.259628	dong	-0.02383226
-5.560658	dongguan	-0.111721
-4.958599	donkey	-0.04131763
-5.560658	donor	-0.03670274
-5.560658	donors	-0.1794614
-5.560658	dont	-0.178781
-3.980875	door	-0.298612
-5.560658	dopod	-0.03670274
-5.560658	dorae	-0.03670274
-5.259628	dorm	-0.03577566
-5.560658	dormitries	-0.1795354
-4.069297	dot	-0.7278506
-4.861689	dota	-0.1048543
-5.083537	dots	0.06305964
-4.162718	double	-0.07168683
-5.560658	dovey	-0.1795772
-3.295841	down	-0.4820931
-5.560658	downfall	-0.1774964
-3.947875	download	-0.9184999
-5.259628	downloaded	-0.177644
-5.560658	downloads	-0.1792092
-5.259628	downstream	-0.2775199
-4.958599	downtown	-0.7559332
-5.560658	downturn	-0.03670274
-5.560658	doze	-0.1794793
-5.083537	draft	-0.3975357
-5.259628	draftman	-0.03669943
-4.305386	drag	-0.6681769
-5.259628	draggy	-0.2775199
-4.71556	dragon	-0.3752942
-5.560658	dragonboat	-0.111721
-4.861689	drain	-0.2874862
-3.782507	drama	-0.5718096
-4.861689	dramas	-0.1087027
-5.560658	dramastically	-0.1795127
-5.259628	dramatic	-0.02999757
-5.560658	drank	-0.1792092
-4.560658	draw	-0.2520722
-4.281905	drawing	-0.4527785
-5.259628	drawings	-0.1115869
-5.560658	dreading	-0.03670274
-4.281905	dream	-0.2135106
-5.259628	dreaming	-0.109047
-4.41453	dreams	-0.1416785
-5.259628	dreamweaver	0.06079353
-4.305386	dress	-0.1832915
-5.560658	dresses	-0.03670274
-4.782507	dressing	-0.4702733
-5.560658	dribble	-0.1744095
-5.560658	drill	-0.03670274
-5.560658	drills	-0.1769933
-4.145685	drink	-0.003778696
-4.71556	drinking	0.01063508
-4.481477	drinks	-0.5085475
-5.560658	drip	-0.111721
-5.560658	dripping	-0.1795163
-4.016591	drive	-0.1110851
-5.259628	driven	-0.03220335
-4.281905	driver	-0.7121601
-5.560658	drivers	-0.1788552
-5.259628	drives	-0.1779834
-4.33021	driving	-0.4509495
-5.560658	drizzle	-0.03670274
-3.888561	drop	-0.4194708
-5.560658	dropout	-0.111721
-5.259628	dropping	-0.03639726
-4.861689	drown	-0.2599558
-5.560658	drownded	-0.1793156
-5.083537	drowning	0.0613028
-3.804784	drug	-0.5972126
-4.657568	drugs	-0.3405297
-4.782507	drum	-0.2300803
-5.560658	drummer	-0.03670274
-4.958599	drums	-0.7555842
-5.259628	drunk	-0.03667121
-4.782507	dry	-0.2307031
-4.519266	dual	-0.443773
-5.083537	dubai	-0.3975357
-5.560658	dublin	-0.03670274
-4.657568	duck	-0.09795913
-5.560658	ducks	-0.1787798
-4.519266	due	-0.4186187
-5.560658	dues	-0.1773163
-5.259628	duet	-0.03489324
-5.259628	duke	-0.1086619
-5.259628	dull	-0.03669943
-5.083537	dumb	-0.1696967
-5.560658	dummy	-0.03670274
-5.083537	dump	-0.3975357
-5.560658	dumpling	-0.1795844
-5.560658	dumplings	-0.111721
-5.560658	dunedin	-0.03670274
-5.560658	dunk	-0.03670274
-4.861689	dunman	-0.4964419
-5.083537	dunno	-0.1094964
-4.384567	duplicate	-1.205561
-5.560658	duplication	-0.03670274
-5.560658	durable	-0.111721
-5.083537	duration	-0.03468487
-5.560658	durian	-0.111721
-5.560658	durians	-0.03670274
-3.453449	during	-0.3333702
-5.083537	dust	-0.03599846
-5.259628	duster	-0.03450309
-5.083537	dusty	-0.1094361
-5.560658	dutch	-0.179551
-5.259628	duties	-0.2775199
-4.446715	duty	-0.4970489
-4.958599	dvd	-0.2745762
-5.560658	dwell	-0.1786386
-5.560658	dwindling	-0.03670274
-4.657568	dye	-0.2361273
-5.560658	dyes	-0.03670274
-5.259628	dying	-0.1763223
-5.259628	dynamic	-0.2775199
-5.083537	dynamics	-0.03449641
-5.560658	dyslexia	-0.03670274
-3.937409	e	-0.3041038
-3.761318	each	-0.5737088
-5.560658	eagle	-0.1795928
-5.560658	ear	-0.1796011
-4.384567	earlier	-0.1192686
-4.02918	early	-0.02641621
-5.560658	earmark	-0.03670274
-4.180447	earn	-0.09162021
-5.259628	earned	-0.1747744
-4.861689	earning	-0.1115963
-5.560658	earnings	-0.1703792
-5.560658	earpiece	-0.03670274
-5.560658	earplugs	-0.1786386
-5.560658	earrings	-0.03670274
-5.083537	earth	0.06212303
-4.958599	earthquake	-0.1400063
-4.41453	easier	-0.2100584
-5.083537	easiest	-0.1789222
-4.861689	easily	0.06080805
-3.870462	east	-0.6491469
-5.560658	easter	-0.1795581
-4.782507	eastern	-0.2722626
-5.259628	eastin	-0.03658323
-5.083537	eastwood	-0.3975357
-3.897901	easy	-0.3669587
-4.782507	easylink	-0.5098083
-3.63124	eat	-0.04185548
-4.41453	eating	0.003552109
-5.560658	eazy	-0.1795546
-5.083537	ebay	-0.3975357
-5.560658	ebook	-0.03670274
-5.560658	eco	-0.1795737
-5.560658	ecology	-0.03670274
-5.560658	econ	-0.111721
-4.519266	economic	-0.133828
-5.560658	economical	-0.1795486
-4.356538	economics	-0.1226723
-5.560658	economies	-0.1774964
-5.560658	economist	-0.03670274
-3.992457	economy	-0.5701693
-4.083537	econs	-0.2131082
-5.560658	ed	-0.1795975
-5.560658	edge	-0.03670274
-5.259628	edison	-0.4204172
-4.446715	edit	-0.545177
-4.958599	edited	-0.03406024
-4.657568	editing	-0.2563407
-5.259628	edition	-0.03577566
-5.560658	editions	-0.03670274
-4.519266	editor	-0.3031731
-5.560658	editorial	-0.111721
-5.560658	editors	-0.111721
-5.560658	edmund	-0.1795987
-4.861689	educate	-0.4143847
-4.560658	educated	-0.1136682
-4.042145	education	-0.3316695
-4.958599	educational	0.06528516
-5.560658	edward	-0.1795916
-5.083537	edwin	-0.0323157
-5.560658	ee	-0.1791064
-5.560658	eel	-0.03670274
-3.870462	effect	-0.6487437
-4.481477	effective	-0.2022667
-4.861689	effectively	-0.2135866
-4.446715	effects	-0.2778942
-5.560658	efficicient	-0.03670274
-4.71556	efficiency	-0.3043621
-4.41453	efficient	-0.1501371
-3.937409	effort	-0.4094782
-4.861689	egg	-0.2479915
-5.560658	egypt	-0.03670274
-2.439427	eh	-0.6890342
-5.560658	ehh	-0.173858
-5.560658	ehm	-0.03670274
-5.259628	ei	-0.3525382
-5.560658	eiffel	-0.1795975
-3.543625	eight	-0.2539187
-4.129295	eighteen	-0.06446934
-5.560658	eighteenth	-0.1795354
-5.083537	eighth	-0.03488991
-5.259628	eighties	-0.0294697
-4.259628	eighty	-0.2302953
-5.259628	eileen	-0.0356642
-3.789807	either	-0.3168211
-4.782507	elaborate	-0.07789443
-5.259628	elastic	-0.1116498
-5.560658	elasticity	-0.03670274
-4.384567	elder	-0.5643406
-5.083537	elderly	-0.178194
-5.560658	eldest	-0.1795689
-5.259628	election	-0.2775199
-3.578387	elective	-0.5953201
-4.180447	electives	-1.010694
-4.281905	electric	-0.1806108
-4.657568	electrical	-0.1991306
-4.606416	electricity	-0.01386219
-5.560658	electrode	-0.1795952
-5.560658	electrolysis	-0.111721
-4.481477	electronic	-0.1802361
-4.519266	electronics	-0.08381739
-5.560658	elects	-0.1747877
-4.782507	elegant	-0.3205073
-5.259628	element	0.06079353
-5.259628	elements	-0.3525382
-5.560658	elephant	-0.03670274
-5.560658	elephants	-0.1771218
-5.083537	elevator	0.06079561
-4.198931	eleven	-0.1152321
-5.560658	eleventh	-0.111721
-5.560658	elias	-0.1794853
-4.958599	eliminate	-0.2757063
-5.560658	eliminated	-0.111721
-5.083537	elimination	-0.1094585
-5.259628	elite	-0.178884
-5.560658	elongated	-0.1786386
-3.980875	else	-0.1957341
-5.083537	em	-0.1048299
-3.578387	email	-0.5178101
-5.560658	embarassing	-0.1793741
-5.560658	embark	-0.1786386
-5.560658	embarrassed	-0.1754417
-4.782507	embarrassing	0.005131289
-5.560658	embarrassment	-0.111721
-5.560658	embedded	-0.1794745
-5.560658	embrace	-0.03670274
-4.519266	emcee	-0.1762779
-4.519266	emergency	-0.4032848
-5.083537	emerging	-0.3242124
-5.560658	emirates	-0.03670274
-5.560658	emit	-0.03670274
-5.560658	emm	-0.03670274
-4.41453	emo	-0.1650476
-5.560658	emoticon	-0.1783009
-5.083537	emotion	-0.3975357
-4.71556	emotional	-0.02523358
-5.560658	emotionally	-0.179588
-5.560658	emotionless	-0.03670274
-4.958599	emotions	-0.1396988
-5.259628	emphasis	-0.4194559
-5.259628	empire	-0.03583886
-5.560658	empires	-0.03670274
-4.384567	employee	-0.4931588
-5.560658	employees	-0.03670274
-5.259628	employer	-0.2775199
-5.560658	employers	-0.03670274
-4.782507	empty	-0.1740046
-5.259628	en	-0.1761032
-5.259628	enable	-0.2775199
-5.560658	enclosed	-0.1793921
-5.560658	encode	-0.1790311
-5.560658	encoded	-0.1795665
-5.560658	encoding	-0.03670274
-5.083537	encounter	-0.1805265
-5.560658	encounters	-0.111721
-4.356538	encourage	-0.5047748
-5.560658	encryption	-0.03670274
-3.027904	end	-0.5744196
-5.560658	endangered	-0.1795987
-5.560658	endeavors	-0.111721
-5.560658	ended	-0.1789509
-4.519266	ending	-0.1165156
-5.560658	endorsement	-0.1747877
-5.083537	ends	-0.08414865
-5.560658	enemies	-0.1769872
-5.083537	enemy	0.06643274
-4.083537	energy	-0.4016579
-4.71556	eng	0.009997115
-4.958599	engage	-0.03613643
-4.71556	engaged	-0.3292401
-3.828265	engine	-0.5944123
-5.560658	engineeering	-0.03670274
-3.820296	engineer	-0.5668749
-3.467237	engineering	-0.4279776
-4.958599	engineers	-0.04197216
-5.560658	engines	-0.1795868
-5.083537	england	-0.03089671
-3.208476	english	-0.3990956
-5.083537	englishmen	-0.3975357
-5.560658	enha	-0.03670274
-4.782507	enhance	-0.5473441
-5.083537	enhancement	-0.08414865
-5.560658	enhancements	-0.03670274
-3.836383	enjoy	-0.2572955
-5.259628	enjoyable	-0.2775199
-5.259628	enjoyed	-0.4203742
-5.083537	enjoying	-0.1055981
-5.560658	enjoyment	-0.1771218
-5.259628	enlarged	-0.2775199
-5.560658	enlightened	-0.1703792
-5.560658	enlist	-0.1783704
-3.601617	enough	-0.3621556
-5.259628	enrich	-0.0364421
-5.560658	enriching	-0.03670274
-5.259628	enrichment	-0.1794626
-5.560658	ensure	-0.1787798
-4.384567	enter	-0.4229488
-5.259628	enterpreneur	-0.2775199
-4.657568	enterprise	-0.256669
-4.71556	entertain	-0.173367
-5.560658	entertained	-0.1793156
-5.560658	entertaining	-0.111721
-4.519266	entertainment	-0.5939014
-4.958599	enthu	-0.2748158
-4.861689	enthusiastic	-0.01498537
-4.782507	entire	-0.005091235
-5.560658	entirely	-0.1793132
-4.958599	entrance	-0.04303318
-4.958599	entrepreneur	-0.4175792
-5.560658	entrepreneurial	-0.111721
-5.083537	entrepreneurship	0.07696436
-5.259628	entries	0.06079353
-5.560658	entropy	-0.03670274
-4.238439	entry	-0.505828
-5.560658	envelop	-0.1771218
-3.775329	environment	-0.7092249
-4.41453	environmental	-0.2636486
-5.560658	environments	-0.111721
-5.560658	envy	-0.1794518
-5.083537	enzymes	-0.3975357
-4.41453	episode	-0.2870659
-5.083537	episodes	-0.1798354
-5.083537	equal	-0.3203465
-5.560658	equalize	-0.1793706
-5.083537	equally	-0.1792606
-5.560658	equals	-0.1754417
-5.259628	equation	0.06079353
-5.560658	equations	-0.1769872
-5.259628	equatorial	-0.03658323
-5.560658	equiment	-0.03670274
-4.259628	equipment	-0.5309212
-4.782507	equity	-0.1005197
-5.083537	equivalence	-0.1758523
-4.782507	equivalent	-0.07687318
-2.187011	er	-0.2945296
-5.259628	era	-0.03351778
-5.259628	erase	-0.03555939
-5.560658	erasing	-0.111721
-3.305386	erm	-0.2475964
-5.560658	erode	-0.03670274
-5.259628	erosion	-0.1107592
-3.399291	err	-0.246973
-5.560658	errands	-0.03670274
-4.71556	error	-0.448507
-3.879417	errr	-0.2461566
-4.861689	escalate	-0.4215962
-4.782507	escalation	-0.1774686
-4.481477	escalator	-0.3055756
-5.560658	escalope	-0.111721
-4.657568	escape	-0.1188435
-4.055509	especially	-0.1768982
-5.560658	espirit	-0.03670274
-4.861689	esplanade	-0.3241215
-5.560658	ess	-0.03670274
-4.09826	essay	-0.6039169
-5.083537	essays	-0.1082877
-5.560658	esso	-0.1796011
-4.958599	establish	-0.03406024
-5.560658	established	-0.03670274
-5.560658	estate	-0.03670274
-4.782507	esther	-0.3239983
-5.259628	estimate	-0.2775199
-5.259628	estimation	0.06079353
-5.259628	et	-0.4204172
-5.560658	ethan	-0.1785596
-5.259628	ethical	-0.1795641
-5.560658	ethically	-0.1796011
-5.560658	ethics	-0.03670274
-5.560658	eu	-0.03670274
-5.259628	eucariot	-0.2775199
-5.560658	eugene	-0.03670274
-5.560658	eukariot	-0.1795725
-4.861689	eunice	0.06281328
-4.519266	eureka	-0.9805992
-4.560658	euro	-0.4749656
-3.870462	europe	-0.5259309
-4.519266	european	-0.3504631
-5.259628	euros	-0.03543788
-5.560658	evacuation	-0.1793921
-5.560658	evade	-0.179502
-5.083537	evaluate	-0.3975357
-5.083537	evaluation	-0.08414865
-5.560658	evaluations	-0.111721
-5.560658	evaluative	-0.03670274
-4.606416	eve	-0.1922813
-3.220214	even	-0.3366355
-4.606416	evening	-0.3486618
-3.721809	event	-0.4612938
-5.560658	eventhough	-0.03670274
-3.992457	events	-0.3363831
-4.33021	eventually	-0.6591039
-4.259628	ever	-0.08435389
-5.560658	everage	-0.03670274
-5.560658	evergreen	-0.111721
-3.488776	every	-0.1978633
-3.92719	everybody	-0.001881778
-3.980875	everyday	-0.1100756
-3.853088	everyone	-0.1357535
-3.420779	everything	-0.2238978
-4.113501	everytime	-0.2700295
-4.71556	everywhere	-0.397671
-5.083537	evidence	-0.2561504
-5.083537	evident	-0.03004646
-4.861689	evil	-0.2138904
-5.560658	evolutionary	-0.03670274
-5.560658	evolve	-0.1754417
-4.02918	ex	-0.1619713
-4.71556	exact	-0.0899768
-4.281905	exactly	-0.3612612
-5.560658	exaggerated	-0.1794674
-5.560658	exaggerates	-0.1794375
-3.582935	exam	-0.5212733
-5.560658	examinable	-0.03670274
-5.560658	examinations	-0.1789354
-5.560658	examine	-0.03670274
-4.71556	examiner	-0.683648
-5.560658	examiners	-0.03670274
-3.535353	example	-0.5062832
-5.083537	examples	-0.03258888
-4.356538	exams	-0.2108086
-5.259628	excavation	-0.2775199
-5.560658	exceed	-0.03670274
-5.560658	exceeded	-0.03670274
-4.41453	excel	-0.4807995
-5.083537	excellence	-0.08414865
-5.259628	excellent	-0.2775199
-4.782507	except	-0.3167023
-5.259628	exception	-0.02383226
-5.560658	excess	-0.1795796
-3.543625	exchange	-0.6463921
-4.446715	excited	-0.3754058
-4.218236	exciting	-0.1933535
-5.560658	exclamation	-0.179582
-5.259628	exclude	-0.03183426
-5.560658	excluding	-0.1792594
-4.958599	exclusive	-0.2720697
-5.259628	exco	-0.02383226
-5.560658	excursion	-0.03670274
-4.481477	excuse	-0.3525279
-4.606416	exec	-0.8571004
-5.259628	execute	-0.2775199
-5.560658	execution	-0.03670274
-4.71556	executive	-0.05590418
-4.782507	exempt	-0.5094827
-4.782507	exempted	0.0001425594
-5.259628	exemption	0.06079353
-4.042145	exercise	-0.5970591
-5.259628	exercises	0.06079353
-5.560658	exercising	-0.03670274
-5.560658	exerted	-0.1795725
-4.481477	exhibition	-0.1460445
-5.560658	exhibiton	-0.1795916
-4.782507	exist	-0.09882998
-5.560658	existence	-0.111721
-4.861689	existing	-0.7279348
-4.958599	exit	-0.02124307
-4.71556	exotic	-0.3748391
-4.606416	expand	-0.8934489
-5.259628	expatriate	-0.2775199
-4.069297	expect	-0.3191629
-4.71556	expectation	-0.1318519
-4.71556	expectations	-0.1670982
-4.958599	expected	0.06262131
-5.083537	expecting	-0.1758523
-5.560658	expects	-0.1783321
-5.560658	expedite	-0.03670274
-5.259628	expedition	-0.03570247
-5.560658	expeimental	-0.1795127
-5.560658	expend	-0.03670274
-5.259628	expendables	-0.1109942
-5.560658	expenditure	-0.03670274
-5.560658	expenditures	-0.03670274
-4.519266	expenses	-0.4984885
-4.004356	expensive	-0.3005269
-3.351144	experience	-0.5896201
-4.958599	experienced	0.07699668
-5.083537	experiences	-0.08414865
-4.606416	experient	-0.291347
-4.305386	experiment	-0.4498997
-4.71556	expert	-0.3002648
-4.958599	experty	-0.6130921
-5.560658	expiration	-0.1795772
-4.958599	expire	-0.1401526
-5.083537	expired	-0.03594361
-5.560658	expires	-0.111721
-5.259628	expiry	-0.4203945
-4.09826	explain	-0.5113887
-4.958599	explaining	-0.03587015
-5.560658	explains	-0.1784866
-5.083537	explanation	-0.1770365
-5.560658	explicit	-0.1795342
-5.560658	explodes	-0.179459
-5.560658	exploit	-0.03670274
-5.560658	exploitative	-0.03670274
-4.446715	explore	-0.8391495
-5.083537	explorer	-0.181625
-4.71556	expo	-0.683648
-5.083537	export	-0.03349939
-4.71556	exports	-0.127372
-4.606416	expose	-0.2458431
-4.958599	exposed	-0.1316138
-4.657568	exposure	-0.1246984
-4.259628	express	-0.3199091
-4.782507	expression	-0.5062994
-5.259628	expressionist	-0.2775199
-5.560658	expressive	-0.111721
-5.560658	expressway	-0.1744095
-4.238439	extend	-0.4583897
-4.958599	extended	-0.1399133
-5.560658	extension	-0.111721
-5.259628	extensive	-0.1114444
-4.958599	extent	-0.01948184
-5.560658	extern	-0.1795808
-4.606416	external	-0.1802641
-5.259628	extinct	-0.2775199
-3.907446	extra	-0.1890219
-4.861689	extract	-0.4208238
-5.560658	extraction	-0.03670274
-5.560658	extraordinary	-0.03670274
-4.958599	extreme	-0.1782117
-5.560658	extrude	-0.03670274
-4.861689	ey	-0.1130617
-3.907446	eye	-0.5703083
-5.560658	eyelashes	-0.03670274
-4.71556	eyes	0.07615651
-5.560658	eyesight	-0.1769872
-4.145685	f	-0.2797412
-4.861689	faber	-0.4213256
-5.560658	fabricate	-0.03670274
-5.560658	fac	-0.03670274
-3.747745	face	-0.2594949
-3.741115	facebook	-0.6956887
-5.560658	facebooking	-0.03670274
-5.560658	faces	-0.179459
-4.657568	facial	-0.4136088
-5.560658	facili	-0.03670274
-5.259628	facilitate	-0.0294697
-5.560658	facilitator	-0.111721
-4.861689	facilities	0.07170922
-4.384567	facility	-0.1452157
-5.259628	facing	-0.1742862
-4.218236	fact	-0.377618
-4.41453	factor	-0.2265402
-5.259628	factors	-0.02383226
-4.281905	factory	-0.4859998
-4.958599	facts	-0.2740701
-4.657568	faculty	-0.2633005
-3.870462	fail	-0.4072574
-4.519266	failed	-0.1743112
-5.560658	failing	-0.1703792
-4.519266	failure	-0.2494653
-5.560658	faint	-0.1795808
-5.560658	fainted	-0.1789605
-4.069297	fair	-0.7040501
-5.560658	fairfield	-0.1795975
-5.259628	fairy	-0.1795988
-5.259628	faith	-0.03325187
-4.606416	fake	0.01939292
-4.305386	fall	-0.3350129
-4.958599	falling	-0.2832958
-5.259628	false	-0.1117126
-5.560658	falsetto	-0.1795784
-5.560658	famer	-0.03670274
-4.958599	familiar	0.07027152
-5.560658	familiarity	-0.03670274
-4.861689	families	-0.2144157
-3.277357	family	-0.3414699
-4.113501	famous	-0.6238558
-4.384567	fan	-0.2221854
-5.560658	fanny	-0.111721
-4.861689	fans	-0.01359951
-4.958599	fantasy	-0.04296045
-3.284197	far	-0.7729559
-5.560658	farewell	-0.1795581
-3.92719	farm	-0.4625541
-5.259628	farmer	-0.2775199
-5.560658	farms	-0.1789605
-5.560658	fas	-0.1796011
-5.560658	fascinated	-0.179
-4.446715	fashion	-0.5323139
-5.560658	fass	-0.03670274
-4.016591	fast	-0.3248794
-4.782507	faster	-0.08281946
-5.560658	fastest	-0.1783704
-5.560658	fastfood	-0.03670274
-4.238439	fat	-0.1975718
-5.560658	fatal	-0.111721
-5.259628	fate	-0.0366762
-4.113501	father	-0.4922304
-5.560658	fathom	-0.03670274
-4.861689	fats	-0.2127023
-5.083537	fattening	-0.02008407
-5.560658	fatty	-0.1795844
-4.782507	fault	-0.07586344
-5.560658	faults	-0.1769872
-5.560658	favorable	-0.03670274
-4.71556	favorite	-0.401967
-5.259628	favour	-0.03403576
-4.41453	favourite	-0.05793214
-5.083537	fax	-0.3975357
-5.560658	faxes	-0.111721
-5.259628	feasible	0.06079353
-5.259628	feather	-0.4204172
-4.657568	feature	-0.2382641
-5.560658	featured	-0.03670274
-5.259628	features	-0.03307283
-5.083537	feb	-0.1816234
-4.861689	february	-0.01601788
-4.958599	fed	-0.7553403
-5.083537	federal	-0.5403481
-5.259628	fedora	-0.2775199
-4.41453	fee	-0.5724817
-4.519266	feed	-0.111288
-4.356538	feedback	-0.4319744
-5.259628	feeder	-0.1695574
-5.083537	feeding	-0.08414865
-3.378815	feel	-0.5775928
-4.113501	feeling	-0.2850033
-5.083537	feelings	0.06195427
-5.083537	feels	-0.1743333
-4.162718	fees	-0.7211208
-4.782507	feet	-0.4124415
-5.560658	felicia	-0.111721
-4.958599	fell	-0.4183734
-5.259628	fellow	-0.03574905
-5.560658	fellowship	-0.1767697
-4.560658	felt	-0.2954862
-4.162718	female	-0.3691456
-5.560658	females	-0.1780205
-5.259628	feminine	-0.03406414
-5.259628	femoral	-0.1795928
-5.560658	fencing	-0.1789736
-5.560658	fend	-0.03670274
-5.560658	fengshui	-0.03670274
-5.259628	fergerson	-0.2775199
-5.560658	fergie	-0.03670274
-5.560658	ferment	-0.111721
-4.958599	fermentation	-0.1321337
-5.560658	ferrari	-0.179588
-5.560658	ferraris	-0.1773163
-5.560658	ferry	-0.03670274
-5.259628	fertilizers	0.06079353
-5.083537	fest	-0.08414865
-4.384567	festival	-0.2578564
-5.083537	festivals	-0.08414865
-5.083537	fetch	-0.181042
-5.560658	fetched	-0.1776848
-5.560658	fettish	-0.03670274
-5.259628	fever	-0.1109411
-3.527235	few	-0.188072
-5.560658	fewer	-0.1791518
-4.958599	fi	-0.04037786
-4.560658	fiber	-0.5764779
-5.083537	fibonacci	-0.1815321
-5.560658	fico	-0.1791638
-5.083537	fiction	0.06082261
-5.560658	fictional	-0.111721
-5.259628	ficture	-0.2775199
-5.560658	fidel	-0.1793825
-3.703326	field	-0.5004823
-5.560658	fielder	-0.03670274
-5.259628	fields	-0.2775199
-5.083537	fieldwork	-0.08414865
-4.71556	fierce	-0.2766586
-5.560658	fiercer	-0.1794028
-4.861689	fiesta	-0.1175432
-3.980875	fifteen	-0.1812187
-5.259628	fifth	-0.177434
-3.844655	fifty	-0.2760321
-4.083537	fight	-0.2980128
-4.71556	fighting	-0.3703082
-4.782507	figure	-0.08128902
-5.560658	figured	-0.1769933
-4.958599	figures	0.06734286
-3.992457	file	-0.6460558
-5.560658	filed	-0.03670274
-5.083537	filer	-0.3975357
-4.861689	files	-0.3241215
-5.259628	filipino	-0.0366596
-4.782507	fill	-0.1747448
-5.259628	filled	-0.109047
-4.41453	film	-0.08132571
-5.560658	filmed	-0.1771218
-5.259628	filming	-0.1112613
-5.259628	films	-0.2775199
-4.71556	filter	-0.1324337
-5.259628	filtering	-0.2775199
-5.560658	fin	-0.1795952
-3.691427	final	-0.6400186
-5.259628	finalised	-0.1784698
-5.560658	finalize	-0.03670274
-5.560658	finalized	-0.179508
-4.446715	finally	-0.1908254
-4.384567	finals	-0.4729742
-3.761318	finance	-0.5688761
-3.980875	financial	-0.1876945
-4.861689	financially	-0.0199053
-3.611269	find	-0.2041172
-5.560658	finder	-0.03670274
-4.958599	finding	-0.03339908
-5.259628	findings	0.06079353
-5.259628	finds	-0.179165
-4.218236	fine	-0.2659608
-5.083537	fingers	-0.3975357
-3.897901	finish	-0.267899
-5.259628	finished	-0.03657161
-5.560658	finisher	-0.1744095
-5.083537	finishing	-0.3244609
-5.259628	finland	-0.2775199
-5.560658	fins	-0.03670274
-4.71556	fire	-0.1353438
-5.560658	fireman	-0.1795761
-5.083537	firewall	-0.1807178
-4.281905	firm	-0.6979221
-5.560658	firms	-0.03670274
-2.97746	first	-0.3620501
-4.958599	firstly	-0.6130921
-4.069297	fish	-0.2879553
-5.560658	fishes	-0.03670274
-4.560658	fishing	-1.023832
-5.560658	fishmonger	-0.03670274
-4.129295	fit	-0.500857
-4.606416	fitness	-0.1797384
-5.259628	fitting	-0.2775199
-3.086442	five	-0.2522098
-4.198931	fix	-0.7710844
-4.481477	fixed	-0.2060636
-5.560658	fixing	-0.111721
-5.083537	flag	-0.03201884
-5.560658	flags	-0.1767697
-5.560658	flame	-0.1794184
-4.356538	flash	-0.4941692
-5.560658	flashy	-0.03670274
-4.356538	flat	-0.6080387
-4.861689	flavor	-0.1163309
-5.560658	flavoured	-0.03670274
-5.560658	flavours	-0.1783177
-5.560658	flaw	-0.1771218
-5.083537	flaws	-0.1787571
-5.560658	flay	-0.03670274
-5.560658	flea	-0.1794948
-5.259628	flew	-0.1790442
-4.958599	flexi	-0.2746461
-5.083537	flexibility	-0.08414865
-4.180447	flexible	-0.8334961
-5.560658	flicker	-0.03670274
-5.560658	flicks	-0.03670274
-5.259628	flier	-0.03325187
-5.560658	flies	-0.1795952
-4.384567	flight	-0.3611278
-5.560658	flights	-0.03670274
-4.861689	flim	-0.291147
-4.861689	flip	-0.1065267
-4.657568	float	-0.1985425
-5.083537	floater	-0.3975357
-5.560658	floating	-0.1795784
-5.083537	floats	0.06119673
-5.560658	floform	-0.1795928
-4.958599	flood	0.06906085
-5.259628	flooded	-0.03586546
-5.560658	floodwater	-0.03670274
-4.09826	floor	-0.2371779
-5.560658	floors	-0.111721
-5.259628	flop	0.06079353
-5.083537	florida	-0.03524975
-4.958599	flour	-0.2748158
-4.384567	flow	-0.4745
-5.259628	flower	-0.03668615
-5.259628	flowery	-0.4202654
-5.259628	flows	-0.2775199
-5.083537	flu	-0.3975357
-5.560658	fluctuating	-0.1792307
-5.259628	fluency	-0.03325187
-5.259628	fluent	-0.03209433
-5.259628	fluffy	-0.1794733
-4.958599	fluid	-0.138838
-5.560658	fluorescent	-0.03670274
-5.259628	flush	-0.2775199
-5.259628	flute	0.06079353
-4.41453	fly	0.05855678
-4.446715	flyer	-0.5376039
-5.259628	flyers	-0.03091016
-4.782507	flying	-0.1005114
-5.560658	flyover	-0.03670274
-5.083537	foam	-0.3975357
-3.853088	focus	-0.7124693
-5.259628	focused	-0.1760177
-5.560658	foetous	-0.1769872
-4.958599	fold	-0.281604
-5.259628	folder	0.06079353
-5.259628	folks	-0.03655668
-3.789807	follow	-0.2451698
-5.560658	followers	-0.1790311
-5.083537	following	-0.1093982
-5.259628	folsom	-0.2775199
-3.193303	food	-0.4647203
-5.560658	foods	-0.1747877
-5.259628	foot	-0.03669778
-5.259628	footage	0.06079353
-4.446715	football	-0.1298074
-5.560658	foothold	-0.03670274
-5.560658	footprints	-0.111721
-2.355996	for	-0.3428539
-5.560658	forbid	-0.1793969
-4.305386	force	-0.5573314
-4.782507	forced	-0.3964517
-5.560658	forceps	-0.03670274
-5.259628	forces	-0.03640389
-4.958599	forecast	-0.6130921
-5.560658	forehead	-0.1776848
-4.259628	foreign	-0.4303474
-4.958599	foreigner	-0.2756748
-4.606416	foreigners	-0.2102826
-5.083537	forensic	-0.3241693
-5.259628	foresee	-0.03663138
