
\data\
ngram 1=23168
ngram 2=114328

\1-grams:
-0.9598762	</s>
-99	<s>	-0.3139777
-1.609452	一	-0.3887222
-4.101219	一一	-0.1710921
-5.379972	丁	-0.1111178
-3.772517	七	-0.4156537
-4.218604	七个	-0.4404935
-5.681002	七个人	-0.0275214
-5.379972	七个学期	-0.3223487
-5.203881	七分	0.0354357
-4.379972	七十	-0.2194394
-5.681002	七十三十这样子就够了	-0.0275214
-5.681002	七十二	-0.1130598
-5.078942	七十五	-0.5527235
-5.681002	七十八	-0.1167812
-5.078942	七千	-0.1094701
-5.681002	七咯	-0.06635585
-5.681002	七咯然后	-0.0275214
-5.681002	七块多罢了差很远	-0.06635585
-4.982032	七年	-0.006460801
-4.358783	七月	0.01555905
-4.249639	七点	-0.1110392
-5.681002	七点五罢了	-0.06635585
-5.681002	七点以上	-0.1060018
-5.681002	七百	-0.116802
-5.681002	七百多	-0.1168029
-5.681002	七的话它可以帮你	-0.0275214
-5.681002	七这种新的	-0.0275214
-4.681002	万	-1.054198
-5.681002	万万	-0.1164733
-5.681002	万里	-0.1168065
-3.395445	三	-0.268907
-5.681002	三三	-0.1119205
-3.471487	三个	-0.3572626
-5.681002	三个东西好用	-0.06635585
-5.379972	三个月	-0.3619946
-5.681002	三个月然后如果	-0.0275214
-5.681002	三个钟头罢了耶	-0.06635585
-5.681002	三会出来啦	-0.06635585
-5.681002	三六零你有听过吗三六零	-0.0275214
-4.72676	三分	-0.5276027
-3.861458	三十	-0.3527282
-5.203881	三十三	-0.1176704
-5.078942	三十二	0.03559124
-5.681002	三十二分	-0.1152067
-5.681002	三十二千	-0.1168002
-4.835904	三十五	-0.3360383
-5.078942	三十分	-0.641929
-5.203881	三十四	-0.06608835
-4.982032	三十多	0.04060394
-5.681002	三十多到四十左右会比较便宜	-0.06635585
-5.681002	三十多千美金	-0.0275214
-4.450553	三千	-0.08475941
-5.681002	三千多	-0.1137577
-5.681002	三千多块	-0.06635585
-5.681002	三号到五号	-0.06635585
-4.358783	三四	-0.4181483
-5.681002	三四个	-0.0275214
-5.681002	三四八	-0.06635585
-5.681002	三四十块的	-0.1168075
-5.681002	三四千咯	-0.1168084
-5.681002	三四百那个的新加坡的钱我们这边你要买	-0.1060018
-5.681002	三国	-0.1154547
-5.681002	三国鼎立了的就是	-0.0275214
-5.681002	三大类型的东西咯	-0.06635585
-5.681002	三天	-0.06635585
-5.681002	三层楼	-0.1156989
-3.881662	三年	-0.2410361
-5.681002	三年你知道吗	-0.06635585
-5.681002	三年多	-0.1060018
-5.681002	三年级	-0.06635585
-5.681002	三年还是四年的话	-0.1103806
-5.681002	三更	-0.1167984
-5.078942	三月	-0.05133198
-4.504911	三次	-0.01006332
-4.112801	三点	-0.07987712
-5.681002	三点三	-0.06635585
-4.203881	三百	-0.304697
-5.681002	三百块乘十二个就三千六了	-0.06635585
-5.203881	三百多	-0.1031282
-5.681002	三种不同的	-0.0275214
-5.681002	三种不同的生活咯	-0.1060018
-5.681002	三角	-0.1168047
-5.681002	三角形	-0.1099035
-4.982032	三轮车	-0.01885036
-5.681002	三通	-0.1167803
-5.078942	三餐	-0.1047443
-3.323067	上	-0.1786304
-4.902851	上上	-0.1065907
-4.777912	上下	-0.0910862
-4.601821	上了	-0.1584544
-5.681002	上交	-0.1167984
-5.681002	上从早上上到晚上但是接下来星期四星期五星期六星期天哇空到完的你就可以出去做很多事情了	-0.06635585
-5.681002	上升	-0.1165775
-3.861458	上去	-0.2172155
-5.681002	上去了	-0.1168084
-5.681002	上去人家就知道	-0.06635585
-5.379972	上去咯	-0.3223487
-5.681002	上去啦	-0.06635585
-5.681002	上去它的那个	-0.0275214
-5.681002	上去罢了	-0.06635585
-5.203881	上台	-0.1061567
-5.681002	上场	-0.1166608
-4.681002	上学	-0.07263261
-5.379972	上工	-0.109875
-5.379972	上市	-0.2835142
-4.681002	上帝	-0.2133947
-5.681002	上当	-0.1141815
-5.379972	上手	-0.3697506
-5.681002	上批发然后去售卖也不可以	-0.06635585
-5.203881	上映	-0.2115808
-4.203881	上来	-0.07026049
-5.681002	上来了咯	-0.06635585
-5.681002	上来的时候	-0.1168084
-4.008904	上次	-0.161818
-5.681002	上次去美国啊好像是也不需要拿	-0.0275214
-5.681002	上次我们去因为我们	-0.0275214
-5.681002	上次我们只是拿去比赛	-0.1168084
-5.379972	上次我去	-0.2835142
-5.681002	上次我在	-0.0275214
-5.681002	上次我有	-0.1060018
-5.681002	上次我玩	-0.1061614
-5.681002	上次是主要是呃填土然后还有看	-0.0275214
-5.681002	上次是八十	-0.1168084
-5.681002	上次有去	-0.1060018
-5.681002	上次有发生那个爆炸事件的那个	-0.0275214
-5.681002	上次来	-0.0275214
-5.681002	上次的时候我有	-0.0275214
-5.681002	上次的时候更好笑哦我收到	-0.1060018
-5.681002	上次跟他的	-0.0275214
-4.402249	上海	-0.1589126
-4.601821	上班	-0.1628857
-5.681002	上等	-0.1167902
-4.402249	上网	-0.04827824
-5.681002	上网也是可以啊那种	-0.0275214
-5.681002	上网然后他可能	-0.1060018
-4.162488	上课	-0.1032181
-5.681002	上课过后过后最后	-0.1060018
-5.681002	上身	-0.06635585
-5.379972	上进心	-0.06563638
-3.685367	上面	-0.06552389
-5.681002	上面没有给钱哦你的功已经完了	-0.06635585
-5.681002	上面的	-0.0275214
-5.681002	上面跳跳跳	-0.06635585
-2.93359	下	-0.3131893
-5.203881	下个星期	-0.2647329
-5.681002	下个礼拜	-0.0275214
-5.203881	下了	-0.09749568
-5.681002	下人	-0.06635585
-5.681002	下什么是叫	-0.0275214
-5.681002	下他	-0.0275214
-5.681002	下他拍的那些作品	-0.1168084
-5.681002	下但是	-0.0275214
-5.681002	下但是有很方便哦	-0.06635585
-5.681002	下出来这样	-0.0275214
-5.681002	下到五十片	-0.1060018
-5.681002	下到底什么事情	-0.1168084
-5.681002	下到来	-0.0275214
-5.681002	下到欧洲那边总共你只需要花九个钟罢了你就能到了了	-0.06635585
-4.402249	下午	-0.1686632
-3.63961	下去	-0.2059945
-5.681002	下去可以直接	-0.0275214
-5.681002	下去就可以了	-0.06635585
-5.681002	下去我的	-0.0275214
-5.681002	下去给它	-0.1168084
-5.681002	下去给它跑	-0.0275214
-5.681002	下可以	-0.0275214
-4.777912	下咯	-0.7166507
-5.681002	下咯不然他	-0.0275214
-5.681002	下哦它的那边	-0.06635585
-5.681002	下啊	-0.06635585
-5.681002	下啊他应该拿锁匙了吧	-0.06635585
-5.681002	下啊哦	-0.1168084
-5.203881	下啦	-0.4942411
-5.681002	下啦他的环境只不过是吃东西贵咯	-0.06635585
-5.681002	下啦去很多天的话其实是可以缩短的	-0.0275214
-5.681002	下啦可现在想要物色	-0.0275214
-5.681002	下啦因为大概都有四五批这样子	-0.1060018
-5.681002	下啦它因为有时我也是蛮喜欢那些有点	-0.0275214
-5.681002	下啦就	-0.06635585
-5.681002	下啦我看应该是好像我这种的	-0.0275214
-5.681002	下啦自己	-0.0275214
-5.681002	下嗯	-0.06635585
-5.379972	下回	-0.1116522
-5.681002	下因为	-0.0275214
-5.681002	下在	-0.0275214
-5.681002	下场	-0.1111517
-5.681002	下好像怎样做	-0.0275214
-4.149523	下子	-0.1168824
-5.681002	下子会被人家	-0.0275214
-5.681002	下子又不太	-0.1168084
-5.681002	下子又想回以前	-0.1168084
-5.681002	下子就散了	-0.06635585
-5.681002	下子就有钱咯要慢慢来	-0.06635585
-5.681002	下子就没有了	-0.06635585
-5.681002	下子就被	-0.0275214
-5.681002	下子就跳跳跳了每年都会跳的	-0.1168084
-5.681002	下子开始然后叫我自己做然后自己就离开了	-0.06635585
-5.681002	下子罢了然后但是他们也是赶着要走啦所以也是没有讲几句话罢了	-0.06635585
-5.681002	下它都没有	-0.06635585
-5.681002	下定	-0.1168084
-5.681002	下定决心	-0.0275214
-5.681002	下就可以	-0.06635585
-5.681002	下就可以喝了很简单	-0.06635585
-5.681002	下就给石头割到了	-0.06635585
-5.681002	下属	-0.1165693
-5.681002	下巴	-0.1168056
-5.681002	下很好吃啦	-0.06635585
-5.681002	下我用过	-0.0275214
-5.681002	下所以我刚刚讲两年的意思	-0.06635585
-5.681002	下手	-0.1152049
-5.681002	下文	-0.0275214
-5.681002	下有	-0.1060018
-5.681002	下有没有事	-0.1168075
-3.707875	下来	-0.2114944
-5.681002	下来看咯	-0.06635585
-5.681002	下来看的有	-0.1060018
-5.681002	下棋	-0.06635585
-5.681002	下槟城的屋子啦还有几个是比较	-0.0275214
-4.601821	下次	-0.1447093
-5.681002	下次还可以再去	-0.0275214
-5.203881	下水	-0.5325047
-5.681002	下没有自己的时间	-0.06635585
-5.681002	下海	-0.1155836
-5.681002	下然后	-0.1168084
-5.681002	下然后拿那个	-0.0275214
-5.681002	下现在的	-0.0275214
-5.078942	下班	-0.2251331
-5.379972	下的	-0.06635484
-5.681002	下的其实	-0.06635585
-5.681002	下的咯它的	-0.0275214
-5.681002	下看他们	-0.06635585
-5.681002	下看在	-0.0275214
-5.681002	下看左看右看左看右咯	-0.06635585
-5.681002	下第	-0.1060018
-5.681002	下等	-0.1060018
-5.681002	下给	-0.0275214
-5.681002	下罢了	-0.06635585
-5.681002	下罢了咯是听歌	-0.06635585
-5.681002	下罢了啰然后	-0.06635585
-5.681002	下而且	-0.06635585
-5.681002	下蛮好笑	-0.1060018
-5.681002	下要去睡觉了	-0.0275214
-5.681002	下觉得自己能不能做然后	-0.0275214
-4.902851	下课	-0.1026589
-5.681002	下车	-0.1164253
-5.681002	下这些东西	-0.06635585
-5.681002	下这样子咯	-0.06635585
-5.681002	下这样子罢了	-0.06635585
-5.681002	下这样罢了	-0.06635585
-5.681002	下那	-0.1060018
-5.379972	下那个	-0.2835142
-5.681002	下那个身体又好像很多死皮这样喔因为晒你知道吗晒到身体好像干干这样喔然后所以我们就想说比较注重那个身体的咯还有我们的脚咯	-0.06635585
-5.681002	下那些其它的	-0.0275214
-5.681002	下那边	-0.1060018
-5.681002	下降	-0.06635585
-4.504911	下雨	-0.0007459521
-4.835904	下雪	-0.1709824
-4.203881	下面	-0.2518247
-5.681002	下面不可以动到地的他的树下面要顶着	-0.1060018
-5.681002	下面也好你要自己分开	-0.0275214
-2.591804	不	-0.5596491
-5.681002	不不同样的	-0.0275214
-5.681002	不不够新	-0.0275214
-5.681002	不不美这样	-0.06635585
-4.902851	不久	-0.0541145
-5.681002	不久嘛然后没有理由问这样的问题的喂你以后买了屋子有我的名吗好像很	-0.06635585
-5.681002	不久我煮	-0.0275214
-4.047534	不了	-0.339579
-5.203881	不了情	-0.01884922
-2.888611	不会	-0.1691468
-5.681002	不会做那种大公司	-0.1168084
-5.681002	不会像当年的那种的这么多就是因为我们知道我们	-0.0275214
-5.681002	不会像我们现在这种	-0.0275214
-5.681002	不会啦会比较容易	-0.0275214
-5.681002	不会啦因为因为我有我有	-0.1060018
-5.681002	不会啦因为那间公司它是已经已经做了成立几十年了的	-0.06635585
-5.681002	不会好像	-0.0275214
-5.681002	不会很大	-0.1060018
-5.681002	不会很麻烦的	-0.06635585
-5.681002	不会排出来	-0.0275214
-5.681002	不会有什么东西做嘛	-0.0275214
-5.681002	不会死掉啦	-0.0275214
-5.681002	不会没有钱啦然后所以	-0.1167821
-5.681002	不会生存	-0.06635585
-5.681002	不会的他赚你那边就够了咯他肯定不会派你去的	-0.06635585
-5.681002	不会相差很多	-0.06635585
-5.681002	不会给它也不会带来	-0.1060018
-5.681002	不会讲	-0.06635585
-5.681002	不会讲完全是	-0.1060018
-5.681002	不会讲英文嘛	-0.06635585
-5.681002	不会讲要做	-0.1060018
-5.681002	不会说是说是很有兴趣啦	-0.06635585
-5.681002	不会路喔等下又	-0.06635585
-5.681002	不会这样感	-0.1168084
-5.681002	不会进入	-0.0275214
-4.835904	不便	-1.064426
-5.681002	不值得啊你多做	-0.0275214
-5.681002	不假如是你要看那个小世界的呢你要坐船咯	-0.06635585
-5.203881	不停	-0.2056296
-5.681002	不像你们是可以今天拿明天的	-0.0275214
-5.681002	不像你讲那个每个月要玩那种比较	-0.0275214
-5.681002	不像好像其他的有些好像分到很多几百种然后	-0.06635585
-5.681002	不像我们槟城这样	-0.06635585
-5.681002	不像我们这边	-0.1168084
-5.681002	不像我这样	-0.06635585
-5.681002	不像现在现在我们全部是在家	-0.0275214
-5.681002	不关	-0.1163238
-5.203881	不准	-0.02743578
-4.450553	不出	-0.2181114
-5.681002	不出那	-0.1060018
-5.379972	不利	-0.1098925
-3.502025	不到	-0.1719754
-5.681002	不到了	-0.0275214
-5.681002	不到啦	-0.06635585
-5.681002	不到因为没有	-0.0275214
-5.681002	不到就是给那个第三	-0.0275214
-5.681002	不到机票	-0.06635585
-5.681002	不到的话就是	-0.0275214
-5.681002	不到那些	-0.1168084
-5.681002	不单	-0.1165829
-5.379972	不及	-0.02751918
-4.189641	不只	-0.5060278
-5.681002	不只是哈	-0.1168084
-5.681002	不只是那些啦	-0.06635585
-3.33858	不可	-2.06864
-5.681002	不可不可能只是做	-0.1060018
-3.788908	不可以	-0.1023572
-5.681002	不可以乱来嘿	-0.06635585
-5.681002	不可以啊然后什么不可以做啊	-0.06635585
-5.681002	不可以讲	-0.0275214
-5.681002	不可以讲有很好的	-0.0275214
-5.681002	不可以超过二十五块钱	-0.06635585
-5.681002	不可否认	-0.1158141
-3.888611	不可能	-0.07494414
-5.681002	不可能他	-0.0275214
-5.681002	不可能是这个	-0.0275214
-5.379972	不合	-0.0275114
-3.295396	不同	-0.6175979
-5.681002	不同不同	-0.1168084
-5.681002	不同不同咯	-0.1165892
-5.203881	不同不同的	-0.4554066
-5.681002	不同不同的地方	-0.1168084
-5.681002	不同你要找出	-0.06635585
-5.681002	不同吗	-0.06635585
-5.379972	不同啦	-0.06415297
-5.681002	不同国家吗	-0.1060018
-5.681002	不同地方啦因为上次我在	-0.0275214
-5.681002	不同是因为	-0.0275214
-5.681002	不同样的	-0.0275214
-4.534874	不同的	-0.809467
-5.681002	不同的东西	-0.06635585
-5.681002	不同的他们的	-0.0275214
-5.681002	不同的地方	-0.1167893
-5.681002	不同的文化咯	-0.06635585
-5.681002	不同的方法哦	-0.1167966
-5.681002	不同的是	-0.0275214
-5.681002	不同的那个位啊不同的	-0.0275214
-5.379972	不和	-0.1125673
-5.681002	不善	-0.1162358
-5.681002	不喜欢我自己也不大喜欢	-0.06635585
-5.681002	不喜欢读呵	-0.06635585
-4.835904	不在	-0.1441453
-5.681002	不在乎	-0.1119855
-5.681002	不在因为	-0.0275214
-5.681002	不堪	-0.0275214
-5.681002	不多	-0.06635585
-3.72676	不够	-0.2505312
-3.861458	不大	-0.5670904
-5.681002	不大不大能够申请比较好的课系就随便放然后进到就好	-0.06635585
-5.681002	不大会也也跟着他们跟我讲就像我	-0.0275214
-5.681002	不大想要	-0.0275214
-5.681002	不大清楚呱因为你很累了你然后怕不要去相信真的你看到这样的东西咯	-0.06635585
-5.681002	不大清楚因为有	-0.1060018
-5.681002	不大能讲放到完东西回来读书了	-0.06635585
-5.681002	不大记得了好像你它它有好像到四十五个	-0.0275214
-5.681002	不太	-0.1099035
-5.681002	不太会	-0.0275214
-5.681002	不太像车这的车这样	-0.06635585
-5.681002	不太喜欢玩那个	-0.1168084
-3.510741	不好	-0.3361106
-5.681002	不好吗	-0.1138826
-4.63961	不好意思	-0.1275031
-4.777912	不如	-0.05781096
-5.681002	不如不要买更加好我不用买这样贵的咯	-0.06635585
-5.681002	不孝	-0.1099035
-4.835904	不安	-0.3767916
-5.681002	不完的话就	-0.1168084
-5.203881	不宜	-0.544257
-4.476882	不容易	-0.2579734
-4.319274	不对	-0.1345441
-4.982032	不小心	-0.2011365
-5.681002	不少	-0.1139163
-5.681002	不干	-0.1168075
-5.379972	不平衡	-0.1134376
-5.681002	不平衡有时候会啦	-0.1168084
-5.681002	不幸	-0.1046195
-5.379972	不当	-0.01440606
-5.078942	不得已	-0.1094986
-5.681002	不必要	-0.1046195
-5.681002	不忍	-0.1167848
-5.681002	不快	-0.1099035
-4.319274	不怎么	-0.2274507
-4.601821	不怕	-0.1186126
-5.681002	不惯	-0.1162676
-3.811771	不想	-0.1500616
-5.681002	不想拿	-0.0275214
-5.681002	不想进	-0.0275214
-5.681002	不愧	-0.0275214
-5.078942	不愿	-0.6420077
-2.935928	不懂	-0.3106445
-5.681002	不懂什么	-0.0275214
-5.681002	不懂哦	-0.1168084
-5.681002	不懂啦可能他们我也不懂他们用什么方法来做啦不过如果是点那个酱	-0.1060018
-5.681002	不懂啦呵呵	-0.06635585
-5.681002	不懂就是不懂那边多少钱因为现在屋子很贵	-0.0275214
-5.681002	不懂找谁照顾哦然后	-0.06635585
-5.681002	不懂是哪	-0.1060018
-5.681002	不懂用什么纸啊折成	-0.1060018
-5.681002	不懂自己要做什么他讲	-0.06635585
-5.379972	不成	-0.1099008
-5.681002	不戴那个标头的咯	-0.06635585
-4.203881	不敢	-0.07172135
-5.681002	不方便那边	-0.06635585
-4.63961	不明	-1.079152
-5.681002	不明白	-0.116783
-5.681002	不明白这个	-0.0275214
-2.61617	不是	-0.321254
-5.681002	不是不可以拿	-0.1168075
-5.681002	不是不是	-0.1168084
-5.681002	不是不是不是	-0.06635585
-5.681002	不是不是很好啦如果你是如果是打算在这里是	-0.0275214
-5.681002	不是不是说很好那种可是还	-0.0275214
-5.681002	不是不能吃啦如果我吃那当我知道不好的了我就不会来	-0.0275214
-5.681002	不是佛教啦又不是	-0.0275214
-5.379972	不是你	-0.0142089
-5.681002	不是你赚钱啊是可能别人用来赚钱啊	-0.06635585
-5.681002	不是像我们	-0.0275214
-5.681002	不是冥纸他们不是用冥纸拜的他们是	-0.0275214
-5.681002	不是华人只是	-0.1060018
-5.681002	不是只是放在那边看罢了	-0.06635585
-5.681002	不是咖啡店它是	-0.0275214
-5.681002	不是哦它又再	-0.0275214
-5.681002	不是啊	-0.1168084
-5.681002	不是啊不大会	-0.06635585
-5.681002	不是啊如果不能读书的话就要哦做	-0.0275214
-5.681002	不是啊就是	-0.0275214
-5.681002	不是啊这种	-0.0275214
-5.681002	不是啦因为他他们	-0.0275214
-5.681002	不是啦我觉得是警察的错咯因为不可能说就是要就是	-0.06635585
-5.681002	不是喔它好像是	-0.0275214
-5.681002	不是回教来的他们应该印度神	-0.0275214
-5.681002	不是在	-0.0275214
-5.681002	不是在脸	-0.06635585
-5.681002	不是大只的	-0.1168084
-5.681002	不是天然的	-0.06635585
-5.681002	不是好像我们	-0.0275214
-5.681002	不是好像普通的	-0.0275214
-5.681002	不是嫁人了咯这样	-0.1168084
-5.681002	不是完全这样透视啦是那种	-0.06635585
-5.681002	不是就是	-0.1060018
-5.078942	不是很	-0.5527235
-5.379972	不是很多	-0.3223487
-5.681002	不是很多咯	-0.06635585
-5.379972	不是很好	0.03531874
-5.681002	不是很好啦	-0.1159575
-5.681002	不是很懂不是很懂不是很懂	-0.06635585
-5.681002	不是很新的	-0.06635585
-5.681002	不是很有兴趣啦	-0.06635585
-5.681002	不是很有多	-0.0275214
-5.681002	不是很清楚	-0.06635585
-5.681002	不是很清楚因为刚刚接触罢了	-0.06635585
-5.681002	不是很那种很突出	-0.06635585
-5.681002	不是很难讨啊	-0.06635585
-5.379972	不是我们	-0.2835142
-5.379972	不是我的	-0.2835142
-5.681002	不是放我们	-0.0275214
-5.681002	不是整个	-0.0275214
-5.681002	不是棉花来做的	-0.1168075
-5.681002	不是横就是直	-0.1168084
-5.681002	不是每	-0.1060018
-5.681002	不是没有吃	-0.1168084
-5.681002	不是没有熟有熟但是	-0.06635585
-5.681002	不是看沙就是看那个仙人掌咯	-0.06635585
-5.681002	不是秘密了每个人都紧张了那时	-0.06635585
-5.681002	不是算最新的	-0.06635585
-5.681002	不是给	-0.0275214
-5.681002	不是考试罢了	-0.1168084
-5.681002	不是肯定你要位啦可能是	-0.0275214
-5.681002	不是薄喔	-0.06635585
-5.681002	不是虽然我不不大会讲但是我会听	-0.06635585
-5.078942	不是讲	-0.2899235
-5.681002	不是讲人家要去玩你就可以去玩那种	-0.06635585
-5.681002	不是讲全部东西我们吃的	-0.0275214
-5.681002	不是讲我	-0.0275214
-5.681002	不是讲新年的时候啦有跟朋友	-0.1060018
-5.681002	不是讲说	-0.0275214
-4.63961	不是说	-0.1318622
-5.681002	不是说他们会在	-0.0275214
-5.681002	不是说你要放弃我的事业啦	-0.1168084
-5.681002	不是说很	-0.0275214
-5.681002	不是说很好啦只是	-0.0275214
-5.681002	不是这样好	-0.06635585
-5.681002	不是道到第几的时候它你就可以看了	-0.06635585
-5.681002	不是那种很	-0.0275214
-5.681002	不是靠近海的在	-0.0275214
-5.681002	不是饿死	-0.06635585
-5.681002	不景气	-0.1167921
-5.681002	不會很多	-0.06635585
-5.681002	不有几种都会有	-0.0275214
-5.681002	不服	-0.1103806
-4.681002	不止	-0.0751678
-5.681002	不比	-0.0275214
-5.681002	不清楚啊这个	-0.06635585
-5.681002	不清楚啦	-0.112772
-5.379972	不满	-0.2835142
-3.510741	不然	-0.4600128
-5.681002	不然他做工期间怎样玩	-0.06635585
-5.681002	不然你	-0.1060018
-5.681002	不然你的	-0.0275214
-5.681002	不然你直接直接教他们那些	-0.0275214
-5.379972	不然就是	-0.02752029
-5.681002	不然就是要乔我们的那个	-0.0275214
-5.681002	不然很辛苦	-0.0275214
-5.681002	不然怕跟不上啊	-0.06635585
-5.681002	不然的话他们就要用	-0.0275214
-5.681002	不然的话你很头痛的因为是黑白有时候你要找	-0.1060018
-5.681002	不然的话走不到	-0.06635585
-5.681002	不然等下他们不给我	-0.0275214
-5.681002	不然那个你看	-0.0275214
-4.42573	不爽	-0.2148342
-5.078942	不理	-0.1043438
-5.379972	不甘	-0.3727984
-3.293612	不用	-0.2605871
-5.681002	不用不是讲全部人都会的只是他们那个	-0.0275214
-5.681002	不用不用特地爬上去看了啊	-0.06635585
-5.681002	不用人手	-0.1060018
-5.681002	不用再继续做就是好像给你啊待到这个五年就是五年完了然后如果你有	-0.0275214
-5.681002	不用啦	-0.06635585
-5.681002	不用啦他是你买那个正版	-0.0275214
-5.681002	不用紧咯	-0.1108911
-5.681002	不用紧咯我们讲我们等到两点咯因为我们也没有什么地方去吗	-0.06635585
-5.681002	不用紧哦	-0.1168084
-5.681002	不用紧啦很多	-0.0275214
-5.681002	不用讲咯这样多医院	-0.1159575
-5.681002	不用讲我搬回来不同啦因为我平时在	-0.0275214
-5.203881	不用说	-0.02314743
-5.681002	不用钱喔	-0.06635585
-5.681002	不用钱的	-0.0275214
-5.681002	不由得	-0.1103806
-5.681002	不由自主	-0.1046195
-5.203881	不知	-0.1089072
-5.379972	不知不觉	-0.1061011
-3.109293	不知道	-0.2475408
-5.681002	不知道二月的时候又要去黄埔的哦在中啊	-0.06635585
-5.681002	不知道他讲	-0.06635585
-5.681002	不知道六七天的	-0.0275214
-5.681002	不知道六七岁的时候啊	-0.1118866
-5.681002	不知道几时那时	-0.0275214
-5.681002	不知道到几次才能够	-0.06635585
-5.681002	不知道半年还是三个月我记得好像是	-0.0275214
-5.681002	不知道哦	-0.1162676
-5.681002	不知道啊	-0.1165856
-5.681002	不知道啊我又觉得哎哟	-0.1168084
-5.681002	不知道啦可能是先入为主的那个观念啊好像你讲这样咯	-0.06635585
-5.681002	不知道喔	-0.06635585
-5.681002	不知道多开心啊	-0.1168084
-5.681002	不知道它是	-0.0275214
-5.681002	不知道是二十多	-0.0275214
-5.681002	不知道是因为他们是算	-0.0275214
-5.681002	不知道有没有人愿意跟我换啦因为拜六是不能	-0.0275214
-5.681002	不知道要买什么	-0.0275214
-5.681002	不知道要过几粒山	-0.1168065
-5.681002	不符	-0.1167975
-5.681002	不等	-0.1108911
-5.681002	不简单	-0.06635585
-4.379972	不算	-0.2713498
-5.681002	不算他是	-0.0275214
-5.681002	不算很多	-0.1168084
-4.037549	不管	-0.1714011
-5.681002	不管他	-0.1166309
-5.681002	不管啊什么	-0.0275214
-5.681002	不给你放到在外面这样子的	-0.06635585
-4.72676	不肯	-0.1216692
-3.340558	不能	-0.162285
-4.777912	不能不	-0.5058473
-5.681002	不能不能	-0.0275214
-5.681002	不能不能换	-0.1168084
-5.681002	不能了	-0.06635585
-5.681002	不能了啊没有你拿	-0.1060018
-5.681002	不能了拿那边的	-0.0275214
-5.681002	不能你的手	-0.1060018
-5.681002	不能出去	-0.06635585
-5.681002	不能动到的	-0.06635585
-5.681002	不能去	-0.1168084
-5.681002	不能吃的	-0.06635585
-5.681002	不能啊现在有家庭啊	-0.1168084
-5.681002	不能啊这个东西就是我我给了钱就是我的我就是不要给你	-0.1060018
-5.681002	不能啦	-0.06635585
-5.681002	不能啦不能啦	-0.1168084
-5.681002	不能啦也是会吃人的喔那个鱼	-0.06635585
-5.681002	不能喏	-0.0275214
-5.681002	不能在	-0.0275214
-5.681002	不能完全	-0.0275214
-5.681002	不能就去	-0.0275214
-5.681002	不能忘记呃	-0.06635585
-5.681002	不能拍照的他不给你拍照的	-0.06635585
-5.681002	不能放太久	-0.0275214
-5.681002	不能玩太久	-0.06635585
-5.681002	不能生存他他会	-0.0275214
-5.681002	不能要自己	-0.0275214
-5.681002	不能跟朋友玩除非你买	-0.0275214
-5.681002	不能这样很	-0.0275214
-5.203881	不自在	0.03905361
-5.379972	不至于	-0.1136301
-5.681002	不良	-0.1167993
-4.777912	不行	-0.02788636
-5.078942	不行了	-0.07394017
-5.681002	不行然后最后才叫另外	-0.1060018
-2.93359	不要	-0.2524614
-5.681002	不要不是	-0.0275214
-5.681002	不要不要给他有可能说三天里面	-0.06635585
-5.681002	不要不要讲数学那个	-0.0275214
-5.681002	不要他们应该	-0.0275214
-5.681002	不要冷水啊	-0.06635585
-5.681002	不要出啦我们在家里坐就好了呵	-0.06635585
-5.681002	不要吓我啦	-0.06635585
-5.379972	不要啦	-0.02752029
-5.681002	不要啰	-0.06635585
-5.681002	不要很	-0.0275214
-5.681002	不要想	-0.06635585
-5.681002	不要找	-0.1060018
-5.681002	不要用太多	-0.06635585
-4.283062	不要紧	-0.1053674
-5.681002	不要给人知道	-0.06635585
-5.681002	不要脸	-0.06635585
-5.681002	不要讲	-0.0275214
-5.681002	不要讲你他自己也是很难想像	-0.06635585
-5.681002	不要讲别位	-0.0275214
-5.379972	不要讲啊	0.03531874
-5.681002	不要跌	-0.06635585
-4.136934	不见	-0.2025053
-4.358783	不觉	-1.342191
-5.681002	不觉得	-0.0275214
-5.681002	不觉得很	-0.0275214
-5.681002	不记得了咯	-0.06635585
-5.681002	不许	-0.1167984
-5.379972	不该	-0.1166182
-5.203881	不足	-0.06580542
-3.217109	不过	-0.2219642
-5.681002	不过上次去台湾我是去台北	-0.06635585
-5.681002	不过不是给我们	-0.0275214
-5.681002	不过不用紧我那天只是当着	-0.1060018
-5.681002	不过不知道啦	-0.06635585
-5.681002	不过不过	-0.06635585
-5.681002	不过不过我听说	-0.0275214
-5.681002	不过世界很小啊跟我	-0.1060018
-5.681002	不过中国他说到可能做到的勒	-0.1168084
-5.681002	不过也好啦至少不会沿水不用每次要扫	-0.06635585
-5.681002	不过也是觉得很贵啦	-0.1168084
-5.681002	不过他	-0.0275214
-5.681002	不过他们有些庙	-0.0275214
-5.681002	不过他们讲	-0.0275214
-5.681002	不过他们都没有做尤其之后	-0.06635585
-5.681002	不过他很多东西啊哦	-0.1168075
-5.681002	不过他的	-0.0275214
-5.681002	不过他的环境会很压力啦他讲然后你要	-0.0275214
-5.681002	不过以以	-0.1060018
-5.681002	不过你不可以放	-0.0275214
-5.681002	不过你虽然是讲说我们	-0.0275214
-5.681002	不过你要分到很多罐嘛	-0.06635585
-5.681002	不过你要想	-0.1060018
-5.681002	不过你越南你你驾车越越	-0.0275214
-5.681002	不过假如你买	-0.1060018
-5.681002	不过假如你要讲啊那个整个	-0.0275214
-5.681002	不过其实去到最后你会觉得	-0.0275214
-5.681002	不过其实我们觉得很	-0.0275214
-5.681002	不过其实我觉得我的	-0.0275214
-5.681002	不过凶到要命啊	-0.06635585
-5.681002	不过去又难哦	-0.06635585
-5.681002	不过去年我去台湾有	-0.0275214
-5.681002	不过只是说有时候	-0.06635585
-5.681002	不过可能没有什么去玩啦因为那时候回来的时候我老公开始做工了吗	-0.1168075
-5.681002	不过呢	-0.0275214
-5.681002	不过因为	-0.0275214
-5.681002	不过因为他的他的产品他所含有的营养素那些都跟	-0.0275214
-5.681002	不过因为你要搭火车	-0.1168084
-5.681002	不过多数他会看你看你的选择咯如果你要	-0.0275214
-5.681002	不过太大了哦	-0.06635585
-5.681002	不过太大了啊没有什么时间玩啊	-0.1168084
-5.681002	不过好像假如假如我们我们	-0.0275214
-5.681002	不过如果你是普通人的话这要这不用紧的你是普通人你	-0.06635585
-5.681002	不过如果你有	-0.0275214
-5.681002	不过如果减肥的人他们就要就说当饭吃咯来代餐咯	-0.06635585
-5.681002	不过如果有机会的话我还想要再去啦讲真的	-0.06635585
-5.203881	不过它	-0.4554066
-5.681002	不过它是	-0.0275214
-5.681002	不过它的山的那边好像是	-0.0275214
-5.681002	不过它的那个	-0.1168084
-5.681002	不过它的那个啊	-0.0275214
-5.681002	不过就是不不明白为什么他们那边的猪	-0.1168084
-5.681002	不过就说我不想在在设计行业就说工作所我想转行然后我看到这机会就说有朋友介绍	-0.06635585
-5.379972	不过很	-0.1168075
-5.681002	不过很多时候哦当他喜欢你给他去啊可是	-0.0275214
-5.681002	不过很小间咯	-0.06635585
-5.681002	不过很贵咯	-0.06635585
-5.681002	不过很饱	-0.1060018
-5.681002	不过我	-0.1168084
-5.681002	不过我上次去过那个	-0.0275214
-5.681002	不过我们很早就回家了又没有什么节目嘛然后	-0.0275214
-5.681002	不过我们是	-0.0275214
-5.681002	不过我们没有	-0.0275214
-5.681002	不过我们那时候都蛮幸运	-0.1060018
-5.681002	不过我是想到	-0.0275214
-5.681002	不过我是有听	-0.1168084
-5.681002	不过我是觉得	-0.06635585
-5.681002	不过我没有真正去看到完啦	-0.06635585
-5.681002	不过我没有跟他们联络啦只是	-0.1168084
-5.681002	不过我的	-0.0275214
-5.681002	不过我的那个朋友讲现在是	-0.0275214
-5.681002	不过我老公十八号就做工了哦	-0.1168084
-5.681002	不过我自己也尽量不要拿啦	-0.0275214
-5.681002	不过我自己本身觉得她假如做	-0.0275214
-5.681002	不过我觉得我孩子是没有这样他是很	-0.0275214
-5.681002	不过有时候也是	-0.1060018
-5.681002	不过比较少带他去	-0.0275214
-5.681002	不过没有	-0.0275214
-5.681002	不过没有没有教到很深度	-0.06635585
-5.681002	不过看了脸很凶咯我觉得	-0.06635585
-5.681002	不过真的很好吃	-0.0275214
-5.681002	不过真的很好吃咯它它又不是	-0.0275214
-5.681002	不过要看有没有空	-0.1168084
-5.681002	不过要等我爸爸的话啊他又要等到	-0.0275214
-5.681002	不过讲真啦算是我去这样多个	-0.0275214
-5.681002	不过通常是听到这几个啦	-0.06635585
-5.681002	不过那些就说	-0.06635585
-5.681002	不过那天我听我的老公讲啊哦	-0.06635585
-5.681002	不过那边没有的是写的啦写的只有在那边	-0.0275214
-5.379972	不过问题是	-0.1060008
-5.681002	不过问题是三天两夜有点	-0.0275214
-5.681002	不过问题是你那边	-0.0275214
-5.681002	不过问题是假如你放到太简单的	-0.0275214
-4.835904	不适	-1.064423
-5.681002	不适合不适合	-0.0275214
-5.681002	不通	-0.1165222
-5.681002	不道德	-0.1046195
-3.416184	不错	-0.5404942
-5.681002	不错咯	-0.06635585
-5.681002	不错啊	-0.1168084
-4.982032	不错啦	-0.04988147
-5.681002	不错真的很不错	-0.06635585
-5.681002	不错那个	-0.06635585
-5.681002	不需	-0.0275214
-5.078942	不需要	-0.05866054
-5.681002	不需要做	-0.0275214
-5.681002	不需要去买到这样贵的	-0.0275214
-5.681002	不需要好像以前的时候上班要	-0.0275214
-5.681002	不需要这样长的	-0.06635585
-5.681002	不高也是能	-0.0275214
-5.681002	不高啊	-0.114673
-4.835904	与	-0.3835301
-5.681002	与其	-0.1167848
-5.681002	与日俱增	-0.06635585
-4.72676	丑	0.0161816
-5.681002	丑陋	-0.1046195
-4.601821	专	-0.2880691
-4.72676	专业	-0.2417694
-5.681002	专修	-0.0275214
-5.681002	专卖	-0.0275214
-5.379972	专家	-0.2835142
-5.681002	专属权在美国咯	-0.06635585
-4.902851	专心	-0.3004597
-5.681002	专攻	-0.1060018
-5.681002	专机	-0.116639
-5.379972	专注	-0.1119791
-5.379972	专辑	-0.06510849
-4.567059	专门	-0.1373512
-5.681002	专门帮他们写那些	-0.0275214
-5.681002	专门收这些坏的	-0.0275214
-4.982032	世	-0.02245952
-5.681002	世上	-0.1165648
-4.057753	世界	-0.05758992
-5.078942	世界上	-0.1133957
-5.681002	世界这样了	-0.1168084
-5.203881	业	-0.1045767
-5.681002	丛	-0.1163691
-4.504911	东	0.03599802
-5.681002	东京	-0.1046195
-5.681002	东南	-0.1168084
-5.379972	东南亚	-0.1045981
-2.401563	东西	-0.5427185
-5.681002	东西不	-0.1168084
-5.681002	东西会比较便宜啦	-0.06635585
-5.681002	东西可以改	-0.1060018
-5.681002	东西就是就是我们	-0.0275214
-5.681002	东西很好吃	-0.1060018
-5.681002	东西我就想到说	-0.0275214
-5.681002	东西拿到完啊拿到	-0.0275214
-5.681002	东西时	-0.1060018
-5.681002	东西来	-0.0275214
-5.681002	东西然后做到全世界去	-0.06635585
-5.379972	东西的	-0.3223487
-5.681002	东西的时候	-0.06635585
-5.681002	东西给它	-0.0275214
-5.681002	东西罢了	-0.06635585
-5.681002	东西要做比较方便太多东西要	-0.0275214
-5.681002	东西贵到很贵咯香港	-0.06635585
-5.681002	东西都是不可以这样子	-0.06635585
-5.681002	东边	-0.1046195
-4.982032	丝	-0.4746124
-5.681002	丞	-0.1168047
-3.794512	丢	-0.1847618
-5.379972	丢下	-0.109215
-4.777912	丢掉	-0.06768276
-4.902851	丢脸	-0.1104046
-4.601821	丢进	-0.1255837
-3.257756	两	-0.5144498
-5.681002	两三百架这样咯比较少因为	-0.0275214
-5.681002	两三秒	-0.06635585
-3.033619	两个	-0.364356
-5.681002	两个两个也穿	-0.0275214
-5.681002	两个人在那里	-0.06635585
-5.681002	两个人就差不多	-0.06635585
-5.681002	两个人的话就	-0.0275214
-5.681002	两个参起来应该是会有东西咯	-0.06635585
-5.681002	两个地方罢了	-0.06635585
-5.681002	两个多月的	-0.0275214
-5.681002	两个家庭兼顾的咯跟事业很难咯	-0.1168084
-5.681002	两个小孩子又怕到在	-0.0275214
-5.681002	两个就够了	-0.1168084
-5.681002	两个月你就跑掉了这样子啊如果别的你你以后别的啊	-0.06635585
-5.681002	两个月你就跑走	-0.0275214
-5.681002	两个月你知道吗	-0.06635585
-5.681002	两个月大概是两个月这样的	-0.0275214
-5.681002	两个月已经三个月没有三个星期已经学	-0.0275214
-5.681002	两个月怎么样过啊很难咯	-0.06635585
-5.681002	两个月这样就可以	-0.0275214
-5.681002	两个罢	-0.06635585
-5.681002	两个罢了	-0.1168084
-5.681002	两个老师这样子就是啦他讲也是不能	-0.06635585
-5.681002	两个这样咯知道我们有其中	-0.1060018
-5.681002	两个都去不过没有完全玩到完	-0.06635585
-5.681002	两个都有	-0.06635585
-5.681002	两个都有就	-0.0275214
-5.681002	两个钟	-0.1168084
-5.681002	两个钟就可以了	-0.06635585
-5.681002	两几个罢了	-0.06635585
-4.982032	两分	-0.1116012
-4.777912	两千	-0.06821972
-5.681002	两千三	-0.06635585
-5.203881	两千多	0.03532004
-5.681002	两千多也是有啦只是	-0.0275214
-5.203881	两回事	-0.5325047
-4.681002	两天	-0.1013227
-5.681002	两天她会帮你做好	-0.1060018
-5.681002	两天就会好	-0.1060018
-5.681002	两天星期	-0.1060018
-5.681002	两天最好是不要冲凉	-0.06635585
-5.681002	两天这样罢了	-0.06635585
-5.681002	两套这样罢了	-0.06635585
-3.895673	两年	-0.1226034
-5.681002	两年之内勒	-0.1168084
-5.681002	两年又四个月啊	-0.1168075
-5.681002	两年四个月	-0.1168075
-5.681002	两年就像好像我们的	-0.0275214
-5.681002	两年毕业都有	-0.1060018
-5.681002	两年的	-0.0275214
-5.681002	两年直接	-0.0275214
-5.681002	两年过后才跑	-0.1168084
-5.681002	两年这样	-0.06635585
-5.681002	两张	-0.0275214
-5.681002	两旁	-0.06635585
-5.681002	两架	-0.0275214
-4.902851	两样	-0.1656391
-4.1247	两次	-0.2655706
-5.681002	两次了	-0.06635585
-5.681002	两次罢了	-0.1168084
-5.681002	两汤匙	-0.1060018
-5.379972	两点	-0.02752029
-5.681002	两点过后	-0.1137249
-4.982032	两百	-0.1163809
-5.681002	两百人扣掉过后	-0.0275214
-5.681002	两百人要扣掉	-0.06635585
-5.681002	两百块	-0.0275214
-5.681002	两百多	-0.0275214
-4.835904	两种	-0.2486544
-5.379972	两组	-0.1059999
-5.681002	两辆车	-0.1167839
-4.835904	两边	-0.01889119
-5.681002	两边都	-0.1060018
-5.681002	两那个两个	-0.0275214
-5.379972	两部戏	-0.115224
-5.203881	两面	-0.1012454
-5.078942	严	-0.08716931
-5.379972	严格	-0.1153993
-5.379972	严肃	-0.09751555
-4.249639	严重	-0.2848532
-5.379972	严重性	-0.1084377
-2.065684	个	-0.4633721
-5.681002	个三三角形的	-0.0275214
-5.681002	个上市公司的老板上面的	-0.0275214
-5.681002	个不	-0.1060018
-5.681002	个不少的数目	-0.06635585
-5.681002	个不明白哦	-0.06635585
-5.681002	个不是说	-0.0275214
-5.681002	个不知道是那个是叫海海不知道也不知道是叫什么动物来的啦	-0.06635585
-5.681002	个世界啦	-0.1168084
-5.681002	个世界的某	-0.1060018
-5.379972	个东西	-0.05419818
-5.681002	个东西不好的呱	-0.06635585
-5.681002	个东西会看我们开他	-0.0275214
-5.681002	个东西你你有好的东西啊你	-0.1060018
-5.681002	个东西又不完哦还有第二天还要回去	-0.1060018
-5.681002	个东西咯	-0.06635585
-5.681002	个东西啊他们可能叫做	-0.0275214
-5.681002	个东西就是讲说啊你的	-0.0275214
-5.681002	个东西慢慢这样教你	-0.06635585
-5.681002	个东西我们的	-0.0275214
-5.681002	个东西是来	-0.0275214
-5.681002	个东西的感觉上啦她很喜欢到处跑她比我	-0.0275214
-5.203881	个个	-0.1123488
-5.681002	个个便宜了吗	-0.06635585
-5.681002	个中	-0.1167214
-5.681002	个中间人就是	-0.0275214
-5.681002	个主要的	-0.0275214
-5.681002	个之职业	-0.0275214
-5.681002	个也也没有吃了没有的吃了	-0.06635585
-5.681002	个也是来自	-0.0275214
-5.681002	个也有	-0.1060018
-5.379972	个书	0.03531874
-5.681002	个书啊啊	-0.0275214
-5.681002	个二十块给他他拿了还你就是	-0.06635585
-5.681002	个产品	-0.06635585
-5.681002	个产品比如讲	-0.0275214
-3.373506	个人	-0.07740858
-5.681002	个人七组七组	-0.06635585
-5.681002	个人不能做到全部的	-0.0275214
-5.681002	个人也是可以不过如果你要你要以连串的方式	-0.06635585
-5.681002	个人会代表	-0.0275214
-5.681002	个人做	-0.06635585
-5.681002	个人去罢了啦	-0.06635585
-5.681002	个人可以	-0.06635585
-5.681002	个人吗又没有家没有家人管所以要几点醒都不用紧的	-0.06635585
-5.681002	个人咯	-0.06635585
-5.681002	个人啊给我们他的	-0.0275214
-5.681002	个人啦	-0.06635585
-5.681002	个人啦个人我觉得就说会蛮浪费时	-0.06635585
-5.681002	个人啦他们上到去	-0.0275214
-5.379972	个人在那边	-0.06615957
-5.681002	个人处于在不是很健康的家庭的话他以后出来还是他心里方面啊都会有	-0.1060018
-5.681002	个人大致上是三千多块这样咯	-0.06635585
-5.681002	个人头出来	-0.06635585
-5.681002	个人它都能	-0.0275214
-5.681002	个人对	-0.06635585
-5.681002	个人就不能去啊	-0.0275214
-5.681002	个人就代表啊私人的	-0.1060018
-5.681002	个人就会代表	-0.1155573
-5.681002	个人就会代表啊	-0.0275214
-5.681002	个人就告诉我是异族他们就告诉我你知道吗在马来人的名字里面有	-0.1060018
-5.681002	个人应该啰所以啰	-0.06635585
-5.681002	个人拿那个	-0.06635585
-5.681002	个人是	-0.0275214
-5.681002	个人是读书的料子嘛	-0.06635585
-5.681002	个人的想法都是杜绝贪污我被警察	-0.0275214
-5.681002	个人的成功啊可能说	-0.0275214
-5.681002	个人的话他就给你四分之	-0.1060018
-5.681002	个人示范咯	-0.06635585
-5.681002	个人罢了	-0.06635585
-5.681002	个人罢了啦	-0.06635585
-5.681002	个人要啊弹	-0.0275214
-5.681002	个人要差不多四十到五十个	-0.0275214
-5.681002	个人要应付啊整十个人这样	-0.0275214
-5.681002	个人要真正学啊	-0.0275214
-5.681002	个人进	-0.0275214
-5.681002	个人通常他们啊	-0.06635585
-5.681002	个人都以身作者的话当然是不会有这样的事情是啊	-0.06635585
-5.681002	个人都是希望有自己的家人嘛有自己家人的爱嘛	-0.06635585
-5.681002	个人都有戴	-0.1060018
-5.681002	个人都要	-0.1060018
-5.681002	个人都需要拿	-0.06635585
-5.379972	个什么	-0.2835142
-5.681002	个他	-0.0275214
-5.681002	个他们	-0.06635585
-5.681002	个他们的咖啡太热	-0.0275214
-5.681002	个他是	-0.0275214
-5.681002	个他是做	-0.0275214
-5.681002	个他是在现在想要	-0.0275214
-5.681002	个他有	-0.1060018
-5.681002	个会使我们的	-0.0275214
-5.681002	个会有	-0.1060018
-5.681002	个会让我们的身体啊	-0.06635585
-5.681002	个会赢啦	-0.06635585
-5.681002	个位	-0.1163238
-5.681002	个位可是	-0.0275214
-5.681002	个位啊那些卖不出的啊那个便宜	-0.0275214
-5.681002	个你也是可以	-0.1060018
-5.681002	个你会	-0.0275214
-5.681002	个你开	-0.1060018
-5.681002	个你的	-0.0275214
-5.681002	个你看	-0.1060018
-5.681002	个例例子了	-0.06635585
-5.681002	个做	-0.0275214
-5.681002	个健康的人咯	-0.06635585
-5.681002	个先决条件就是说你的	-0.06635585
-5.681002	个全世界每	-0.1060018
-5.681002	个全体照	-0.06635585
-5.379972	个公司	-0.2835142
-5.681002	个公司会给啊	-0.1060018
-5.681002	个公司做的	-0.06635585
-5.681002	个公司卖去啊	-0.1168084
-5.681002	个公司是目前它的	-0.0275214
-5.681002	个公司的	-0.0275214
-5.681002	个公司这样卖	-0.06635585
-5.681002	个六十块	-0.1060018
-5.681002	个几百块的东西坏了但是里面的东西还是能用的我们当然是要拿回去的吗	-0.06635585
-5.681002	个刀	-0.06635585
-5.681002	个刚刚转过来跟我们同	-0.1060018
-5.681002	个到底	-0.0275214
-5.681002	个剪刀	-0.1167984
-5.681002	个副队长	-0.1168084
-5.681002	个区呢是	-0.06635585
-5.681002	个区是冒险的	-0.06635585
-5.681002	个医生	-0.0275214
-5.681002	个医院	-0.0275214
-5.681002	个十块	-0.06635585
-5.681002	个十字路口	-0.0275214
-5.681002	个原因是因为家族的关系啦	-0.1132095
-5.078942	个去	-0.5527235
-5.681002	个去做	-0.0275214
-5.681002	个又去另	-0.1060018
-5.681002	个另	-0.1060018
-5.203881	个另外	-0.533887
-5.681002	个只是	-0.0275214
-5.681002	个只是全部换去	-0.0275214
-5.681002	个只有看书的人大概会会华语就可以写词了啊谁都可以写	-0.06635585
-5.379972	个叫	-0.0142089
-5.681002	个叫什么名啊	-0.06635585
-5.681002	个叫明王的另外	-0.1060018
-5.681002	个可以卖几	-0.0275214
-5.681002	个同事有讲过	-0.1168056
-5.203881	个咯	-0.4942411
-5.681002	个咯然后还有	-0.1060018
-5.681002	个哎有两个有两个全部有五个	-0.06635585
-5.681002	个哪	-0.1060018
-5.681002	个哪哪	-0.1060018
-4.534874	个啊	-0.7866759
-5.681002	个啊他们之前他们	-0.0275214
-5.681002	个啊他是	-0.0275214
-5.681002	个啊他的那个	-0.06635585
-5.681002	个啊啊手啊还是什么我们有	-0.0275214
-5.681002	个啊大的	-0.0275214
-5.681002	个啊好像	-0.0275214
-5.681002	个啊对就算现在我们所所我所谓的新新加坡新加坡的	-0.0275214
-5.681002	个啊我的以前应该是我的爸买的	-0.06635585
-5.681002	个啊是	-0.06635585
-5.681002	个啊普通人这样	-0.06635585
-5.681002	个啦因为我	-0.0275214
-5.681002	个嘛	-0.0275214
-5.681002	个四个区啊四个地区咯	-0.06635585
-5.681002	个因为之前我老公的朋友有去过吗了他讲那个	-0.0275214
-5.681002	个因为他有几种方式上	-0.0275214
-5.681002	个因为我们要去那个	-0.0275214
-5.681002	个国家	-0.0275214
-5.681002	个国家是吗	-0.06635585
-5.681002	个国家是否应该撤除这个死刑的这个惩罚	-0.06635585
-5.681002	个国家里面的华人的生活之类的	-0.06635585
-5.681002	个图画啦你就大约大约猜这样咯	-0.06635585
-5.078942	个在	-0.3032349
-5.681002	个在右吗	-0.1167359
-5.681002	个在左	-0.1060018
-5.681002	个在是	-0.1060018
-5.681002	个在槟城然后十	-0.1060018
-5.681002	个在读书罢了我弟弟也是在做工全部都是做工了	-0.06635585
-5.681002	个在那边做在那边	-0.0275214
-5.681002	个在里面	-0.1168084
-4.982032	个地方	-0.1694889
-5.681002	个地方出现就出现那	-0.1060018
-5.681002	个地方和另	-0.1060018
-5.681002	个地方咯第二天我们就好像去那个	-0.0275214
-5.681002	个地方啦	-0.1168084
-5.681002	个地方就不可以啊	-0.06635585
-5.681002	个地方的咯	-0.06635585
-5.681002	个地方的时候	-0.06635585
-5.681002	个地方要控制他自己那个霸气然后还有那种	-0.06635585
-5.681002	个坏	-0.1168084
-5.681002	个坏人抓了他	-0.06635585
-5.681002	个城市啊	-0.0275214
-5.681002	个基础给他们先	-0.1137577
-5.681002	个基础给他们那个	-0.0275214
-5.681002	个声音咯	-0.06635585
-5.681002	个大概二十五块这样	-0.06635585
-5.681002	个女孩子	-0.1165666
-5.681002	个女孩子的	-0.1168056
-5.681002	个女生住着在里面还没有	-0.0275214
-5.203881	个好像	0.05074104
-5.681002	个好像啊	-0.0275214
-5.681002	个好像奶昔这样子的	-0.0275214
-5.681002	个好像如果你从你	-0.0275214
-5.681002	个好像很难得到的人才啊	-0.1168084
-5.379972	个好像是	-0.2835142
-5.681002	个好像是叫	-0.0275214
-5.681002	个好听然后去	-0.0275214
-5.379972	个好的	-0.2835142
-5.681002	个好稳定的工作	-0.0275214
-5.681002	个好象	-0.1167604
-5.681002	个字叫做	-0.06635585
-5.681002	个学多	-0.1060018
-5.681002	个学生还是	-0.0275214
-5.681002	个孩子	-0.06635585
-5.681002	个它有分成大概两三种	-0.06635585
-5.379972	个完整的	0.03531874
-5.681002	个定论讲要多少个	-0.0275214
-5.681002	个封面他前面的第	-0.1060018
-5.681002	个小儿子了	-0.1168084
-5.681002	个小小的	-0.0275214
-5.681002	个小小的熊猫动物园	-0.06635585
-5.681002	个小小粒东西代替	-0.1060018
-5.681002	个小时你去找那种做在那边听电话得人	-0.06635585
-5.681002	个小时多啊我们就可以从	-0.0275214
-5.681002	个小时多罢了	-0.06635585
-5.681002	个小时里面	-0.1168084
-5.681002	个小洞这样	-0.1119205
-5.681002	个就不用	-0.06635585
-5.681002	个就不知道叫什么名了哦	-0.06635585
-5.681002	个就他	-0.0275214
-5.203881	个就是	-0.4554066
-5.681002	个就是代表政府的	-0.06635585
-5.681002	个就是你考完	-0.0275214
-5.681002	个就是因为我们有	-0.0275214
-5.681002	个就是坐巴士	-0.1060018
-5.681002	个就是太容易了	-0.06635585
-5.681002	个就是我们的	-0.0275214
-5.681002	个就是给你看到日子咯	-0.06635585
-5.681002	个就是给你看到时间	-0.1060018
-5.681002	个就是要你跟朋友	-0.1060018
-5.681002	个就是说有最基本还是有那个正确的知识咯	-0.06635585
-5.681002	个就是那个	-0.06635585
-5.681002	个就是那个叫嗯那个	-0.0275214
-5.681002	个山哈	-0.0275214
-5.681002	个岛或者另外	-0.1060018
-5.681002	个州	-0.1060018
-5.681002	个工厂	-0.1167712
-5.681002	个工咯	-0.06635585
-5.681002	个已经是已经	-0.0275214
-5.681002	个布这样遮着遮着	-0.06635585
-5.681002	个年龄的时候	-0.0275214
-5.681002	个底哦	-0.0275214
-5.681002	个店啦	-0.06635585
-5.681002	个弟弟	-0.1168084
-5.379972	个很	-0.2835142
-5.681002	个很不方便的真的	-0.06635585
-5.681002	个很可惜的东西咯	-0.1168075
-5.379972	个很大的	-0.2835142
-5.681002	个很大的不同点	-0.06635585
-5.681002	个很大的问题	-0.1165947
-5.681002	个很好很	-0.0275214
-5.681002	个很好机会就说学多	-0.1060018
-5.681002	个很好的	-0.0275214
-5.681002	个很好的机会	-0.06635585
-5.681002	个很好的机会给我们去	-0.0275214
-5.681002	个很很热的速度来去烧那个铁	-0.06635585
-5.681002	个很重要的东西人家不能啊	-0.0275214
-5.681002	个很重要的啊	-0.0275214
-5.379972	个性	-0.0661087
-5.681002	个想	-0.1060018
-5.681002	个想法罢了	-0.06635585
-5.681002	个慢慢来	-0.06635585
-5.379972	个我	-0.2835142
-5.681002	个我们是从	-0.0275214
-5.681002	个我们的	-0.0275214
-5.681002	个我就不大清楚是什么了	-0.1168029
-5.681002	个我忘记去了是什么	-0.06635585
-5.681002	个我的	-0.0275214
-5.681002	个我要读的咯因为我的家的	-0.0275214
-5.681002	个我跌它跌倒那个	-0.0275214
-5.681002	个房间然后三我们三个听到很大的声音	-0.0275214
-5.681002	个手表的	-0.06635585
-5.681002	个打算先	-0.06635585
-5.681002	个找出来	-0.1060018
-5.681002	个推	-0.1168084
-5.681002	个推动力啦	-0.06635585
-5.681002	个摩哆就到处乱跑这样罢了	-0.06635585
-5.681002	个放咯	-0.06635585
-5.681002	个故是我很喜欢你叫我	-0.1060018
-5.681002	个新加坡朋友然后过后就飞回来了	-0.06635585
-5.681002	个新家只是他买几年前买的啦然后到现在没有去住过	-0.06635585
-4.902851	个新的	-0.4894383
-5.681002	个新的了	-0.06635585
-5.681002	个新的看	-0.06635585
-5.681002	个新的给他当然他旧的要还给我们	-0.1060018
-5.681002	个新起好	-0.06635585
-5.681002	个方向走啊	-0.0275214
-5.681002	个方法	-0.06635585
-5.379972	个方法就是	0.03531874
-5.681002	个方面	-0.06635585
-5.681002	个旅行团来带你们去	-0.1168029
-5.681002	个时间	-0.0275214
-5.681002	个时间会逗留在马六甲带我孩子去	-0.1168084
-5.681002	个时间你跑两边两个都很好	-0.06635585
-5.681002	个明白所以他很	-0.0275214
-5.681002	个明确的	-0.0275214
-5.681002	个星期五十点半到十	-0.1060018
-5.681002	个星期做五天	-0.06635585
-5.681002	个星期去的	-0.06635585
-5.681002	个星期啊去走走啊看他们的生活啊记录下来	-0.06635585
-5.681002	个星期啦你做工	-0.0275214
-5.681002	个星期它放	-0.1060018
-5.681002	个星期它放另外	-0.1060018
-5.681002	个星期放	-0.1060018
-5.681002	个星期是吗好象是	-0.0275214
-5.681002	个星期是啊放假	-0.0275214
-5.681002	个星期温习咯	-0.06635585
-5.681002	个星期的时候就	-0.0275214
-5.681002	个星期给我们啊	-0.0275214
-4.175852	个是	-0.9399334
-5.681002	个是三百多千	-0.1060018
-5.681002	个是不用讲话	-0.1060018
-5.681002	个是不要给钱罢了	-0.06635585
-5.681002	个是两千多	-0.1168084
-5.681002	个是五百多千	-0.06635585
-5.681002	个是什么了哈	-0.1168084
-5.681002	个是什么去了好像是	-0.0275214
-5.681002	个是他十五个	-0.0275214
-5.681002	个是以前以前很久现在他们	-0.06635585
-5.681002	个是会比较大	-0.0275214
-5.681002	个是你的	-0.0275214
-5.379972	个是做	-0.2835142
-5.681002	个是做这个	-0.0275214
-5.681002	个是关于好像	-0.0275214
-5.681002	个是几时吃的	-0.06635585
-5.681002	个是前天接到的啦他是比较怎样讲	-0.0275214
-5.681002	个是去	-0.0275214
-5.681002	个是参参的	-0.0275214
-5.681002	个是叫	-0.0275214
-5.681002	个是哦	-0.0275214
-5.203881	个是啊	-0.4554066
-5.681002	个是啊没有学过	-0.0275214
-5.681002	个是因为我朋友	-0.1060018
-4.902851	个是在	-0.7109622
-5.681002	个是在槟城	-0.1060018
-5.681002	个是坐	-0.0275214
-5.681002	个是城市这样的咯	-0.0275214
-5.681002	个是好像没有错的话只有有	-0.1060018
-5.681002	个是我们皮肤病皮肤有	-0.1060018
-5.681002	个是我刚才讲的	-0.0275214
-5.681002	个是新人咯刚刚	-0.0275214
-5.681002	个是普通的	-0.0275214
-5.681002	个是有	-0.0275214
-5.681002	个是真的是很	-0.0275214
-5.681002	个是给	-0.0275214
-5.681002	个是要给钱咯	-0.1060018
-5.681002	个是跟我同	-0.0275214
-5.681002	个是那个咯	-0.06635585
-5.681002	个普通的啊	-0.0275214
-5.681002	个普通的市民来讲我觉得	-0.06635585
-5.681002	个更大过山车没有玩到呵呵呵	-0.06635585
-5.681002	个最	-0.0275214
-5.681002	个最懒的那	-0.1060018
-5.078942	个月	-0.2702017
-5.681002	个月三千块的薪水你要他去对抗	-0.1060018
-5.681002	个月两个月吧	-0.1168084
-5.681002	个月他在那边	-0.0275214
-5.681002	个月半到两个月咯	-0.1168084
-5.681002	个月可能继续几次去看戏咯去戏院看咯	-0.06635585
-5.681002	个月啦	-0.06635585
-5.681002	个月噢	-0.06635585
-5.681002	个月在想啰	-0.1060018
-5.681002	个月多这样学	-0.0275214
-5.681002	个月就有两千五嘛	-0.06635585
-5.681002	个月想要做什么工啰	-0.06635585
-5.681002	个月是多少钱啦	-0.06635585
-5.681002	个月没有到三十块	-0.06635585
-5.681002	个月的薪水买	-0.1060018
-5.681002	个月的薪水哦可能只是	-0.1060018
-5.681002	个月的话对我来说真的不够	-0.06635585
-5.681002	个月要三百块	-0.1168084
-5.681002	个月还有	-0.1060018
-5.681002	个月都都	-0.0275214
-5.379972	个有	-0.3619946
-5.681002	个有钱人罢了	-0.06635585
-5.681002	个朋友他也是读	-0.0275214
-5.681002	个朋友他去买	-0.06635585
-5.681002	个朋友做	-0.0275214
-5.681002	个朋友现在在那边做工	-0.1168084
-5.681002	个朋友要卖他的	-0.0275214
-5.681002	个期限哦	-0.0275214
-5.681002	个来做	-0.06635585
-5.681002	个板应该是三四百块	-0.06635585
-5.681002	个桶这样的	-0.0275214
-5.681002	个植物里面有五十个	-0.06635585
-5.681002	个楼	-0.06635585
-5.681002	个概念大概知道	-0.0275214
-5.681002	个槟城朋友在这边有	-0.1060018
-5.681002	个橙色你有看过吗我也是在	-0.0275214
-5.681002	个母亲啊	-0.06635585
-5.681002	个每	-0.1060018
-5.681002	个每个人有	-0.1060018
-5.681002	个比喻	-0.06635585
-5.681002	个比如讲	-0.0275214
-5.681002	个比赛是怎样去	-0.0275214
-5.379972	个比较	-0.2835142
-5.681002	个比较新的	-0.0275214
-5.681002	个气这样咯	-0.1165666
-5.681002	个没有两个两个星期是	-0.0275214
-5.681002	个没有他就是他的母亲没有死	-0.06635585
-5.681002	个没有在他船上面的	-0.1168084
-5.681002	个洞	-0.06635585
-5.681002	个海盗船的人	-0.1168065
-5.681002	个海边是很多	-0.0275214
-5.681002	个演唱会	-0.1137577
-5.681002	个然后他们	-0.0275214
-5.681002	个然后看它的	-0.0275214
-5.681002	个照片就是说	-0.06635585
-5.681002	个特别	-0.1060018
-5.681002	个玉材很	-0.0275214
-5.681002	个环境做	-0.0275214
-5.681002	个电脑卖代	-0.1060018
-5.681002	个电脑这样	-0.06635585
-5.681002	个电话哦	-0.0275214
-5.681002	个男生	-0.06635585
-5.681002	个男的	-0.0275214
-5.681002	个百多岁的做朋友啊	-0.06635585
-5.681002	个的	-0.0275214
-5.681002	个的不同	-0.0275214
-5.681002	个的时候我看到很闷	-0.06635585
-5.681002	个的比较特别电话你会比较精神比较不同去	-0.06635585
-5.681002	个目标啊	-0.1168075
-5.681002	个看	-0.1168084
-5.379972	个礼拜	-0.05419818
-5.681002	个礼拜做差不多三天半到四天这样	-0.06635585
-5.681002	个礼拜像来做	-0.1060018
-5.681002	个礼拜才可能几架	-0.0275214
-5.681002	个礼拜打	-0.1060018
-5.681002	个礼拜时间	-0.06635585
-5.681002	个礼拜这样咯	-0.06635585
-5.681002	个答案可能就扣	-0.1060018
-5.379972	个罢了	-0.05419818
-5.681002	个罢了也是	-0.0275214
-5.681002	个罢了啊就是	-0.0275214
-5.681002	个罢了啦	-0.0275214
-5.681002	个罢了的	-0.1137842
-5.681002	个老师学的	-0.06635585
-5.681002	个老师教我学钢琴咯	-0.06635585
-5.681002	个老板是	-0.0275214
-5.681002	个老板顶着他啊	-0.06635585
-5.681002	个考过	-0.1060018
-5.681002	个能读到这样高	-0.06635585
-5.681002	个自己名字你可以使用	-0.0275214
-5.681002	个花啊	-0.06635585
-5.681002	个药材很好	-0.06635585
-5.681002	个营养俱乐部就说	-0.0275214
-5.681002	个营养师啦我跟你介绍那产品啦	-0.06635585
-5.681002	个营养师连你连你是营养师你也介绍你也认同这产品了	-0.06635585
-5.681002	个营养餐来营养它就是	-0.0275214
-5.379972	个薪水高过我	0.03531874
-5.681002	个蛮不错的	-0.0275214
-5.681002	个蛮大间	-0.1060018
-5.681002	个蛮高的	-0.1168065
-5.681002	个补助就说你这餐里面你吃不到的营养	-0.06635585
-5.681002	个表弟啊	-0.06635585
-5.681002	个要讲话的	-0.1137249
-5.681002	个角落了咯	-0.1167749
-5.681002	个记录就去到当地走就像去到日本找日本那边的华人	-0.06635585
-5.681002	个证书这样子	-0.06635585
-5.681002	个诶没有事这样	-0.1168084
-5.681002	个负担在里面	-0.06635585
-5.681002	个货	-0.0275214
-5.681002	个跟他买这样子啦	-0.06635585
-5.379972	个这样	0.03531874
-5.681002	个道理喔	-0.06635585
-5.681002	个那	-0.1060018
-5.078942	个那个	-0.5527235
-5.681002	个那个他有啊他有叫你围着	-0.0275214
-5.681002	个那个刀的形状了他们就会	-0.0275214
-5.681002	个那个瀑布	-0.0275214
-5.681002	个那个路过的人啊	-0.1168084
-5.681002	个那个那个	-0.0275214
-5.681002	个那种	-0.0275214
-5.681002	个部分是看它的	-0.0275214
-5.681002	个部分是看那个	-0.0275214
-5.681002	个都有每	-0.1060018
-5.681002	个针	-0.0275214
-5.681002	个针来的其实	-0.06635585
-5.681002	个钟头四十五分钟是吗大概这样	-0.06635585
-5.681002	个钢琴给他女儿学吗	-0.06635585
-5.681002	个铁啊	-0.1060018
-5.681002	个铁板面你加	-0.1060018
-5.681002	个错误的示范咯还是不要咯就是给我自己啊好像	-0.0275214
-5.681002	个长的	-0.0275214
-5.379972	个问题	-0.3223487
-5.681002	个问题了要	-0.0275214
-5.681002	个问题他们很多伐木是	-0.06635585
-5.681002	个问题另外	-0.1060018
-5.681002	个问题呃	-0.06635585
-5.379972	个问题哦	-0.06395569
-5.681002	个问题啦	-0.06635585
-5.681002	个问题嘛	-0.06635585
-5.681002	个问题在里面	-0.06635585
-5.681002	个问题就是	-0.06635585
-5.681002	个问题就是啊	-0.0275214
-5.681002	个问题就是讲	-0.0275214
-5.681002	个问题就是讲自己的生意嘛所以他们比较忙	-0.1060018
-5.681002	个问题就是还有很多	-0.0275214
-5.681002	个问题很多东西都要读	-0.06635585
-5.681002	个问题是	-0.06635585
-5.681002	个问题来讲我不能	-0.0275214
-5.681002	个问题的他要赚钱的问题就不能了	-0.06635585
-5.681002	个需台	-0.06635585
-5.681002	个霸气出现	-0.1168084
-5.681002	个非常啊保守跟很厉害讲话的人他就告诉我说	-0.06635585
-5.681002	个面	-0.1060018
-5.681002	个题目可能很多答案啊	-0.06635585
-5.681002	个饭加鸡鸡肉四块半你在	-0.0275214
-5.681002	个马来人的	-0.06635585
-3.848493	中	-0.1141356
-5.681002	中中中国会比较	-0.0275214
-5.681002	中了	-0.1060018
-5.681002	中了就很麻烦了他会	-0.1060018
-5.379972	中介	-0.1029694
-5.203881	中共	-0.1118894
-5.681002	中到四点呵	-0.06635585
-5.203881	中午	-0.09331027
-5.681002	中午十二点到九点	-0.1168075
-5.681002	中午十二点到晚上九点	-0.06635585
-5.681002	中午班这样	-0.06635585
-5.379972	中华	-0.2835142
-3.874822	中国	-0.1538164
-4.42573	中国人	-0.2002708
-5.681002	中国他们那那边拼他们做工真的很压力啦	-0.06635585
-5.681002	中国哪里啊	-0.06635585
-5.681002	中国啊下到那个	-0.0275214
-5.203881	中国大陆	-0.1044612
-5.681002	中国死了忘记了	-0.1168084
-5.681002	中国的那个	-0.0275214
-3.794512	中学	-0.2768683
-5.203881	中学生	-0.1158985
-5.681002	中学的时候搞活动在森林里面走那种	-0.0275214
-5.681002	中学的时候有看现在没有看很久了	-0.06635585
-5.681002	中年人	-0.1099035
-5.203881	中心	-0.1066398
-5.681002	中性	-0.1046195
-4.476882	中文	-0.3648796
-5.681002	中文学	-0.1139182
-5.681002	中校	-0.0275214
-5.681002	中毒	-0.06635585
-4.777912	中的	-0.1324022
-4.902851	中秋节	-0.2813122
-5.681002	中蛮大的打击啦	-0.06635585
-5.681002	中途	-0.1162204
-5.078942	中部	-0.2229414
-4.089938	中间	-0.0365859
-5.681002	中间人	-0.1099035
-4.835904	中餐	-0.03764976
-5.681002	丰	-0.1139163
-4.982032	丰富	-0.0427255
-4.902851	串	-0.08217794
-5.681002	串串起来就是给你	-0.1060018
-5.681002	串的啦	-0.06635585
-5.203881	临时	-0.02751362
-5.681002	临门	-0.1099035
-5.681002	丹	-0.1159801
-4.057753	为	-0.02362782
-5.379972	为主	-0.1165729
-3.842153	为了	-0.1530791
-5.681002	为了就是收集整套他们是买完整套	-0.1168075
-3.179943	为什么	-0.3672826
-5.681002	为什么什么意思叫	-0.0275214
-5.681002	为什么什么政府买	-0.0275214
-5.681002	为什么他们就	-0.0275214
-5.681002	为什么他们要换	-0.1168084
-5.681002	为什么会做那个做会	-0.0275214
-5.681002	为什么你会这样少	-0.06635585
-5.681002	为什么呢	-0.1132095
-5.681002	为什么我们这个	-0.0275214
-5.681002	为什么有为什么我讲有啊这个	-0.0275214
-5.681002	为什么要要叫你去	-0.06635585
-5.681002	为什么要读	-0.0275214
-5.681002	为什么那时我没有做	-0.0275214
-5.681002	为何	-0.1103806
-4.777912	为止	0.0137264
-5.681002	为此	-0.114673
-5.681002	为生	-0.1151522
-5.681002	为难	-0.1103806
-5.078942	主	-0.06082087
-4.982032	主人	-0.1076312
-5.681002	主任	-0.1168065
-5.203881	主办	-0.09879793
-5.203881	主动	-0.02226373
-5.681002	主妇	-0.116793
-5.681002	主席	-0.06635585
-5.681002	主意	-0.0275214
-5.681002	主持	-0.06635585
-5.681002	主持人	-0.1143126
-5.681002	主编	-0.06635585
-4.266029	主要	-0.1822831
-5.681002	主要也是	-0.0275214
-5.681002	主要也是看有什么	-0.0275214
-5.681002	主要你是	-0.0275214
-5.681002	主要创作坊是鼓励那些要写歌创作就把自己的想法写有	-0.1060018
-5.681002	主要啦	-0.06635585
-4.72676	主要是	-0.1522837
-5.681002	主要是在	-0.0275214
-5.681002	主要是带我们去完啰哈因为大家去那边浮潜全部不用不用	-0.06635585
-5.681002	主要是这样咯	-0.1160917
-5.681002	主要的是我们只能看到	-0.0275214
-5.681002	主要这个	-0.0275214
-5.681002	主要问题	-0.1111517
-5.681002	主见	-0.1158341
-4.63961	主角	-0.1226863
-5.203881	主题	-0.1058078
-4.63961	丽	-1.156993
-5.203881	举	-0.2577073
-5.681002	举两得然后那边其实没有什么啦就只是看	-0.0275214
-4.450553	举办	-0.4335455
-4.777912	举手	0.02343927
-5.681002	举止	-0.1161053
-5.203881	举行	-0.09349562
-3.445474	久	-0.5583684
-4.835904	久久	-0.238843
-5.681002	久了	-0.0275214
-5.681002	久了你去用	-0.0275214
-5.681002	久留	-0.1046195
-5.078942	久而久之	-0.2102874
-3.835904	么	-0.1204743
-5.681002	么地方咯	-0.1099035
-4.982032	义	0.0534028
-5.379972	义工	-0.1044118
-5.681002	义走	-0.1099035
-5.681002	义跑	-0.06635585
-4.63961	之	-0.1757851
-4.982032	之下	-0.187738
-5.203881	之内	-0.108481
-3.332697	之前	-0.2710795
-5.681002	之前两三个月咯他讲	-0.06635585
-5.681002	之前两年他不大飞是因为他根本没有飞之前两年因为那个	-0.0275214
-5.681002	之前也是有去	-0.0275214
-5.681002	之前人家只是用	-0.0275214
-5.681002	之前他们就是用他们有	-0.0275214
-5.681002	之前他们是用	-0.0275214
-5.681002	之前他们都会有经历过	-0.1060018
-5.681002	之前以前的时候就遇到他比较多啦因为他都在我们那边上班吗	-0.0275214
-5.681002	之前你你上啦你上那种	-0.0275214
-5.681002	之前全部是	-0.06635585
-5.681002	之前在	-0.0275214
-5.681002	之前我们有	-0.0275214
-5.681002	之前我们有啊整七十多个人	-0.06635585
-5.681002	之前我们这	-0.0275214
-5.681002	之前我们遇到的问题是很头痛的每	-0.1060018
-5.681002	之前我作	-0.0275214
-5.681002	之前我在	-0.0275214
-5.681002	之前我是读	-0.0275214
-5.681002	之前我有做过这个啊	-0.0275214
-5.681002	之前是参创作坊的	-0.0275214
-5.681002	之前是因为因为我我家境不说啊不能不能	-0.0275214
-5.681002	之前有	-0.0275214
-5.681002	之前有做过	-0.0275214
-5.681002	之前有啦	-0.1060018
-5.681002	之前有常常玩就是	-0.0275214
-5.681002	之前有很多	-0.116639
-5.681002	之前有看	-0.0275214
-5.681002	之前的时候我有讲过因为我跟他讲因为那边附近都不是很好啊你看那边附近全部	-0.0275214
-5.681002	之前看过什么东西它会	-0.0275214
-5.681002	之前要	-0.0275214
-5.681002	之前还要	-0.1168084
-5.681002	之前这样子我作的时候我	-0.0275214
-5.681002	之前那个就是那个它啊	-0.0275214
-5.681002	之前那些啊香港啦香港讲那巴士啊	-0.06635585
-3.681002	之后	-0.3801963
-5.681002	之后就	-0.0275214
-5.681002	之后就每天自己要走路去	-0.0275214
-5.681002	之后新的	-0.0275214
-4.33858	之外	-0.1425147
-5.681002	之外我们也会学也会学	-0.1060018
-5.681002	之所以	-0.1153666
-3.455693	之类	-0.8412242
-5.681002	之类也认识啰然后我是全家人都蛮喜欢音乐的	-0.06635585
-5.379972	之类的	-0.3223487
-5.681002	之类的东西	-0.06635585
-5.681002	之类的东西做设计方面	-0.06635585
-5.681002	之类的东西咯	-0.0275214
-5.681002	之类的东西是它们要看在哪	-0.1060018
-5.681002	之类的咯	-0.0275214
-4.504911	之间	-0.06406569
-5.681002	乌	-0.1046195
-5.681002	乌龟	-0.0275214
-5.379972	乏味	-0.1101196
-5.681002	乐	-0.1046195
-5.203881	乐器	-0.01252369
-5.379972	乐意	-0.3606123
-5.379972	乐观	-0.0935004
-5.379972	乐趣	-0.1137359
-5.681002	乒乓	-0.1157388
-4.504911	乖	-0.2426269
-4.777912	乖乖	-0.1887899
-5.681002	乖巧	-0.0275214
-4.982032	乘	-0.1923324
-5.681002	乘除	-0.1099035
-4.136934	九	-0.1736444
-4.63961	九个	-0.2764722
-5.681002	九个小时九小时对九	-0.06635585
-5.681002	九个月了	-0.1060018
-5.681002	九个钟罢了	-0.06635585
-5.681002	九九七的时候还是有有	-0.1060018
-5.681002	九九没有二零零八年那时四月进的到现在应该是两年四个月这样咯	-0.06635585
-5.681002	九六六年	-0.1166698
-4.72676	九分	0.04987776
-4.777912	九十	-0.2109238
-5.681002	九十九	-0.1161343
-5.681002	九十巴仙就好了	-0.06635585
-5.681002	九啊到二	-0.1060018
-5.681002	九多总共	-0.06635585
-5.379972	九年	-0.1159829
-4.567059	九月	-0.1369022
-4.136934	九点	-0.2494071
-5.681002	九点到九点	-0.06635585
-5.681002	九点到六点	-0.06635585
-5.681002	九百块	-0.06635585
-5.681002	九龙没有去到	-0.1168084
-3.111628	也	-0.2750594
-3.290067	也不	-0.8396637
-5.681002	也不会啦	-0.0275214
-5.681002	也不同	-0.1168084
-5.681002	也不同的好像如果我们打古镇的话我们是用	-0.1060018
-5.681002	也不够	-0.1168029
-5.681002	也不懂怎样讲其实也是很少牛罢了	-0.0275214
-5.681002	也不敢放在中国	-0.06635585
-5.681002	也不敢走了嘛太太什么嘛	-0.06635585
-5.379972	也不是	-0.0142089
-5.681002	也不是在	-0.0275214
-5.681002	也不是完全是我的东西啦	-0.1163428
-5.681002	也不是很多东西要做	-0.06635585
-5.681002	也不是很清楚	-0.06635585
-5.681002	也不是说看不起他们啦就是他们比较差那	-0.1060018
-5.681002	也不甘示弱咯就讲这个也不是你屋子吗	-0.1168084
-5.681002	也不用咯	-0.1168084
-5.681002	也不用给咯	-0.06635585
-5.681002	也不用防人之心那么强	-0.06635585
-5.681002	也不知道啊	-0.1168084
-5.681002	也不知道啦	-0.06635585
-5.681002	也不知道玩得完吗	-0.06635585
-5.681002	也不知道算把东西要回啦	-0.1168084
-5.681002	也不知道要怎样啦	-0.06635585
-5.681002	也不算是我的	-0.0275214
-5.681002	也不能	-0.06635585
-5.681002	也不能做他的工	-0.0275214
-5.681002	也不能啊	-0.06635585
-5.681002	也不能换成金钱	-0.06635585
-5.681002	也不能放全部了然后去	-0.06635585
-5.681002	也不能玩啦	-0.06635585
-5.681002	也不能顶哦	-0.06635585
-5.681002	也不错	-0.06635585
-5.681002	也不错喔	-0.1168084
-5.078942	也也	-0.1131995
-5.681002	也也不能也不能不能对对对对对	-0.06635585
-5.379972	也也是	-0.0142089
-5.681002	也也是要给钱的	-0.06635585
-5.681002	也会去那些名胜古迹的	-0.0275214
-5.681002	也会好像油的东西也会	-0.0275214
-5.681002	也会有	-0.0275214
-5.681002	也会看啰那种	-0.0275214
-5.681002	也会讲他是	-0.0275214
-5.681002	也加进去的你知道吗	-0.116754
-4.008904	也可以	-0.01836997
-5.681002	也可以咯	-0.06635585
-5.681002	也可以啊	-0.06635585
-5.681002	也可以有	-0.1060018
-5.681002	也可以用很久	-0.06635585
-5.681002	也可以的	-0.06635585
-5.681002	也可以看到	-0.0275214
-5.681002	也可以算他是对也可以算他是错	-0.06635585
-5.681002	也可以这样讲有些啦	-0.0275214
-5.681002	也可以进咯	-0.06635585
-5.681002	也可能的	-0.06635585
-4.175852	也好	-0.1785922
-5.203881	也就	-0.06179709
-5.078942	也就是	-0.0226822
-5.681002	也带他的老婆跟	-0.0275214
-5.681002	也很	-0.0275214
-5.379972	也很好	-0.3223487
-5.681002	也很好住	-0.1060018
-5.681002	也很好啦空气清新	-0.06635585
-5.681002	也很少人咯那边	-0.06635585
-5.681002	也很重要	-0.06635585
-5.681002	也我也有份住的嘛	-0.0275214
-2.554222	也是	-0.371523
-5.681002	也是不	-0.0275214
-5.681002	也是不能	-0.0275214
-5.681002	也是不能顶了	-0.06635585
-5.681002	也是不要做	-0.0275214
-5.379972	也是不错	-0.3619946
-5.681002	也是两千两千出这样罢了	-0.06635585
-5.379972	也是他们	-0.2835142
-5.681002	也是他们也是在家里做贤妻良母这样	-0.06635585
-5.681002	也是会有但是	-0.0275214
-5.681002	也是会有的比较也是差不多	-0.1060018
-5.681002	也是但是他很大他那个	-0.0275214
-5.681002	也是你你自己要觉得你有那个兴趣要去改变自己咯	-0.06635585
-5.681002	也是你去	-0.0275214
-5.681002	也是做了	-0.0275214
-5.681002	也是到时间要去找工作了嘛	-0.0275214
-5.681002	也是卖不出的也是个问题来的	-0.06635585
-4.835904	也是可以	-0.1835066
-5.681002	也是可以呀两方面就两种方式	-0.06635585
-5.681002	也是可以啊	-0.1168029
-5.681002	也是可以啦如果你要只是	-0.06635585
-5.681002	也是可以用啦	-0.0275214
-5.681002	也是可以的	-0.06635585
-5.681002	也是可以考虑啦现在是要等看有没有人给我这样机会罢了	-0.06635585
-5.681002	也是可以跑的其实	-0.06635585
-5.681002	也是吃吃吃很多间去了	-0.06635585
-5.681002	也是同时	-0.0275214
-5.681002	也是啦暂时是还没有这样	-0.0275214
-5.681002	也是回来这样啊	-0.06635585
-5.203881	也是在	-0.4554066
-5.681002	也是在做着	-0.0275214
-5.681002	也是在台湾出产的	-0.06635585
-5.681002	也是在脸跟我们的手脚罢了	-0.06635585
-5.681002	也是在那边啊好像	-0.06635585
-5.681002	也是好像	-0.0275214
-5.681002	也是学	-0.0275214
-5.681002	也是完了吗也是	-0.0275214
-5.379972	也是对	0.03531874
-5.681002	也是弄得蛮不错嘛现在新出的	-0.0275214
-5.681002	也是很	-0.0275214
-5.681002	也是很多问题	-0.0275214
-5.681002	也是很大的市场上	-0.06635585
-5.681002	也是很烦不懂因为要去	-0.0275214
-5.681002	也是很爽的	-0.06635585
-5.681002	也是很疼我	-0.06635585
-5.681002	也是很累可能会	-0.0275214
-5.681002	也是很迟哦	-0.06635585
-5.681002	也是很闷	-0.0275214
-5.681002	也是很麻烦	-0.06635585
-5.681002	也是我们	-0.0275214
-5.681002	也是我和我的	-0.0275214
-5.681002	也是放	-0.0275214
-5.681002	也是整千五块	-0.06635585
-5.681002	也是更加难啦	-0.06635585
-4.681002	也是有	-0.4353956
-5.681002	也是有不那还是	-0.0275214
-5.681002	也是有两个	-0.0275214
-5.681002	也是有些是有颜色的也是不错	-0.06635585
-5.681002	也是有他也是有做多	-0.0275214
-5.379972	也是有去	-0.2835142
-5.681002	也是有只是我	-0.0275214
-5.681002	也是有咯	-0.0275214
-5.681002	也是有啦不过	-0.06635585
-5.681002	也是有啦不过那个不是那个不是	-0.0275214
-5.681002	也是有成功的例子不过要有耐性咯	-0.06635585
-5.681002	也是有找我去	-0.0275214
-5.681002	也是有接触到	-0.1060018
-5.681002	也是有的你要看多少集	-0.0275214
-5.681002	也是有看	-0.06635585
-5.681002	也是有看得到	-0.1168084
-5.681002	也是有看选那个戏来看	-0.06635585
-5.681002	也是有要本钱嘛	-0.06635585
-5.681002	也是有要请啦不过薪水会很低很低很低然后他多数都是	-0.0275214
-5.681002	也是有这样的可能性啦	-0.06635585
-5.681002	也是每衣个每个星期都有	-0.0275214
-5.681002	也是比较多	-0.06635585
-5.681002	也是比较旧	-0.0275214
-5.681002	也是没有去想过	-0.06635585
-5.681002	也是没有啦只是	-0.1168084
-5.681002	也是没有用那	-0.1060018
-5.681002	也是没有那种时间啦那是你有孩子啦有家里啦你的	-0.0275214
-5.681002	也是用同样	-0.0275214
-5.681002	也是用那些	-0.0275214
-5.681002	也是算	-0.0275214
-5.681002	也是算啦	-0.1165195
-5.681002	也是蛮	-0.06635585
-5.681002	也是蛮多	-0.1060018
-5.681002	也是蛮贵	-0.1060018
-5.681002	也是蛮重要啦你讲你有多几好的	-0.0275214
-5.681002	也是要出了吗没有错的话然后那种	-0.0275214
-5.681002	也是要差不多二三十分钟啦	-0.06635585
-5.681002	也是要看	-0.0275214
-5.681002	也是要给钱	-0.1168084
-5.681002	也是要给钱但是比较便宜	-0.06635585
-5.681002	也是讲说火影忍者的延续还是什么忘记了	-0.06635585
-5.379972	也是读	-0.2835142
-5.681002	也是走回那条不过有时候我试过	-0.1060018
-5.681002	也是跟	-0.0275214
-5.681002	也是跟我同	-0.1060018
-5.681002	也是跟着中	-0.1168084
-5.681002	也是跟着学罢了	-0.1168084
-5.681002	也是还算幸福啰	-0.06635585
-5.681002	也是这样的基本上只是因为	-0.06635585
-5.681002	也是那种介绍的他也是帮我找到	-0.0275214
-5.681002	也是需要跟他们买这个	-0.0275214
-5.681002	也是面对到很多问题啊	-0.06635585
-3.668165	也有	-0.1790955
-5.681002	也有两千五咯然后应该普通是三千啦	-0.06635585
-5.681002	也有了	-0.1060018
-5.681002	也有便宜的但是有些是翻版咯	-0.1099035
-5.681002	也有出现	-0.06635585
-5.681002	也有另外两个朋友吗	-0.1168084
-5.681002	也有咯	-0.06635585
-5.681002	也有咯那些	-0.0275214
-5.203881	也有啊	-0.4554066
-5.681002	也有啊很多种	-0.06635585
-5.681002	也有啊这些咯	-0.06635585
-5.681002	也有啦	-0.06635585
-5.681002	也有好像有	-0.1060018
-5.681002	也有然后	-0.0275214
-5.681002	也有的他们叫	-0.0275214
-5.681002	也有读过	-0.06635585
-5.681002	也有过去	-0.06635585
-5.681002	也比人家少因为我们多数是	-0.0275214
-5.681002	也比较多咯然后	-0.0275214
-5.681002	也比较好	-0.1168084
-5.681002	也比较轻松啦他们迟到也没有人管之类的	-0.06635585
-3.627924	也没有	-0.2090552
-5.681002	也没有什么啦	-0.1168084
-5.681002	也没有喔	-0.06635585
-5.681002	也没有因为他们大多数去	-0.0275214
-5.681002	也没有玩过	-0.06635585
-5.681002	也没有讲比较欣赏谁就是有什么	-0.0275214
-5.681002	也没有这么多咯	-0.1168084
-5.681002	也用你的	-0.0275214
-5.681002	也用完掉	-0.06635585
-5.681002	也等到差不多啊腿都要断掉了啊	-0.06635585
-5.681002	也算是	-0.0275214
-5.681002	也算是不了了之咯	-0.06635585
-5.681002	也能	-0.0275214
-5.681002	也蛮贫穷啦有些人	-0.06635585
-3.990806	也要	-0.2116254
-5.681002	也要不	-0.1060018
-5.681002	也要换咯他们叫	-0.0275214
-5.681002	也要看区如果是那些	-0.0275214
-5.681002	也认认识到	-0.1060018
-5.681002	也许啊你好奇的话你可以去看咯有	-0.1060018
-5.681002	也贵到要命	-0.1168084
-5.681002	也需要	-0.0275214
-5.379972	习	-0.1145911
-3.82367	习惯	-0.3525219
-5.379972	乡	-0.104613
-4.777912	乡下	-0.05824119
-4.835904	乡村	-0.3064543
-3.741483	书	-0.2344361
-5.681002	书写	-0.1167613
-5.203881	书包	-0.02051237
-5.681002	书局	-0.1154883
-5.681002	书店	-0.1099035
-5.681002	书本	-0.1137842
-5.681002	书橱	-0.1168084
-5.681002	书籍	-0.1166572
-3.053637	买	-0.3505452
-5.681002	买了	-0.0275214
-5.681002	买了嘛	-0.06635585
-5.681002	买了放去	-0.0275214
-5.681002	买了有	-0.0275214
-5.681002	买了车就更够力啦	-0.1168084
-5.681002	买些什么啊	-0.06635585
-5.681002	买他他的	-0.0275214
-5.681002	买他的	-0.0275214
-5.681002	买你不知道它的布适不适合你啊这样子啊个人啊看个人	-0.06635585
-5.681002	买去	-0.1154211
-5.681002	买去啊	-0.1168084
-5.681002	买同样的	-0.1060018
-5.203881	买好	-0.2584932
-5.681002	买它会虽然他会有讲	-0.0275214
-5.681002	买屋子了买车了	-0.1167604
-5.681002	买得到	-0.06635585
-5.379972	买来	-0.1102051
-4.982032	买的	-0.7354338
-5.681002	买的不是	-0.0275214
-5.681002	买的刚刚在八月三十	-0.1060018
-5.681002	买的时候可能你只买六百千现在起到你	-0.1060018
-5.681002	买的话	-0.0275214
-5.681002	买的话就是说他会没有没有这样的东西	-0.06635585
-5.681002	买这样的东西啊	-0.06635585
-5.681002	买那边的屋子	-0.06635585
-3.685367	乱	-0.2313733
-5.203881	乱七八糟	-0.01113916
-5.379972	乱丢	-0.1140913
-5.681002	乱伦	-0.1139163
-5.681002	乱动	-0.1166744
-4.835904	乱来	-0.05496423
-5.078942	乱跑	-0.06266038
-5.203881	乳	-0.5446917
-2.154792	了	-0.5151101
-5.681002	了不是吗	-0.06635585
-5.681002	了不是啊	-0.0275214
-5.681002	了不用钱	-0.06635585
-5.681002	了不能	-0.0275214
-5.681002	了不能的话就	-0.0275214
-5.681002	了不要去再去改这样多你要改的是	-0.0275214
-5.681002	了不要用了他们要换	-0.1060018
-5.681002	了不起	-0.0275214
-5.681002	了之前半年都是在搞那些	-0.1099035
-5.681002	了之后他要做什么都可以了	-0.06635585
-5.681002	了也是可以	-0.0275214
-4.567059	了了	-0.1452802
-5.681002	了五个去	-0.1168084
-5.681002	了人家要去	-0.0275214
-5.681002	了他们	-0.06635585
-5.681002	了他们就现在	-0.0275214
-5.681002	了他们就被逼开始做	-0.1060018
-5.681002	了他就会直接	-0.0275214
-5.681002	了他用	-0.0275214
-5.681002	了他知道了嘛看了	-0.0275214
-5.681002	了但是在	-0.0275214
-5.681002	了你	-0.0275214
-5.681002	了你不想去再看书	-0.06635585
-5.681002	了你从	-0.0275214
-5.681002	了你从法国去到	-0.0275214
-5.681002	了你可以	-0.0275214
-5.681002	了你可以去玩它的那些过山车啊	-0.06635585
-5.681002	了你就去冲凉咯	-0.06635585
-5.681002	了你就在那边	-0.1168084
-5.681002	了你才放我们	-0.0275214
-5.681002	了你的飞机总共飞了二十四个钟啊	-0.06635585
-5.681002	了你真的不能	-0.0275214
-5.681002	了你要买	-0.0275214
-5.681002	了你要人家每个学期都这样写信给你	-0.0275214
-5.681002	了你要找	-0.0275214
-5.681002	了你要讲还有什么	-0.0275214
-5.681002	了你讲话人家就会相信你了	-0.06635585
-5.681002	了做么我还要读书	-0.1168084
-5.681002	了全部东西你跟他买	-0.06635585
-5.681002	了八十多巴仙	-0.1168084
-5.681002	了其实我们当时是排着队要去坐那个	-0.0275214
-5.681002	了再增加	-0.1060018
-5.681002	了再打算啰因为读国立大学比较便宜嘛	-0.06635585
-5.681002	了几个啦	-0.06635585
-5.681002	了几样罢了然后我们大多数都是吃那种炒饭这样子咯	-0.06635585
-5.681002	了刚才那个	-0.0275214
-5.681002	了前	-0.1168084
-5.681002	了去	-0.0275214
-5.681002	了又又又	-0.1168084
-5.681002	了又有没有机会升的话还是什么的话我应该是会转回去	-0.0275214
-5.681002	了另	-0.1060018
-5.681002	了可是我还没有	-0.0275214
-5.681002	了可能	-0.1060018
-5.681002	了可能他们跟着球那个那个	-0.0275214
-5.681002	了可能就	-0.1168084
-5.681002	了可能是	-0.06635585
-5.681002	了后来我坐	-0.0275214
-5.379972	了吗	-0.1147285
-5.681002	了吗因为	-0.06635585
-5.681002	了吗如果有	-0.0275214
-4.63961	了咯	-0.7050427
-5.681002	了咯对嘛	-0.06635585
-5.681002	了哦	-0.1168084
-5.681002	了哦因为我朋友也要搬进去住了	-0.06635585
-5.203881	了啊	-0.1176704
-5.681002	了啊可能他的	-0.0275214
-5.681002	了啊我也要拿但是没有这样的	-0.0275214
-5.379972	了啦	-0.06635484
-5.681002	了啦就说大学以前啦不过为了进了大学之后因为你要忙	-0.0275214
-5.681002	了啰	-0.0275214
-5.681002	了啰这样啰	-0.06635585
-5.681002	了喔	-0.06635585
-4.835904	了嘛	-0.4588174
-5.681002	了嘛可以在坐在电脑前面按	-0.0275214
-5.681002	了嘛然后所以就我们来不及吃那个咯所以就没有吃到咯	-0.06635585
-5.681002	了嘛讲去	-0.0275214
-5.681002	了噜	-0.06635585
-5.681002	了回了他们真的有时做到八九点那	-0.1060018
-5.681002	了因为	-0.0275214
-5.681002	了因为很多	-0.0275214
-5.681002	了因为有很多的	-0.0275214
-5.681002	了她的她的她的她的	-0.1168084
-5.681002	了它们的	-0.1168084
-5.681002	了它它它它有	-0.1168084
-5.681002	了它它里面还有熊猫的熊猫熊猫小	-0.1060018
-5.681002	了它有两个	-0.0275214
-5.681002	了它的那个	-0.0275214
-5.681002	了对咯	-0.06635585
-5.203881	了就	-0.1176704
-5.681002	了就不喜欢咯	-0.0275214
-5.681002	了就她就她要出去就可以出去啦	-0.1168084
-5.681002	了就很多	-0.0275214
-5.681002	了就是他们自己	-0.0275214
-5.681002	了就是讲他可能	-0.1060018
-5.681002	了就没有玩掉	-0.06635585
-5.681002	了就这样	-0.1168084
-5.681002	了就这样吵起来哦	-0.1137577
-5.681002	了工作做到怎么样啊这样子	-0.06635585
-5.681002	了已经是已经	-0.0275214
-5.681002	了很	-0.0275214
-5.681002	了很长	-0.1168084
-5.681002	了我	-0.06635585
-5.681002	了我们	-0.06635585
-5.681002	了我们会放	-0.1060018
-5.681002	了我们就去	-0.0275214
-5.681002	了我们才能知道那	-0.1060018
-5.681002	了我只是帮他这样做	-0.06635585
-5.681002	了我因为我教书	-0.1168084
-5.681002	了我就回去投诉我	-0.0275214
-5.681002	了我就讲说诶这个谁画的你擦颜色罢了我说不是啊我画的然后我讲哈	-0.06635585
-5.681002	了我很多东西那	-0.1060018
-5.681002	了我很多他跟我	-0.0275214
-5.681002	了我想	-0.116649
-5.681002	了我舅母有有买	-0.1060018
-5.681002	了我要去的日子又没有	-0.06635585
-5.681002	了我觉得	-0.06635585
-5.681002	了或者	-0.0275214
-5.681002	了所以你要真正讲租车	-0.1060018
-5.681002	了才	-0.0275214
-5.681002	了整天没有事做然后下午就可能跑去那边我们那边有靠近有	-0.1060018
-5.681002	了星期三他就叫我去	-0.0275214
-5.681002	了是啰对啰	-0.06635585
-5.681002	了最后我们有去到	-0.1060018
-5.681002	了最后说为了要看另	-0.1060018
-5.681002	了最后那个	-0.0275214
-5.681002	了有	-0.0275214
-5.681002	了有水族馆	-0.1168084
-5.681002	了每	-0.1060018
-5.681002	了每次吃到饱饱了哦	-0.1168084
-5.681002	了没办法哦	-0.1168075
-5.681002	了没有办法就在大学的时候很自有啰	-0.06635585
-5.681002	了游泳池是有	-0.1165457
-3.956727	了然	-1.732281
-5.681002	了然后	-0.0275214
-5.681002	了然后他们之后做	-0.0275214
-5.681002	了然后以后你也你你要找到更好的机会你就跑掉这样子	-0.06635585
-5.379972	了然后叫啊	-0.3223487
-5.681002	了然后知道那个	-0.0275214
-5.681002	了现在	-0.0275214
-5.681002	了现在这个	-0.0275214
-5.681002	了用啊	-0.06635585
-4.504911	了的	-0.4241107
-5.681002	了的他网站了的	-0.06635585
-5.681002	了的嘛	-0.06635585
-5.681002	了的就讲你会拿到多少	-0.0275214
-5.681002	了的就说已经毕业了这是我在外面另外拿	-0.06635585
-5.681002	了的有两三个	-0.06635585
-5.681002	了看他看到这个市场了所以他发明那个	-0.0275214
-5.681002	了第	-0.1060018
-5.681002	了给	-0.0275214
-5.681002	了而且他们香港人又很没礼貌的哦	-0.1060018
-5.681002	了而且哦	-0.0275214
-5.681002	了而且我听说它的	-0.0275214
-5.681002	了至少	-0.06635585
-5.681002	了蛮多的	-0.0275214
-5.681002	了觉	-0.0275214
-4.089938	了解	-0.1724833
-5.681002	了跟你差不多	-0.1060018
-5.681002	了转行	-0.06635585
-5.379972	了过后	-0.02752029
-5.681002	了过后再	-0.0275214
-5.681002	了过后它就去	-0.1060018
-5.681002	了过后有问题的话	-0.1168084
-5.681002	了过后的时候他	-0.1060018
-5.681002	了过后的时候勒	-0.06635585
-5.379972	了还有	-0.3619946
-5.681002	了还有海狮哦海狮	-0.1161053
-5.681002	了还要做在这里的	-0.0275214
-5.681002	了这些	-0.0275214
-5.681002	了这间公司	-0.0275214
-5.681002	了连那个	-0.0275214
-5.379972	了那	-0.0142089
-5.078942	了那个	-0.5527235
-5.681002	了那个女生还要等她	-0.06635585
-5.681002	了那个我最后两天我们讲要去	-0.0275214
-5.681002	了那个机会就跟朋友做	-0.06635585
-5.681002	了那些学费是吗	-0.06635585
-5.681002	了那天有去	-0.0275214
-5.681002	了那时	-0.06635585
-5.681002	了里面没有	-0.0275214
-5.379972	争	-0.1010558
-5.203881	争取	-0.02660088
-5.681002	争执	-0.0275214
-3.861458	事	-0.2725025
-5.078942	事业	-0.01614565
-5.681002	事件	-0.06635585
-3.982032	事情	-0.1766551
-5.681002	事物	-0.1166255
-5.681002	事过境迁	-0.1137577
-3.73652	二	-0.3960485
-5.681002	二三名好像特别特优奖这样子咯	-0.06635585
-5.681002	二三四五六	-0.0275214
-5.681002	二三四五来啊	-0.0275214
-5.681002	二二零	-0.1060018
-5.681002	二加等下二加二啊	-0.06635585
-3.651618	二十	-0.4362602
-5.379972	二十七	-0.1166318
-4.835904	二十三	-0.1831659
-5.681002	二十三从那边飞回来	-0.06635585
-5.379972	二十三分	-0.3727197
-5.681002	二十个	-0.06635585
-4.982032	二十九	-0.1093804
-5.681002	二十九分	-0.1137577
-4.450553	二十二	-0.1554257
-4.476882	二十五	-0.1378842
-5.681002	二十五巴仙就	-0.1060018
-4.504911	二十八	-0.2511626
-5.379972	二十六	-0.1150595
-5.681002	二十几	-0.1165829
-4.777912	二十分	-0.4553614
-5.681002	二十分钟之之内咯	-0.06635585
-4.504911	二十四	-0.3181375
-5.681002	二十四小时是	-0.0275214
-5.681002	二十四小时要	-0.0275214
-5.681002	二十四小时里面发生的	-0.06635585
-5.681002	二十块	-0.06635585
-4.63961	二十多	-0.2361317
-5.681002	二十年了	-0.0275214
-5.681002	二十张	-0.0275214
-5.681002	二十片我可以放差不多整个月了了	-0.06635585
-5.681002	二华语	-0.0275214
-5.681002	二姐的话她是有写歌啰有写歌有卖到给光良那些啰然后	-0.06635585
-5.681002	二就是可能跟	-0.0275214
-5.681002	二年级	-0.1167948
-5.681002	二是	-0.06635585
-4.982032	二月	-0.0222401
-4.902851	二点	-0.5777776
-5.681002	二点八	-0.0275214
-5.681002	二点八九如果是	-0.0275214
-5.681002	二点零	-0.0275214
-5.681002	二胡	-0.1139163
-5.681002	二舅	-0.1046195
-5.681002	二要到了	-0.1168084
-5.203881	二零	-0.533887
-5.203881	二零零七年	-0.2693473
-5.681002	二零零七年过后他们啊你有听过叫	-0.0275214
-5.681002	二零零七毕业	-0.06635585
-5.681002	二零零七那个	-0.0275214
-5.379972	二零零八年	-0.0663345
-5.379972	二零零六年	-0.1029712
-4.601821	于	-0.03304087
-5.078942	亏	-0.372245
-4.72676	云	-0.1142914
-4.777912	云南	-0.06220844
-5.681002	云顶	-0.1168056
-5.203881	互相	-0.02751918
-3.534874	五	-0.2079113
-3.888611	五个	-0.5218735
-5.681002	五个全部跑出来	-0.116783
-5.681002	五九九而已	-0.06635585
-5.681002	五五个	-0.0275214
-5.681002	五八	-0.1060018
-5.681002	五六天这样在	-0.0275214
-5.681002	五六点	-0.1168084
-5.681002	五六秒这样给它车经过	-0.1060018
-4.63961	五分	-0.3861603
-5.681002	五分埔啊那些东西那些地方咯	-0.06635585
-3.902851	五十	-0.3180482
-5.681002	五十七分	-0.1167269
-5.681002	五十三	-0.1166255
-5.681002	五十二	-0.1166037
-5.203881	五十五	-0.2695267
-5.681002	五十八	-0.1167812
-5.203881	五十六	-0.2696481
-5.379972	五十分	-0.3727197
-5.681002	五十分我也拿不到可是	-0.0275214
-5.203881	五十四	-0.06262654
-5.681002	五十块咯	-0.06635585
-5.681002	五十多啊	-0.0275214
-5.203881	五千	-0.06550192
-5.681002	五千块	-0.0275214
-5.681002	五四	-0.1167531
-5.681002	五块钱你知道吗	-0.1168084
-5.681002	五块钱哦	-0.1168084
-5.681002	五天嘛就是拜六礼拜休息嘛	-0.06635585
-5.681002	五就	-0.0275214
-4.249639	五年	-0.04765759
-5.681002	五年了	-0.0275214
-5.681002	五年十年这样罢了	-0.06635585
-5.681002	五年啊我就不觉得咯	-0.1132095
-5.681002	五年我也是不能毕业的	-0.06635585
-4.835904	五月	-0.1583624
-5.681002	五月没有什么	-0.0275214
-4.982032	五次	0.04315437
-4.112801	五点	-0.06324095
-5.681002	五点到她的家	-0.06635585
-5.681002	五点是	-0.0275214
-4.249639	五百	-0.3352674
-5.681002	五百个	-0.06635585
-5.681002	五百个那个	-0.0275214
-5.681002	五行	-0.1061614
-5.681002	五颜六色	-0.1060018
-5.379972	五香	-0.1154756
-4.567059	亚洲	-0.09493951
-5.681002	亚细安	-0.1155573
-2.812358	些	-0.3625627
-5.681002	些不好的手段来赚那些啊	-0.0275214
-5.681002	些不是	-0.0275214
-5.681002	些专长但是我还没有发觉咯	-0.06635585
-5.203881	些东西	-0.1176704
-5.681002	些东西做	-0.1168084
-5.681002	些东西全部都是用	-0.0275214
-5.681002	些东西出来	-0.06635585
-5.379972	些东西咯	-0.3223487
-5.681002	些东西啊他们好像	-0.0275214
-5.681002	些东西因为我还跑去	-0.0275214
-5.681002	些东西就可以	-0.0275214
-5.681002	些东西来吃	-0.06635585
-5.681002	些东西的	-0.0275214
-5.681002	些东西给他们咯	-0.0275214
-5.681002	些中文字这样	-0.1168084
-5.681002	些中药啊我们是吃中药	-0.06635585
-5.681002	些事情这样咯	-0.06635585
-5.681002	些些	-0.06635585
-5.681002	些人	-0.06635585
-5.681002	些人有那些	-0.0275214
-5.379972	些他们	-0.02752029
-5.681002	些他们工作上需要用到的那些	-0.0275214
-5.681002	些他的人生故事咯	-0.06635585
-5.681002	些仪式的话他也他也他也不知道有这样的	-0.0275214
-5.681002	些其它的	-0.0275214
-5.681002	些别的那种	-0.0275214
-5.681002	些到完	-0.06635585
-5.681002	些历史啊那种东西	-0.1168084
-5.681002	些啊什么	-0.0275214
-5.681002	些啊新的东西哦	-0.06635585
-5.379972	些啦	-0.06635484
-5.681002	些四方形圆形三角形在上面	-0.06635585
-5.681002	些国家	-0.0275214
-5.681002	些在	-0.0275214
-5.681002	些地方跟她聚会啊这样子啊遇	-0.1060018
-5.681002	些外国地方啦	-0.0275214
-5.681002	些奇奇怪怪的东西	-0.1168084
-5.681002	些奇奇怪怪的问题会出现啦久不久	-0.06635585
-5.681002	些奇怪的	-0.116611
-5.681002	些女孩子很美的哦	-0.06635585
-5.078942	些好像	-0.3032349
-5.681002	些好像买吃的东西咯蛮贵	-0.1060018
-5.681002	些好像因为我有去	-0.0275214
-5.681002	些好像基本的	-0.0275214
-5.681002	些好像它里面的那些	-0.0275214
-5.681002	些好像能纠正过来的	-0.06635585
-5.681002	些小小东西浮起来罢了	-0.1165204
-5.681002	些小小的	-0.0275214
-5.681002	些店屋啊那些啊全部	-0.0275214
-5.681002	些强硬要坚持要那样的设计他们自己本身的设计然后就是说这样子我们做	-0.0275214
-5.681002	些很	-0.06635585
-5.681002	些很贵的	-0.0275214
-5.681002	些我们能	-0.0275214
-5.681002	些教育啊全部都是要帮他们安排啊就会造成说	-0.1060018
-5.681002	些新加坡朋友咯	-0.1060018
-5.681002	些新的海马啊	-0.06635585
-5.681002	些新闻啊	-0.06635585
-5.681002	些时间才能跑完哪	-0.06635585
-5.681002	些是现在有	-0.1060018
-5.681002	些普通	-0.0275214
-5.681002	些更够力是要结婚了	-0.06635585
-5.379972	些有	-0.3619946
-5.681002	些朋友	-0.06635585
-5.681002	些朋友也是借	-0.0275214
-5.681002	些歌好像太就是最近比较出名了都会去	-0.0275214
-5.681002	些比例我跟他讲你买	-0.1060018
-5.681002	些比较	-0.0275214
-5.681002	些比较啊	-0.0275214
-5.681002	些比较就好像	-0.1060018
-5.681002	些比较就是歌曲的那些	-0.0275214
-5.681002	些比较新的东西好像	-0.06635585
-5.681002	些比较新鲜的东西她多数都是拒绝的	-0.06635585
-5.681002	些比较暴力的东西	-0.06635585
-5.681002	些活动啊	-0.06635585
-5.681002	些淘汰的啦正常的	-0.06635585
-5.681002	些漫画	-0.1137842
-5.681002	些漫画咯	-0.1168056
-5.681002	些照片来	-0.0275214
-5.681002	些理由哦他们	-0.1060018
-5.681002	些男的又跑过来跟他讲话咯	-0.06635585
-5.681002	些病啦	-0.0275214
-5.681002	些的	-0.0275214
-5.681002	些福建话进去	-0.06635585
-5.681002	些自己的东西啊	-0.06635585
-5.681002	些要在做着	-0.1060018
-5.681002	些角角角角这样的	-0.1168084
-5.681002	些读	-0.1060018
-5.681002	些课程哦	-0.0275214
-5.681002	些转变好像像些现在人比较喜欢用那些	-0.0275214
-5.681002	些近况啊	-0.06635585
-5.681002	些道理	-0.06635585
-5.681002	些道理过后那个	-0.0275214
-5.681002	些那些	-0.0275214
-5.681002	些那些东西讲这个什么跟什么改要跟全部人讲	-0.06635585
-5.681002	些那就	-0.0275214
-5.681002	些钱	-0.06635585
-5.681002	些问题开不到	-0.1159801
-5.681002	些除了	-0.0275214
-5.681002	些鬼故事咯	-0.115372
-4.089938	交	-0.08212668
-5.203881	交代	-0.1097388
-5.379972	交往	-0.0260155
-5.681002	交待	-0.0275214
-5.681002	交换	-0.06635585
-5.681002	交易	-0.1168011
-5.681002	交朋友	-0.116774
-4.982032	交流	-0.2544017
-4.982032	交给	-0.1058477
-5.078942	交谈	-0.02483005
-5.078942	交通	-0.1123131
-5.078942	交通工具	-0.1302833
-5.681002	交通车	-0.1155954
-5.681002	交际	-0.06635585
-4.982032	产品	0.01058911
-4.777912	享受	-0.05686867
-5.681002	亮	-0.0275214
-4.902851	亲	-0.2672714
-5.379972	亲人	-0.114156
-5.203881	亲切	-0.08621066
-5.203881	亲切感	-0.06437366
-4.601821	亲戚	-0.3722551
-5.681002	亲眼	-0.1167314
-5.681002	亲自	-0.1166698
-5.078942	亲身	-0.3925112
-5.681002	亲近	-0.1061614
-2.497448	人	-0.2987739
-5.681002	人丁单薄了	-0.1060018
-5.681002	人之常情	-0.1060018
-5.681002	人事	-0.1167613
-4.835904	人人	-0.1560514
-4.982032	人们	-0.1056434
-5.681002	人们的心理呀	-0.06635585
-5.681002	人们的自己的脑	-0.06635585
-5.379972	人体	-0.01250067
-5.681002	人千	-0.1168084
-5.681002	人参	-0.06635585
-5.379972	人口	-0.3687648
-5.681002	人啦如果他他们有	-0.1060018
-5.681002	人在	-0.1060018
-5.681002	人士	-0.1129429
-5.681002	人大	-0.1167685
-5.681002	人妖人妖国	-0.06635585
-3.184073	人家	-0.1213376
-5.379972	人家不会	-0.2835142
-5.681002	人家东西啦	-0.06635585
-5.681002	人家也是会觉得为什么老板选你做	-0.0275214
-5.681002	人家人做	-0.1168084
-5.379972	人家会	-0.2835142
-5.681002	人家会不会相信你所你所做的东西啊对你们的信任有多大	-0.06635585
-5.681002	人家会用那种	-0.0275214
-5.681002	人家会知道你这个	-0.0275214
-5.681002	人家会误导人	-0.1168075
-5.681002	人家传出来的流言就是	-0.1099035
-5.681002	人家就	-0.0275214
-5.681002	人家就会啊	-0.0275214
-5.681002	人家工作经验高比你多两年的他比你早升他已经做你的	-0.0275214
-5.681002	人家的那种	-0.0275214
-5.681002	人家看到了不能拿来用啊	-0.1111517
-5.681002	人家看到他	-0.1166897
-5.681002	人家看到会怕那种那种	-0.0275214
-5.681002	人家知道了出名了就可以了	-0.06635585
-5.681002	人家要去	-0.0275214
-5.681002	人家讲你你不是说	-0.0275214
-5.681002	人家讲的	-0.0275214
-5.681002	人家跟你	-0.0275214
-5.681002	人家进来那些全部没有啰	-0.06635585
-5.681002	人家那种那个气	-0.1168084
-5.681002	人家都怕啊	-0.06635585
-5.681002	人影	-0.1046195
-5.681002	人很喜欢去	-0.0275214
-5.681002	人心	-0.06635585
-5.379972	人性	-0.1165874
-5.681002	人情味	-0.1141815
-5.078942	人手	-0.2233598
-5.681002	人手也是	-0.1060018
-4.72676	人才	-0.05384409
-5.681002	人拍照片然后写下来咯做	-0.1060018
-5.681002	人拿着	-0.0275214
-5.379972	人数	-0.111004
-4.018244	人是	-0.1170011
-5.681002	人是多但是还可以啦	-0.06635585
-5.681002	人民	-0.1156989
-5.203881	人民币	-0.04517937
-5.681002	人然后你可以变车来打人	-0.1141815
-5.681002	人物	-0.1108911
-4.982032	人生	-0.1897392
-3.761924	人的	-0.1401653
-5.681002	人类	-0.0275214
-5.203881	人行道	-0.1125728
-5.379972	人身	-0.1165439
-5.078942	人际关系	-0.1131026
-4.681002	什	-0.1057668
-2.419264	什么	-0.3411987
-5.681002	什么东西之前我在	-0.0275214
-5.681002	什么东西去跑	-0.06635585
-5.681002	什么东西都出来了	-0.06635585
-5.681002	什么东西都是很	-0.0275214
-5.681002	什么也是蛮久的	-0.0275214
-5.681002	什么也要	-0.0275214
-5.681002	什么了哈	-0.0275214
-5.681002	什么二点零啊他们讲	-0.06635585
-5.681002	什么什么什么	-0.0275214
-5.681002	什么他是	-0.0275214
-5.681002	什么会比较容易	-0.06635585
-5.681002	什么你的	-0.0275214
-5.681002	什么原因什么原因我们我们要知道它的原因	-0.06635585
-5.681002	什么呢	-0.0275214
-5.379972	什么咯	-0.3223487
-5.681002	什么咯素质这样咯	-0.06635585
-5.681002	什么啊	-0.06635585
-5.681002	什么啊啊比比很多人比较	-0.0275214
-5.681002	什么啊这样	-0.06635585
-5.681002	什么啊都要学过	-0.06635585
-5.681002	什么啦	-0.1157397
-5.681002	什么好像	-0.06635585
-5.681002	什么它会在身体里面	-0.06635585
-5.681002	什么它是整间店都是卖	-0.0275214
-5.681002	什么工都好	-0.0275214
-5.681002	什么很漂亮	-0.1060018
-5.681002	什么我就不大清楚咯那个	-0.0275214
-5.379972	什么是	-0.2835142
-4.835904	什么样	-0.5987491
-4.1247	什么的	-0.345477
-5.681002	什么类型的	-0.0275214
-5.681002	什么药	-0.1168084
-5.681002	什么还不错啦	-0.0275214
-5.681002	什么这样子咯	-0.06635585
-5.681002	什么这样的都有	-0.0275214
-5.681002	什么那些保健	-0.06635585
-5.681002	什么那种哇开始都三块了很多那种	-0.0275214
-5.681002	什么都是要飞往那边去咯	-0.06635585
-5.681002	什么都看到清清楚楚	-0.1168084
-5.681002	什么都要要要管啊可是	-0.0275214
-5.681002	什么鬼的不会	-0.0275214
-5.681002	什麼鬼這樣	-0.1148485
-5.681002	仁	-0.116764
-5.681002	仁慈	-0.06635585
-5.203881	仆人	-0.01249722
-5.078942	今	-0.2229624
-3.800189	今天	-0.1504192
-5.681002	今天我	-0.0275214
-3.627924	今年	-0.1827084
-5.681002	今年他的我知道	-0.06635585
-5.681002	今年会比较多	-0.0275214
-5.681002	今年会比较好	-0.1168084
-5.681002	今年年尾会出嘛	-0.06635585
-5.681002	今年很多	-0.0275214
-5.681002	今年我们就	-0.0275214
-5.681002	今年没有去啦都是	-0.0275214
-5.681002	今年的	-0.0275214
-5.681002	今年的话今年年头你可以看到	-0.0275214
-5.681002	今年这十二月的时候我会带孩子下去	-0.0275214
-4.63961	今晚	-0.01277262
-5.681002	今晚就没有人回家了	-0.06635585
-4.777912	介意	-0.1129311
-4.162488	介绍	-0.01081821
-5.681002	仍然	-0.1061614
-3.226157	从	-0.2851888
-5.681002	从七百多到第二年现在八百多块咯	-0.114673
-4.777912	从中	-0.05934277
-5.681002	从中国就是由那个	-0.0275214
-5.681002	从九点做到六点	-0.06635585
-5.203881	从事	-0.2675666
-5.681002	从他监狱第	-0.1060018
-4.982032	从头	-0.3181836
-5.681002	从头到尾	-0.1134878
-5.681002	从头来过这样	-0.1162476
-5.681002	从好到坏啦	-0.06635585
-5.681002	从它的	-0.0275214
-4.078942	从小	-0.2779395
-4.902851	从小到大	-0.05355565
-5.681002	从很多的不同的	-0.0275214
-5.681002	从新	-0.1145729
-4.601821	从来	-0.4208489
-5.681002	从那个飞机想要爬着出去了啊	-0.06635585
-5.681002	从那边手续了嘛要去	-0.0275214
-5.681002	从那边走出来就是有那个	-0.0275214
-5.681002	从那里来怎样怎样他	-0.0275214
-5.681002	仓	-0.1168075
-5.681002	仔	-0.1165467
-5.681002	仔就可以了	-0.06635585
-5.379972	仔细	-0.1148285
-1.948046	他	-0.4031909
-5.681002	他三十多岁了他也是有跟我们讲他现在再不拼的话就没有得再拼了他讲他以前他在	-0.0275214
-5.681002	他不会很	-0.0275214
-5.681002	他不会自己自动自发拿书出来读的咯	-0.06635585
-5.681002	他不会讲你你的	-0.0275214
-5.681002	他不可能讲说	-0.1060018
-5.681002	他不想要供到很辛苦这样啦然后就每个月那个钱就拿来供屋子又不能享受	-0.1060018
-5.681002	他不拿全部	-0.0275214
-5.681002	他不是	-0.0275214
-5.681002	他不是啊就是在海那边咯那个杂志介绍是讲它是耶稣的十二个门徒啊	-0.06635585
-5.681002	他不是用	-0.0275214
-5.681002	他不是讲说你还是需要	-0.0275214
-5.681002	他不用再把这个	-0.0275214
-5.681002	他不知道几岁的时候啊	-0.1168084
-5.681002	他不给的	-0.1148485
-5.681002	他不要咯	-0.06635585
-5.681002	他不过他们那边辣椒很好吃我觉得	-0.06635585
-5.681002	他不需要用到这么大这么多的	-0.0275214
-5.681002	他东西是放	-0.0275214
-5.681002	他之前有去	-0.06635585
-5.681002	他也会牵涉到那些	-0.0275214
-5.681002	他也出给你咯	-0.06635585
-5.681002	他也是	-0.0275214
-5.681002	他也是叫你做这个做那个	-0.0275214
-5.681002	他也是哦	-0.1168084
-5.681002	他也是开始	-0.0275214
-5.681002	他也是很彷徨	-0.0275214
-5.681002	他也是有他那种	-0.0275214
-5.681002	他也是有出他的	-0.0275214
-5.681002	他也是觉得像	-0.1060018
-5.681002	他也是讲这个	-0.06635585
-5.681002	他也是说可以跟你自己	-0.06635585
-5.681002	他也有做但他都在里面都是	-0.1168075
-5.681002	他也有时候	-0.06635585
-5.681002	他也觉得那个	-0.0275214
-5.681002	他乡	-0.1163029
-5.681002	他买下	-0.0275214
-5.681002	他买的全部好像	-0.0275214
-5.681002	他买的全部都是	-0.0275214
-5.681002	他买的时候是三百块啊	-0.0275214
-4.33858	他人	-0.1066483
-5.681002	他他他们的	-0.0275214
-5.681002	他他他们的那个	-0.0275214
-5.681002	他他他们这几个公司在玩着罢了只是他	-0.0275214
-5.379972	他他们	0.03531874
-5.681002	他他们已经不能讲说会	-0.0275214
-5.681002	他他们是	-0.06635585
-5.681002	他他们有很大我可以看得到啦他们	-0.06635585
-5.681002	他他们的	-0.0275214
-5.681002	他他们讲啦如果用啊这个是什么手啊	-0.0275214
-5.681002	他他在教书期间不可以拿	-0.0275214
-5.681002	他他就好像从	-0.0275214
-5.681002	他他现在我们刚刚有	-0.1060018
-5.681002	他他用这个	-0.0275214
-5.681002	他他的酱有辣有酸的很好吃咯	-0.06635585
-5.681002	他他跟他朋友打算要去	-0.0275214
-2.10941	他们	-0.4159276
-5.681002	他们三个人讲话	-0.06635585
-5.681002	他们上那个	-0.0275214
-5.681002	他们不	-0.1156962
-5.681002	他们不不可以	-0.0275214
-5.681002	他们不久不久他们会买好像他们还没有买大批地进来	-0.0275214
-5.379972	他们不会	-0.2835142
-5.681002	他们不会相信你讲的东西是	-0.0275214
-5.681002	他们不会说做	-0.0275214
-5.681002	他们不只是做	-0.0275214
-5.681002	他们不可以	-0.1060018
-5.681002	他们不可以知道啦	-0.06635585
-5.681002	他们不同然后我们只是	-0.0275214
-5.681002	他们不大要在啊	-0.0275214
-5.681002	他们不应该就是说	-0.06635585
-5.681002	他们不懂里面那个制制作片那边的人好像是有问题发生问题他只拍不懂七集罢了	-0.06635585
-5.681002	他们不用做	-0.0275214
-5.681002	他们不知道	-0.1168084
-5.681002	他们不知道中国啊最近好像是要去跟那个	-0.06635585
-5.681002	他们不知道他们	-0.1099035
-5.681002	他们不给钱你也不能做	-0.06635585
-5.379972	他们不要	-0.2835142
-5.681002	他们不要在	-0.0275214
-5.681002	他们不需要	-0.1168084
-5.681002	他们两个也是很恩爱啦是迟早的事情罢了啦只是丽君会	-0.0275214
-5.681002	他们两千多每	-0.1060018
-5.681002	他们之间那个打架咯	-0.1137249
-5.681002	他们也	-0.0275214
-5.681002	他们也已有卖了	-0.0275214
-5.379972	他们也是做	-0.2835142
-5.681002	他们也是有很大	-0.0275214
-5.681002	他们也是有时觉得不够用他们可能是拿来	-0.0275214
-5.681002	他们也是需要我	-0.1099035
-5.681002	他们也算是很	-0.0275214
-5.681002	他们买东西啊	-0.0275214
-5.681002	他们买东西很恐怖啊	-0.06635585
-5.681002	他们买是从中国中国蛮便宜啊可是	-0.0275214
-5.681002	他们二十个我是讲就说	-0.06635585
-5.681002	他们介绍的也是蛮不错	-0.1060018
-5.681002	他们他们不	-0.1060018
-5.681002	他们他们会	-0.0275214
-5.681002	他们他们整年就会啊	-0.1168084
-5.681002	他们他们的那种庙很多咯	-0.06635585
-5.681002	他们他们走过的路	-0.0275214
-4.601821	他们会	-1.024655
-5.681002	他们会他们有	-0.0275214
-5.681002	他们会写自己喜欢的东西出来给自己用嘛	-0.06635585
-5.681002	他们会去	-0.0275214
-5.681002	他们会去量他们的手	-0.06635585
-5.681002	他们会啊	-0.0275214
-5.681002	他们会在	-0.0275214
-5.681002	他们会慢慢爬上去咯	-0.06635585
-5.681002	他们会收进	-0.1060018
-5.681002	他们会放那种	-0.0275214
-5.203881	他们会有	-0.167198
-5.681002	他们会有做	-0.1060018
-5.681002	他们会有跟	-0.0275214
-5.681002	他们会来	-0.0275214
-5.681002	他们会比	-0.0275214
-5.681002	他们会比较	-0.0275214
-5.681002	他们会用	-0.0275214
-5.681002	他们会用嘛	-0.06635585
-5.681002	他们会用在	-0.0275214
-5.681002	他们会看就是他们的	-0.0275214
-5.681002	他们会给	-0.0275214
-5.681002	他们会给的	-0.0275214
-5.681002	他们会讲说可能给日本	-0.06635585
-5.681002	他们会跟你讲	-0.0275214
-5.681002	他们会送	-0.0275214
-5.681002	他们会问	-0.0275214
-5.379972	他们做	-0.2835142
-5.681002	他们做了	-0.06635585
-5.681002	他们做了应该超过二十多年也是做	-0.0275214
-5.681002	他们做刀的办法	-0.06635585
-5.681002	他们做到了他们才	-0.0275214
-5.681002	他们做到怎样了那个	-0.06635585
-5.681002	他们做好了啦	-0.1168011
-5.681002	他们做的时候有	-0.0275214
-5.681002	他们做的自己的	-0.0275214
-5.681002	他们做那些	-0.0275214
-5.681002	他们公司正式分四个	-0.0275214
-5.681002	他们公司的	-0.06635585
-5.681002	他们再	-0.0275214
-5.681002	他们写	-0.0275214
-5.681002	他们准备的我们才	-0.0275214
-5.681002	他们几千架电脑	-0.0275214
-5.681002	他们出去做工啦	-0.06635585
-5.681002	他们分成三三大部分咯	-0.1060018
-5.681002	他们分那个	-0.0275214
-5.681002	他们刚开始如果比如讲那窃匪他们要求他们有什么要求的话	-0.06635585
-5.681002	他们到底心态是怎样	-0.06635585
-5.681002	他们动作会怎样的他们站	-0.06635585
-5.681002	他们卖了很多海鲜在那里	-0.06635585
-5.681002	他们卖这个	-0.0275214
-4.601821	他们去	-0.1791957
-5.681002	他们去做的那些	-0.0275214
-5.681002	他们去照顾咯	-0.06635585
-5.681002	他们去用	-0.06635585
-5.681002	他们去美国或者是去日本拿回来卖的你知道吗	-0.06635585
-5.681002	他们又会讲英文哦	-0.0275214
-5.681002	他们只学	-0.06635585
-5.681002	他们只是给我们看的是	-0.0275214
-5.681002	他们只有他们的	-0.0275214
-5.078942	他们叫	-0.2403959
-5.681002	他们叫作	-0.06635585
-5.681002	他们叫来看他们谁要做这个工作他们请他们做工	-0.1168084
-5.681002	他们可以	-0.0275214
-5.681002	他们可以以广告咯或者人家投资进去咯可能他们觉得这个行可以做或者他们写	-0.0275214
-5.681002	他们可以做	-0.0275214
-5.681002	他们可以在工作那边按那个	-0.0275214
-5.681002	他们可以容纳我看五六千架	-0.0275214
-5.681002	他们可以降低他们的成本咯	-0.06635585
-5.681002	他们可能	-0.0275214
-5.681002	他们可能会	-0.0275214
-5.681002	他们可能写	-0.1060018
-5.681002	他们可能是要写那些	-0.0275214
-5.681002	他们可能比较	-0.0275214
-5.681002	他们可能用那些咯	-0.0275214
-5.681002	他们可能要去写	-0.1060018
-5.681002	他们吃到很多有些	-0.0275214
-5.681002	他们吃到很少	-0.06635585
-5.203881	他们咯	-0.4942411
-5.681002	他们唱歌咯那些那些	-0.0275214
-4.982032	他们啊	-0.1540679
-5.681002	他们啊有什么地点是	-0.0275214
-5.681002	他们啦可能会给你们住	-0.06635585
-5.681002	他们喝水多然后	-0.06635585
-5.681002	他们嘛	-0.06635585
-5.681002	他们嘛因为	-0.06635585
-5.681002	他们嘛自己找咯讲说那里的	-0.0275214
-5.681002	他们因为我们公司都是从	-0.0275214
-5.681002	他们国家的啊	-0.06635585
-5.379972	他们在	-0.2835142
-5.681002	他们在什么时间打进来	-0.06635585
-5.681002	他们在工作那边他们忘记关了	-0.0275214
-5.681002	他们在那个	-0.0275214
-5.681002	他们在那边不是用他们	-0.1060018
-5.681002	他们坐了那个脚又伸在外那个窗口外面的啊可是很爽哦	-0.06635585
-5.681002	他们填海要	-0.0275214
-5.681002	他们外国是有请那些	-0.0275214
-5.681002	他们多他有些公司啦	-0.06635585
-5.681002	他们大公司要做	-0.0275214
-5.681002	他们大多数有	-0.0275214
-5.681002	他们大多数都留长发咯然后	-0.06635585
-5.681002	他们大概就是讲	-0.0275214
-5.681002	他们好像	-0.0275214
-5.379972	他们好像是	0.03531874
-5.681002	他们好像有那种	-0.0275214
-5.681002	他们好像看到你穿那种短裤啊或者是短裙啊他们就会要你围着那个	-0.0275214
-5.681002	他们学	-0.0275214
-5.681002	他们学的	-0.0275214
-5.681002	他们学的东西也不同的他们的	-0.0275214
-5.681002	他们尤其是做	-0.0275214
-3.580632	他们就	-0.2214153
-5.681002	他们就不知道喔	-0.1168084
-5.681002	他们就不要	-0.0275214
-4.835904	他们就会	-0.3224624
-5.681002	他们就会去读书	-0.1168084
-5.681002	他们就会啊	-0.1119205
-5.681002	他们就会啊送货咯	-0.1134203
-5.681002	他们就会安排那些	-0.0275214
-5.681002	他们就会帮他咯	-0.06635585
-5.681002	他们就会开始要给什么药	-0.06635585
-5.681002	他们就会忘放在我们的啊	-0.0275214
-5.681002	他们就会拿拿	-0.1060018
-5.681002	他们就会放这个	-0.0275214
-5.681002	他们就会教你咯	-0.06635585
-5.681002	他们就会有他们的不同的	-0.0275214
-5.681002	他们就会比较麻烦是很难	-0.0275214
-5.681002	他们就会看到那个	-0.0275214
-5.681002	他们就会给	-0.0275214
-5.681002	他们就会觉得啊	-0.0275214
-5.681002	他们就会请那些好像	-0.06635585
-5.681002	他们就会问你为什么你会少过	-0.06635585
-5.681002	他们就会问你哦你的	-0.0275214
-5.681002	他们就吃掉那个	-0.0275214
-5.681002	他们就很喜	-0.06635585
-5.379972	他们就是	-0.2835142
-5.681002	他们就是不会给你学	-0.0275214
-5.681002	他们就是代表私人的啊	-0.1099035
-5.681002	他们就是好像	-0.1060018
-5.681002	他们就是那个四大	-0.0275214
-5.681002	他们就是里面你可以玩	-0.0275214
-5.681002	他们就有	-0.1060018
-5.681002	他们就有这样子的	-0.0275214
-5.681002	他们就比较	-0.0275214
-5.681002	他们就给你	-0.0275214
-5.681002	他们就能了	-0.06635585
-5.681002	他们就要先进	-0.0275214
-5.681002	他们就讲	-0.06635585
-5.681002	他们就说因为他们的	-0.0275214
-5.681002	他们就说大众化嘛他价钱要大众化嘛然后就说他卖的他卖的产品就说有有时候可能	-0.06635585
-5.681002	他们就诶会啊	-0.1168084
-5.681002	他们就跟我讲了他们是讲	-0.0275214
-5.681002	他们就过去	-0.06635585
-5.681002	他们屋子很美的然后他们的风景也是很美咯	-0.06635585
-5.379972	他们已经	-0.2835142
-5.681002	他们已经这种那种	-0.0275214
-5.681002	他们常常用的	-0.0275214
-5.681002	他们弄得你觉得会看起来很想真的哪	-0.1060018
-5.379972	他们很	-0.2835142
-5.681002	他们很喜欢去法国去做	-0.0275214
-5.681002	他们很喜欢放	-0.0275214
-5.681002	他们很多东西要做所以他们做	-0.0275214
-5.681002	他们很多那些	-0.0275214
-5.681002	他们很比较难	-0.0275214
-5.681002	他们很虔诚的	-0.0275214
-5.681002	他们怎样去	-0.0275214
-5.681002	他们怕	-0.0275214
-5.681002	他们成绩会比较好咯	-0.1168084
-5.681002	他们我们是全部都是	-0.0275214
-5.681002	他们我看他们做	-0.0275214
-5.681002	他们才会在这个做刀的里面才会有	-0.1060018
-5.681002	他们才刚	-0.0275214
-5.681002	他们才可以请人	-0.06635585
-5.681002	他们才早上	-0.06635585
-5.681002	他们打电话进来	-0.06635585
-5.681002	他们打算也是要做这个东西	-0.0275214
-5.681002	他们找那团队因为他们是自己本身	-0.0275214
-5.681002	他们抓不好	-0.1168084
-5.681002	他们接受我的	-0.0275214
-5.681002	他们政府的旅行团的	-0.0275214
-5.681002	他们教他们	-0.06635585
-3.367135	他们是	-0.1877665
-5.681002	他们是专	-0.06635585
-5.681002	他们是从猪里面拿出来	-0.06635585
-5.681002	他们是他们讲读越高越好不是说越读越好就是讲啊	-0.06635585
-5.681002	他们是会请公司那些人比如讲有些他们的公司他们会有专门那些人就说特地去	-0.0275214
-5.681002	他们是分	-0.0275214
-5.681002	他们是前面有十个人而已但是我们看来好像有百多个人	-0.06635585
-5.681002	他们是叫	-0.0275214
-5.681002	他们是可以给你去	-0.0275214
-5.681002	他们是可能是拿来	-0.0275214
-5.681002	他们是啊	-0.06635585
-5.681002	他们是大多数	-0.0275214
-5.681002	他们是学	-0.0275214
-5.681002	他们是很鼓励	-0.0275214
-5.681002	他们是有分两有三大类咯	-0.1060018
-5.681002	他们是有啊里面有也是有剪头发的店啊面包店啊	-0.0275214
-5.379972	他们是用	-0.2835142
-5.681002	他们是用在	-0.0275214
-5.681002	他们是礼	-0.0275214
-5.681002	他们是给	-0.1060018
-5.681002	他们是认为说你在那个	-0.06635585
-5.681002	他们是讲	-0.0275214
-5.681002	他们是讲说会比较难	-0.1060018
-5.681002	他们是走	-0.1060018
-5.681002	他们是跟那些	-0.0275214
-5.681002	他们是还没有做到还是不能	-0.0275214
-5.681002	他们普通买	-0.0275214
-5.681002	他们最少	-0.1060018
-5.681002	他们最新的啊	-0.0275214
-4.33858	他们有	-0.990364
-5.681002	他们有三十多千架	-0.0275214
-5.681002	他们有个	-0.0275214
-5.681002	他们有些	-0.0275214
-5.681002	他们有些不同不同的地方的人很喜	-0.1163238
-5.681002	他们有些他们是要你有	-0.0275214
-5.681002	他们有些在	-0.0275214
-5.379972	他们有分	-0.2835142
-5.681002	他们有分得很	-0.0275214
-5.681002	他们有可以	-0.1168084
-5.681002	他们有好像	-0.06635585
-5.681002	他们有很多	-0.0275214
-5.681002	他们有很多不同的	-0.0275214
-5.681002	他们有很多个	-0.0275214
-5.681002	他们有打进	-0.06635585
-5.681002	他们有时会讲话啦	-0.0275214
-5.681002	他们有时候不知道真正的	-0.0275214
-5.681002	他们有时就是有我们	-0.0275214
-5.681002	他们有没有	-0.0275214
-5.681002	他们有现在有买两种	-0.0275214
-5.681002	他们有用	-0.1060018
-5.681002	他们有确实有时候是会有点跟不上啦	-0.06635585
-5.681002	他们有给他们	-0.1060018
-5.681002	他们有给几个	-0.0275214
-5.681002	他们有自己的	-0.06635585
-5.681002	他们有自己的那个	-0.0275214
-5.681002	他们有跟他们讲那边有	-0.1060018
-5.681002	他们有这个	-0.0275214
-5.681002	他们有这个啊	-0.06635585
-5.681002	他们有那些那种好像	-0.0275214
-5.681002	他们来了就是	-0.1166897
-5.681002	他们来的时候也是有	-0.1060018
-5.681002	他们来讲应该是早上七点到傍晚七点	-0.06635585
-5.203881	他们每	-0.533887
-5.681002	他们每年	-0.06635585
-5.681002	他们比较他们	-0.0275214
-5.681002	他们比较好用很多个不	-0.1060018
-4.982032	他们没有	-0.6965993
-5.681002	他们没有包括我	-0.1168065
-5.681002	他们没有啊	-0.0275214
-5.681002	他们没有善用他们的什么	-0.1168084
-5.681002	他们没有放	-0.0275214
-5.681002	他们没有教书没有做什么了的	-0.06635585
-5.681002	他们没有用	-0.0275214
-5.681002	他们没有申请过来这边	-0.06635585
-5.681002	他们没有给我啦我只是可能他们他们去	-0.0275214
-5.681002	他们没有讲到他们能不能	-0.0275214
-5.681002	他们没有过	-0.0275214
-5.379972	他们没有这样的	-0.2835142
-5.681002	他们没有那	-0.0275214
-5.681002	他们现在	-0.0275214
-4.982032	他们用	-0.6965993
-5.681002	他们用两	-0.0275214
-5.681002	他们用很多种	-0.0275214
-5.681002	他们用这东西是讲他们可以在	-0.0275214
-5.681002	他们用那个	-0.0275214
-5.681002	他们电脑要修理的话有问题的话他们先要	-0.0275214
-2.904301	他们的	-0.4197244
-5.681002	他们的东西	-0.0275214
-5.681002	他们的修理电脑的部门	-0.06635585
-5.681002	他们的名字	-0.06635585
-4.835904	他们的啊	-0.1666518
-5.681002	他们的国家的啊出产的东西	-0.06635585
-5.681002	他们的小吃	-0.06635585
-5.681002	他们的小吃也蛮不错	-0.0275214
-5.681002	他们的小吃咯	-0.1168084
-5.681002	他们的小街全部	-0.1167604
-5.681002	他们的律师很厉害	-0.06635585
-5.681002	他们的思想会比较不	-0.1060018
-5.681002	他们的我觉得他们思想比较开放啦	-0.06635585
-5.681002	他们的拜神啦他们	-0.06635585
-5.681002	他们的时候勒	-0.1168084
-5.681002	他们的时间啊	-0.0275214
-5.681002	他们的是	-0.0275214
-5.681002	他们的是比较干干这样的然后而且他们的鸭味没有这样重	-0.06635585
-5.681002	他们的每个	-0.0275214
-5.681002	他们的比较那个他们的	-0.0275214
-5.681002	他们的没有讲过	-0.1134203
-5.681002	他们的牌子咯	-0.0275214
-5.681002	他们的牌子因为牌子对	-0.1167631
-5.681002	他们的生活也不好所以他们做工真的很	-0.0275214
-5.681002	他们的老师	-0.06635585
-5.681002	他们的英文太深了然后有那种	-0.0275214
-5.681002	他们的薪水就可以买的到了	-0.06635585
-5.681002	他们的衣服是怎样的咯他们会站在那里咯	-0.06635585
-5.681002	他们的衣服透明的喔	-0.06635585
-5.681002	他们的衣服鞋咯	-0.1168084
-5.681002	他们的跑步的	-0.0275214
-5.681002	他们的这个玩具啊衣服啊全部都也是没有过	-0.0275214
-5.203881	他们的那个	-0.4554066
-5.681002	他们的那边的	-0.0275214
-5.681002	他们的钱二十多千等于我们的八块咯	-0.06635585
-5.681002	他们的鹦鹉啊那些东西到完啊	-0.06635585
-5.681002	他们目的是要那些	-0.0275214
-5.681002	他们直接	-0.0275214
-5.681002	他们真的很需要这个	-0.0275214
-5.681002	他们真的是真的是很那个	-0.0275214
-5.681002	他们科学团队医学团队他们会就说	-0.06635585
-5.681002	他们穿的衣服也不	-0.1060018
-5.681002	他们算很贵然后	-0.06635585
-5.681002	他们给	-0.1060018
-5.681002	他们给他	-0.06635585
-5.681002	他们老了	-0.0275214
-5.681002	他们能做出好像	-0.0275214
-5.681002	他们能接受你的	-0.0275214
-5.681002	他们自己	-0.1168084
-5.379972	他们自己的	-0.2835142
-4.681002	他们要	-1.02752
-5.681002	他们要东西咯我觉得这	-0.0275214
-5.681002	他们要买	-0.0275214
-5.681002	他们要做生意他们是来	-0.0275214
-5.681002	他们要做赚钱嘛这个是商业的东西嘛	-0.06635585
-5.681002	他们要出	-0.1060018
-5.681002	他们要去啊	-0.0275214
-5.681002	他们要啊赶	-0.0275214
-5.681002	他们要工作	-0.1168084
-5.681002	他们要怎样飞怎样	-0.1151522
-5.681002	他们要有讲说至少要有两个	-0.0275214
-5.681002	他们要比较	-0.0275214
-5.681002	他们要给钱才去放他们的	-0.0275214
-5.681002	他们要送	-0.1060018
-5.681002	他们要降低成本的话哦	-0.1134203
-5.681002	他们觉得就是很不错哪	-0.1060018
-5.078942	他们讲	-0.5527235
-5.681002	他们讲三个	-0.0275214
-5.681002	他们讲他不知道凌晨四点半就要起来	-0.06635585
-5.681002	他们讲大概有五巴仙至十巴仙里面	-0.0275214
-5.681002	他们讲已经	-0.0275214
-5.681002	他们讲应该是在二零	-0.1060018
-5.681002	他们讲很难做得到了其实	-0.0275214
-5.681002	他们讲我们其实	-0.0275214
-5.681002	他们讲是买那个比较大个啊的	-0.0275214
-5.681002	他们讲是便宜的货	-0.06635585
-5.681002	他们讲比较	-0.0275214
-5.681002	他们讲的	-0.0275214
-5.681002	他们讲给你	-0.0275214
-5.681002	他们讲说是	-0.0275214
-5.681002	他们请的时候放这样高的	-0.0275214
-5.681002	他们走久了	-0.0275214
-5.681002	他们跟	-0.0275214
-5.681002	他们还可以很	-0.0275214
-5.681002	他们还有那个小世界啊	-0.1168084
-5.379972	他们还要	-0.2835142
-5.681002	他们这些	-0.0275214
-5.681002	他们这些都是很	-0.0275214
-5.681002	他们这样子	-0.06635585
-5.681002	他们这边又不	-0.1060018
-5.681002	他们那个大人	-0.0275214
-5.681002	他们那些	-0.0275214
-5.681002	他们那边	-0.0275214
-5.681002	他们那边好像在	-0.0275214
-5.681002	他们那边有那些什么	-0.0275214
-5.681002	他们那边的香港哦	-0.1168084
-5.379972	他们都	-0.2835142
-5.681002	他们都会有	-0.0275214
-5.379972	他们都是	-0.2835142
-5.681002	他们都是很老了的	-0.06635585
-5.681002	他们都是有问题在英文方面教书	-0.06635585
-5.681002	他们都是那些	-0.06635585
-5.681002	他们都有想到他那个人	-0.1168084
-5.681002	他们都有这个啊	-0.0275214
-5.681002	他们醒了	-0.1137249
-5.681002	他们重复这种就是已经在暗示着你了你就私低下再给他得	-0.0275214
-5.681002	他们问他们要不要去越南	-0.06635585
-5.681002	他们问你的话你为什么之前在那边做	-0.1060018
-5.681002	他们需要做啊这个这个	-0.0275214
-5.681002	他们需要用	-0.0275214
-5.681002	他们需要这个	-0.0275214
-5.681002	他们需要这个这个这个	-0.0275214
-5.681002	他价钱	-0.06635585
-4.72676	他会	-0.3528829
-5.681002	他会作	-0.0275214
-5.681002	他会出好像我们有如果它能	-0.0275214
-5.681002	他会回来咯	-0.0275214
-5.681002	他会坐在那边	-0.0275214
-5.681002	他会有大概有三个	-0.0275214
-5.681002	他会看着你做什么	-0.06635585
-5.681002	他会经过这样你会觉得	-0.0275214
-5.681002	他会自动的	-0.06635585
-5.681002	他会跟着不同不同的	-0.0275214
-5.681002	他但是我没有跟他讲话	-0.06635585
-5.681002	他体会不到	-0.0275214
-5.681002	他作品哦他老师	-0.1168084
-5.681002	他作应该是不错吧因为啊有	-0.0275214
-5.681002	他們知道整個	-0.0275214
-5.681002	他們要	-0.0275214
-5.681002	他做他的	-0.0275214
-5.681002	他先	-0.0275214
-5.379972	他全部	-0.2835142
-5.681002	他其实他们的啊女孩子在那边啊没有怎样	-0.0275214
-5.681002	他其实是每每天在变得啦那个	-0.0275214
-5.681002	他写的字咯比较看的出比较	-0.0275214
-5.681002	他出	-0.0275214
-5.681002	他出来的效果很不错咯	-0.06635585
-5.681002	他到最后还有	-0.1060018
-5.681002	他十月中才回来	-0.06635585
-5.681002	他原本开价要多少钱了啊	-0.0275214
-5.681002	他去	-0.0275214
-5.681002	他去八天	-0.06635585
-5.681002	他去咯	-0.06635585
-5.681002	他去帮人家拍	-0.0275214
-5.681002	他去看	-0.1060018
-5.681002	他又介绍我这个	-0.0275214
-5.681002	他又去台北又去花莲好像是	-0.1168084
-5.681002	他又想回以前的哥哥死掉	-0.1168084
-5.681002	他又拿不同的例子来跟我顶顶然后我要本来我要反回他我要跟他讲	-0.06635585
-5.681002	他又这样讲喔很好笑然后我跟他拿	-0.1060018
-5.681002	他只是好像我们家煮的苦瓜也可以	-0.06635585
-5.681002	他只是用他们自己用罢了看他们买看他们买几套咯	-0.06635585
-5.681002	他只是给	-0.0275214
-5.681002	他只是给男生碰而已	-0.06635585
-5.379972	他只是说	0.03531874
-5.681002	他只是这样画出来罢了	-0.06635585
-5.681002	他叫我们	-0.0275214
-5.681002	他叫我们打电话进来叫我们	-0.0275214
-5.681002	他叫我去	-0.0275214
-5.681002	他叫我去拿下来就好了	-0.06635585
-5.681002	他叫我帮忙然后但是刚刚	-0.0275214
-5.379972	他可以	-0.02752029
-5.681002	他可以了	-0.06635585
-5.681002	他可以做到	-0.0275214
-5.681002	他可以做到两个	-0.0275214
-5.681002	他可以在这可以这边跟你讲说是啊	-0.06635585
-5.681002	他可以搞他可以背到我很我很	-0.06635585
-5.681002	他可以这样没有人教他那时候还没有去正统的	-0.0275214
-5.379972	他可能	-0.2835142
-5.681002	他可能他不是讲整个好像整个	-0.0275214
-5.681002	他可能挖挖挖那些地给他知道有路这样给人跑	-0.06635585
-5.681002	他可能是他们会	-0.0275214
-5.681002	他可能是啊	-0.1060018
-5.681002	他可能有个	-0.0275214
-5.681002	他可能要给	-0.1060018
-5.681002	他可能那个	-0.0275214
-5.681002	他吃都是吃	-0.0275214
-5.681002	他吗	-0.1168084
-5.203881	他咯	-0.1176704
-5.681002	他哥哥死掉	-0.1137842
-5.681002	他唱高音他都拉的到	-0.06635585
-5.681002	他啊	-0.1168084
-5.681002	他啊不大清楚咯他很少跟我们解释	-0.06635585
-5.681002	他啊他是有自己的那个	-0.0275214
-5.681002	他因为他	-0.0275214
-5.681002	他因为他很啊	-0.0275214
-5.681002	他因为去的	-0.0275214
-5.078942	他国	-0.6418674
-3.655696	他在	-0.2868778
-5.681002	他在教他们了解咯	-0.0275214
-5.681002	他在这边就是他讲不管你	-0.0275214
-5.379972	他在那边	-0.1127346
-5.681002	他在那边了他打算要去	-0.06635585
-5.681002	他在那边其实他在	-0.0275214
-5.681002	他坐那个	-0.0275214
-5.681002	他基本上	-0.1060018
-5.681002	他大概三十多岁这样他不会骗你咯如果你不要	-0.06635585
-5.681002	他女方的	-0.0275214
-5.681002	他好像	-0.0275214
-5.681002	他好像不是我们自己的	-0.0275214
-5.681002	他好像他有去	-0.0275214
-5.681002	他好像是他以前	-0.06635585
-5.681002	他好像是通过那个	-0.0275214
-5.681002	他好像第	-0.0275214
-5.681002	他好是他好是啊不用造成就是有生命再遗失就是这样没有掉	-0.06635585
-5.681002	他对照顾你的儿子啦比如说如果你有的话啊	-0.06635585
-5.078942	他就	-0.3001674
-5.681002	他就不会中了	-0.06635585
-5.681002	他就不用自己这个按	-0.1060018
-5.681002	他就不能教我	-0.06635585
-5.078942	他就会	-0.5527235
-5.681002	他就会叫我帮可是很少很少	-0.06635585
-5.681002	他就会就说出这样的	-0.1060018
-5.681002	他就会扣咯从	-0.1060018
-5.681002	他就会给	-0.0275214
-5.681002	他就假假要靠近要去插在那个前面了你知道吗	-0.1168084
-5.681002	他就叫不	-0.1168084
-5.681002	他就叫你赔几个月或者是叫你赔回那个	-0.0275214
-5.681002	他就叫我们	-0.1164307
-5.681002	他就可以提供你营养咯然后你	-0.0275214
-5.681002	他就帮你擦那个你可以选择要	-0.0275214
-5.681002	他就打进去那边了	-0.1168084
-5.681002	他就扣了两年就是我剩下八年还完	-0.06635585
-5.681002	他就把你	-0.0275214
-5.681002	他就拖很长了	-0.1168084
-5.379972	他就是	-0.02752029
-5.681002	他就是单单全部是你不需要	-0.0275214
-5.681002	他就是好像他分他的	-0.0275214
-5.681002	他就是放那	-0.0275214
-5.681002	他就是有	-0.1168084
-5.681002	他就是讲比如讲啊因为我们	-0.0275214
-5.681002	他就是讲直销嘛	-0.0275214
-5.681002	他就有	-0.0275214
-5.681002	他就照你的肚子有时要在你肠	-0.06635585
-5.681002	他就用那个	-0.0275214
-5.681002	他就直接做他	-0.0275214
-5.681002	他就给他	-0.0275214
-5.681002	他就给我走	-0.06635585
-5.681002	他就要知道那	-0.0275214
-5.681002	他就讲	-0.0275214
-5.681002	他就讲华语咯	-0.06635585
-5.681002	他就说因为	-0.0275214
-5.681002	他就过去咯	-0.1168084
-5.681002	他就进来槟城了	-0.06635585
-5.681002	他就问我做么你的嘴巴开这样大	-0.06635585
-5.681002	他就除	-0.06635585
-5.681002	他已经	-0.0275214
-5.681002	他已经做	-0.0275214
-5.681002	他已经六十多岁了还是教书	-0.06635585
-5.681002	他已经擦到这样的颜色出来我讲哇	-0.06635585
-5.681002	他帮你	-0.0275214
-5.681002	他帮你按摩了你比较爽嘛	-0.06635585
-5.681002	他应该可以放进	-0.0275214
-5.681002	他应该是没有给啦	-0.1168084
-5.681002	他应该还是在	-0.0275214
-5.681002	他弄出来可能他旁边有漏那些	-0.0275214
-5.681002	他很	-0.0275214
-5.681002	他很会唱歌	-0.06635585
-5.681002	他很喜欢看那种	-0.0275214
-5.681002	他很少	-0.0275214
-5.681002	他很想去新加坡咯	-0.06635585
-5.681002	他怎样去找这样的	-0.0275214
-5.681002	他恐龙只是特特定几只罢了没有什么的	-0.06635585
-5.681002	他我可以分	-0.1060018
-5.681002	他才给你就是说转你要读的科系不然他不给你转的	-0.0275214
-5.681002	他才能做那个	-0.0275214
-5.681002	他才能出那个	-0.0275214
-5.681002	他才跟他老板平起平坐哦	-0.06635585
-5.681002	他打到现在他好像换去跟	-0.0275214
-5.681002	他拆到完了嘛然后他起屋子他有起全部不知道有千多方尺也有两千多方尺有两种	-0.0275214
-5.681002	他拔他的	-0.0275214
-5.681002	他招托你有兴趣的话啦你就	-0.0275214
-5.379972	他拿	-0.0142089
-5.681002	他拿到	-0.1158931
-5.681002	他拿进来	-0.0275214
-5.681002	他故事本来	-0.1060018
-2.963332	他是	-0.3776954
-5.681002	他是他因为	-0.0275214
-5.681002	他是他害他们父母	-0.0275214
-5.681002	他是他是	-0.0275214
-5.681002	他是他是卖	-0.1060018
-5.681002	他是他是摄取人体需要的摄取那种营养啦都有在那个血里面了的	-0.06635585
-5.681002	他是做到	-0.06635585
-5.681002	他是其实他是想要捉那些原柱力然后吸取那他那那个力量啊	-0.06635585
-5.681002	他是其实是蛮	-0.0275214
-5.681002	他是华人华人叫生蛇生蛇那种很好	-0.06635585
-5.681002	他是啊这方面的目前他需要很多人才就说	-0.06635585
-5.681002	他是在	-0.06635585
-5.681002	他是在外面烧烘干他的树里面的水	-0.06635585
-5.681002	他是成功救到他哥哥出来	-0.1168084
-5.681002	他是是工作可是你要作有比较好的	-0.0275214
-5.681002	他是有	-0.1060018
-5.681002	他是有但是他是他的	-0.0275214
-5.681002	他是有给我们用但是我们是通过	-0.0275214
-5.681002	他是比较	-0.0275214
-5.681002	他是没有	-0.0275214
-5.681002	他是看	-0.0275214
-5.681002	他是看到咯很多	-0.0275214
-5.681002	他是知道要什么但是他不能讲出来	-0.06635585
-5.681002	他是给你	-0.1060018
-5.681002	他是给我们好像好像	-0.1060018
-5.681002	他是讲	-0.0275214
-5.681002	他是讲两点	-0.0275214
-5.681002	他是讲他要	-0.0275214
-5.379972	他是说	-0.02158906
-5.681002	他是说从中国我也不知道哪	-0.1060018
-5.681002	他是读他现在读那个	-0.0275214
-5.681002	他是通过如果只是	-0.06635585
-5.681002	他是那种	-0.0275214
-4.601821	他有	-0.5729136
-5.681002	他有两种方式咯	-0.0275214
-5.681002	他有他的啊	-0.06635585
-5.681002	他有出钱啦他是	-0.0275214
-5.681002	他有分三种	-0.0275214
-5.681002	他有分那个	-0.0275214
-5.681002	他有叫你换	-0.1060018
-5.681002	他有很多好像你很多	-0.0275214
-5.681002	他有得到奖品的耶不过不是第	-0.1060018
-5.681002	他有我们还有卖	-0.1060018
-5.681002	他有教	-0.1060018
-5.681002	他有教书	-0.1168084
-5.681002	他有时候八点多才出门呢	-0.06635585
-5.681002	他有没有自己店这个我没有问他啦不过他是	-0.0275214
-5.681002	他有现在有上门教补习啦只是	-0.06635585
-5.681002	他有给你穿的那个是好像	-0.0275214
-5.681002	他有给我但是我也是没有时间去	-0.1099035
-5.681002	他有讲过要买三百多千的啦只是	-0.06635585
-5.681002	他有这样讲咯	-0.1165195
-5.681002	他有都有要求不同的啊	-0.0275214
-5.681002	他有问你	-0.1165919
-5.681002	他有问我啦我要跟他	-0.1060018
-5.681002	他本来跟我同样公司的吗	-0.0275214
-5.681002	他本身就是比较喜欢英文	-0.1168084
-5.681002	他本身是	-0.0275214
-5.681002	他本身赚取的	-0.0275214
-5.681002	他架的时候他差点幢到那个	-0.06635585
-5.681002	他正式给他们那些	-0.0275214
-5.681002	他每天	-0.0275214
-5.681002	他每天回家的时候你要帮他	-0.0275214
-5.681002	他比	-0.0275214
-5.681002	他比较	-0.0275214
-5.681002	他比较老了	-0.0275214
-5.681002	他比较麻烦	-0.06635585
-5.681002	他沒有動那個	-0.0275214
-4.902851	他没有	-0.4894383
-5.681002	他没有做买卖的	-0.1168084
-5.681002	他没有像他他没有像其他有讲规定到几个	-0.0275214
-5.379972	他没有关系到啊	0.03531874
-5.681002	他没有去做因为怕说过后因为要算账的时候啊比较麻烦	-0.06635585
-5.681002	他没有去去好像说去	-0.0275214
-5.681002	他没有教	-0.0275214
-5.681002	他没有整个陪我教啊但是	-0.1168084
-5.681002	他没有机会	-0.0275214
-5.681002	他没有用到	-0.0275214
-5.681002	他没有讲多少巴仙他们说很底很不乐观	-0.06635585
-5.681002	他没有里面的骨	-0.06635585
-5.681002	他没有骨	-0.1137249
-5.681002	他派我去	-0.0275214
-5.681002	他派我的	-0.0275214
-5.681002	他现在	-0.1060018
-5.681002	他现在也是	-0.0275214
-5.681002	他现在已经是在别间公司了	-0.1168084
-5.379972	他用	-0.3619946
-5.681002	他用他的	-0.0275214
-2.676251	他的	-0.4227107
-5.681002	他的东西	-0.0275214
-5.681002	他的东西啊	-0.0275214
-5.681002	他的东西很多	-0.06635585
-5.681002	他的东西是做到很美	-0.1168084
-5.681002	他的两粒是	-0.0275214
-5.681002	他的中气很好	-0.06635585
-5.681002	他的产品可以帮助到人咯	-0.06635585
-5.681002	他的他们的那个	-0.1168084
-5.681002	他的他会比	-0.0275214
-5.681002	他的他的	-0.0275214
-5.681002	他的他的薪水会比较高咯就说	-0.06635585
-5.681002	他的价钱硬	-0.06635585
-5.681002	他的儿子看起来应该有五六岁这样咯	-0.06635585
-5.681002	他的先决条件可能是	-0.0275214
-5.681002	他的公司是	-0.0275214
-5.681002	他的公司的东西罢了	-0.06635585
-5.681002	他的动作	-0.06635585
-5.681002	他的厂商产品	-0.06635585
-5.681002	他的啊	-0.0275214
-5.681002	他的声音很	-0.0275214
-5.681002	他的大概他的我们要要的	-0.0275214
-5.681002	他的女儿啊有来找过然后他们有讲要	-0.0275214
-5.681002	他的她的	-0.0275214
-5.681002	他的妈改变去	-0.06635585
-5.681002	他的学生	-0.0275214
-5.681002	他的就说	-0.1060018
-5.681002	他的总部联络的	-0.06635585
-5.681002	他的意思是你拿着	-0.1060018
-5.681002	他的收入是	-0.1060018
-5.681002	他的故事	-0.1060018
-5.681002	他的故事啊哎哟啊	-0.0275214
-5.681002	他的整家人好像都会做	-0.06635585
-5.681002	他的方法是很是很错误的那我跟你讲	-0.06635585
-5.681002	他的时候他会问你问题全部你觉得像你不会	-0.0275214
-5.681002	他的朋友都讲很美咯只是我们有看经过路边他有放那个什么到完我们看了也是觉得不错啦而且它不是很多	-0.0275214
-5.681002	他的标榜这他的标准说	-0.0275214
-5.681002	他的第	-0.1060018
-5.681002	他的要看他的	-0.0275214
-5.078942	他的那个	-0.2899235
-5.681002	他的那个会很广他是	-0.0275214
-5.681002	他的那边的	-0.0275214
-5.681002	他的鱼永远都在那个	-0.0275214
-5.681002	他直接	-0.0275214
-5.681002	他直接就出	-0.1060018
-5.681002	他直接给我两年喏	-0.1168084
-5.681002	他看他哥哥做功课的时候啊他就会自己哦我要做功课	-0.06635585
-5.681002	他看你前面有	-0.1060018
-5.681002	他看你前面有时候我们	-0.06635585
-5.681002	他看到的	-0.1168084
-5.379972	他真的是	-0.2835142
-5.681002	他真的是很会写那个	-0.0275214
-5.681002	他真的有	-0.0275214
-5.681002	他真的画得	-0.1060018
-5.681002	他知道他回去会	-0.1060018
-5.681002	他知道你你有	-0.0275214
-5.681002	他穿比较多的	-0.06635585
-5.681002	他竟然拿	-0.1060018
-5.681002	他第二个他第二句他就问你	-0.0275214
-5.681002	他组织那个老鹰的老鹰团	-0.06635585
-5.681002	他给你租车咯	-0.0275214
-5.681002	他给你自己选咯就是他给你	-0.0275214
-5.681002	他罢了没有	-0.0275214
-5.681002	他能用在哪里	-0.06635585
-5.681002	他自己本身讲他只需要四天	-0.0275214
-5.681002	他自己的啊	-0.0275214
-5.681002	他英文的程度很好	-0.06635585
-5.681002	他装个	-0.0275214
-4.982032	他要	-0.2190167
-5.681002	他要上去要交	-0.0275214
-5.681002	他要他需要做的	-0.06635585
-5.681002	他要做	-0.0275214
-5.681002	他要去学校偷拿东西吃然后啊被老师抓	-0.06635585
-5.681002	他要在那边	-0.0275214
-5.681002	他要怎样讲出来他都可以了	-0.06635585
-5.681002	他要拿	-0.1060018
-5.681002	他要死要死了的这间公司	-0.0275214
-5.681002	他要的	-0.0275214
-5.681002	他要给人还有信心可是以错的方式我觉得因为每每每年你看几十个人拿全	-0.0275214
-5.681002	他要考虑到里面车的人他才可以行动比较激烈	-0.06635585
-5.681002	他要跟你	-0.1060018
-5.681002	他要这种	-0.0275214
-5.681002	他要问回我他反问回我然后他讲他怕我们把他坏的那回去里面的	-0.0275214
-5.203881	他觉得	-0.1176704
-5.681002	他觉得你没有这样的冲劲啦又有孩子的话他们觉得哇可能你没有这样子的拚劲	-0.1137842
-4.835904	他讲	-0.4712187
-5.681002	他讲之前真的很干	-0.06635585
-5.681002	他讲他做到	-0.0275214
-5.681002	他讲他的比较	-0.0275214
-5.681002	他讲你不可以回	-0.0275214
-5.681002	他讲到开心的时候我会笑啊他敢讲到恐怖的时后有	-0.1060018
-5.681002	他讲又不懂	-0.0275214
-5.681002	他讲好像是两个星期过后哦	-0.1168084
-5.681002	他讲如果是找不到的话可能会	-0.0275214
-5.681002	他讲我不需要我们我	-0.0275214
-5.681002	他讲我怎样都不会给你然后他关掉电话是会有这样的人啊这种人都是在新加坡新加坡	-0.0275214
-5.681002	他讲有那个	-0.0275214
-5.681002	他讲槟城他有	-0.1060018
-5.681002	他讲然后我去想想想	-0.06635585
-5.681002	他讲现在没有这样	-0.0275214
-5.681002	他讲的话	-0.06635585
-5.681002	他讲真的是没有人可以做的	-0.1137249
-5.681002	他讲知道你不是	-0.0275214
-5.681002	他讲说哦你不要读的话那时你三十多岁你要读的话就比较很	-0.0275214
-5.681002	他讲说因为	-0.06635585
-5.681002	他讲说这次他希望讲说能用因为	-0.0275214
-3.874822	他说	-0.1454463
-5.681002	他说他叫我有心里准备咯是	-0.1060018
-5.681002	他说我给了钱这就是我的你做什么要拿走他他讲他死都不要还	-0.06635585
-5.681002	他跑了你的	-0.0275214
-5.681002	他跟公司买就说公司给你	-0.0275214
-5.681002	他跟她	-0.0275214
-5.681002	他跟我	-0.1060018
-5.681002	他跟我讲其实马来西亚贪污算好很多了	-0.06635585
-5.379972	他跟我讲有	-0.2835142
-5.681002	他载我回家	-0.06635585
-5.681002	他过后卖六百也是有人跟他买啦那时是在二零零八年的时候	-0.06635585
-5.681002	他还	-0.06635585
-5.681002	他还会有	-0.0275214
-5.681002	他还参加过	-0.06635585
-5.681002	他还是	-0.1168084
-5.681002	他还是做	-0.0275214
-5.681002	他还是和	-0.0275214
-5.681002	他还有他还有很多方面啦有分	-0.0275214
-5.681002	他还没有正式进入第二	-0.0275214
-5.681002	他还没有讲为什么他要我们自己	-0.0275214
-5.681002	他还看着那个动物会跑这样	-0.06635585
-5.681002	他这个是坏人来的	-0.06635585
-5.681002	他选	-0.0275214
-5.681002	他选到你的曲过后他可能就找其他人去填词过后就卖咯就这样	-0.06635585
-5.681002	他那个	-0.0275214
-5.681002	他那个中国翻版的	-0.1168084
-5.681002	他那个厨师	-0.1168084
-5.681002	他那个图画就是有故事的基本上	-0.1168075
-5.681002	他那个是	-0.1060018
-5.681002	他那个是应该是我们	-0.0275214
-5.681002	他那个玩具是根据那个	-0.0275214
-5.681002	他那个薪水真的是可以去到很高	-0.06635585
-5.681002	他那时候	-0.0275214
-5.681002	他都不知道	-0.0275214
-5.681002	他都他们拿的价钱都是	-0.1060018
-5.681002	他问我咯	-0.0275214
-5.681002	他问我读完书了没有	-0.1168002
-5.681002	他问我那味道很难顶你能顶吗他有问我	-0.0275214
-5.681002	他需要	-0.06635585
-5.681002	他需要我们做	-0.1060018
-5.681002	仗	-0.06635585
-4.42573	付	-0.08113056
-4.902851	付出	-0.2666968
-5.681002	付啦	-0.06635585
-4.902851	付钱	-0.006559968
-5.681002	付钱给他们	-0.1168084
-4.189641	仙	-0.04561438
-4.534874	代	-0.2048571
-5.379972	代价	-0.3223487
-5.681002	代替	-0.06635585
-5.681002	代理	-0.1060018
-5.681002	代的那种科技是怎样的形势啊这样子咯	-0.06635585
-4.300791	代表	-0.2872562
-5.681002	令	-0.1129429
-3.297187	以	-0.1094133
-5.379972	以上	-0.3223487
-5.681002	以上嘛他不会给你	-0.0275214
-5.379972	以下	0.03531874
-3.751583	以为	-0.2575522
-5.681002	以为上来	-0.0275214
-4.835904	以为我	-0.09825974
-5.681002	以为骗人吗	-0.06635585
-5.681002	以事业为重的这样	-0.06635585
-5.379972	以内	-0.1094839
-3.054662	以前	-0.3486386
-5.681002	以前他们是	-0.115757
-5.681002	以前前几年的时候那个啊日本的生意是比较好的	-0.06635585
-5.681002	以前啦开	-0.1060018
-5.681002	以前在他们自己的星球	-0.1119855
-5.681002	以前小时候有看就是电视机上的就是	-0.0275214
-5.681002	以前小的时候跟	-0.0275214
-5.681002	以前就能啦不觉得	-0.0275214
-5.681002	以前常常玩那些很多	-0.0275214
-5.379972	以前我	-0.0142089
-5.681002	以前我们做只是很	-0.06635585
-5.681002	以前我没有跑之前已经有人做到八十二	-0.06635585
-5.681002	以前是	-0.0275214
-5.681002	以前是两年罢了	-0.1137249
-5.681002	以前是刚开始好像我记	-0.1168084
-5.681002	以前是我们看不起他的嘛	-0.0275214
-5.681002	以前是租来看	-0.06635585
-5.681002	以前有啦最近都没有了	-0.06635585
-5.681002	以前有学过	-0.1060018
-5.681002	以前有看	-0.1168084
-5.681002	以前的	-0.0275214
-5.681002	以前的就不会	-0.0275214
-5.681002	以前的时候	-0.0275214
-5.681002	以前的时候你去读	-0.1060018
-5.681002	以前的时候是	-0.0275214
-5.681002	以及	-0.0275214
-3.672402	以后	-0.1329412
-5.681002	以后会	-0.0275214
-5.681002	以后会很需要	-0.06635585
-5.681002	以后看以后的人全部都是用	-0.1060018
-4.777912	以外	-0.08118501
-5.379972	以往	-0.11161
-4.982032	以来	-0.09537815
-5.681002	以致	-0.1167223
-5.681002	以防	-0.1168002
-5.379972	仪	-0.0252248
-5.681002	仪器	-0.1162232
-4.101219	们	-0.210003
-5.379972	仰慕	-0.3727912
-5.681002	仰泳	-0.1099035
-4.319274	件	-0.2624269
-5.681002	件二十块三十块的你知道吗	-0.06635585
-5.681002	件做工的	-0.0275214
-5.681002	件最少要七八十块百多块我也不知道为什么这样贵咯	-0.06635585
-5.681002	件衣服衣服破了	-0.1060018
-5.203881	价	0.03736804
-5.203881	价值	-0.1041137
-4.319274	价钱	-0.1176433
-5.681002	价钱价钱很硬	-0.06635585
-5.681002	价钱会比较便宜	-0.06635585
-5.681002	价钱的问题啦	-0.1168084
-4.982032	任	-0.187271
-4.504911	任何	-0.1926538
-4.982032	任务	-0.02214667
-4.42573	份	-0.205015
-5.681002	份工作不是单单薪水你要看他的工作环境啊他的员工福利啊工作时间等等你都要考考虑到很清楚	-0.06635585
-5.681002	份工做	-0.0275214
-5.681002	份比较工钱比较高	-0.1060018
-5.681002	伊	-0.1167151
-5.681002	伍	-0.1155836
-5.681002	伐木你非法伐木	-0.0275214
-4.601821	休息	-0.1495824
-5.681002	休闲	-0.1141815
-5.379972	优	-0.02751918
-5.681002	优先权	-0.06635585
-5.379972	优势	-0.02372997
-5.681002	优点	-0.1152049
-5.681002	优秀	-0.1046195
-2.178166	会	-0.2935075
-4.902851	会上	-0.02013251
-5.681002	会上到百八个的	-0.1168084
-5.681002	会下	-0.1060018
-3.982032	会不会	-0.1110079
-5.681002	会不会好像啊	-0.06635585
-5.681002	会不会是	-0.1060018
-5.681002	会不同	-0.06635585
-5.681002	会不同就是他们有他们	-0.0275214
-5.681002	会不同的哪里知道还是	-0.1060018
-5.681002	会不平衡啦但是要想	-0.1060018
-5.681002	会不是很好啦	-0.06635585
-5.681002	会不能生存因为	-0.0275214
-5.203881	会东	-0.2697395
-5.681002	会中	-0.06635585
-5.681002	会他们的颜色啊会相差	-0.1060018
-5.379972	会做的比较好	-0.3223487
-5.681002	会儿	-0.06635585
-5.681002	会刊	-0.1132095
-5.681002	会包挂	-0.0275214
-5.681002	会包挂我们的啊	-0.0275214
-5.379972	会去	-0.01902387
-5.681002	会去看	-0.0275214
-5.681002	会去那个	-0.0275214
-5.681002	会友	-0.1168075
-5.681002	会变	-0.0275214
-5.681002	会合	-0.06635585
-5.379972	会后	-0.3728003
-5.681002	会呃啊	-0.06635585
-5.681002	会员	-0.0275214
-5.681002	会咯上厕所的时候咯	-0.06635585
-5.681002	会啊	-0.0275214
-5.681002	会啊它是	-0.0275214
-5.681002	会在三个地方做	-0.06635585
-5.681002	会在这个	-0.0275214
