
\data\
ngram 1=9868
ngram 2=77510

\1-grams:
-5.574222	1	-0.1135182
-5.273192	2	-0.1787779
-5.574222	3	-0.1771447
-5.574222	4	-0.1783374
-0.8530962	</s>
-99	<s>	-0.9457675
-4.61998	A	-0.907333
-3.197645	A.	-0.4319157
-5.273192	A.D.M.	-0.2948996
-5.097101	A.T.C.	-0.1918055
-5.574222	ATC	-0.04511799
-5.574222	Archi	-0.1135182
-4.875252	B	-0.7434826
-3.687732	B.	-0.3305635
-3.004848	C.	-0.5918885
-4.428094	D	-0.5713761
-3.61998	D.	-0.5954783
-5.097101	D.C.	-0.3997256
-4.875252	D.S.L.R.	-0.7434826
-5.574222	DOTA	-0.1766176
-5.574222	Deutsche	-0.1790848
-3.774882	E.	-0.3355146
-3.665737	F.	-0.4870755
-5.273192	F.Y.P.	-0.2948996
-3.517318	G.	-0.6184633
-3.729124	H.	-0.523332
-5.574222	I	-0.1780381
-3.521144	I.	-0.7913702
-5.273192	IHG	-0.04506125
-5.574222	II	-0.04511799
-4.61998	IT	-0.2106854
-5.273192	Intel	-0.2948996
-5.574222	Inter	-0.1782922
-3.425003	J.	-1.285603
-5.574222	J.C.	-0.04511799
-5.273192	K	-0.176564
-3.216287	K.	-0.4174721
-4.194011	L.	-0.1155584
-4.875252	LA	-0.03548095
-3.386702	M.	-0.5542564
-5.574222	MINDEF	-0.04511799
-5.574222	MIS	-0.1786968
-5.574222	MQA	-0.04511799
-5.574222	Master	-0.04511799
-3.389531	N.	-0.8381545
-3.107355	O.	-1.04491
-5.574222	O.C.D.A.C.	-0.04511799
-5.574222	P	-0.04511799
-3.348913	P.	-0.4936537
-5.574222	PREFECTORIAL	-0.1791161
-5.574222	Penang	-0.1790594
-5.574222	Psychometric	-0.17902
-4.460279	Q.	-0.288325
-5.574222	QA	-0.1791126
-3.671132	R.	-0.6208787
-3.237763	S.	-0.5612433
-5.574222	SDLC	-0.04511799
-5.574222	SK	-0.179145
-5.574222	SKII	-0.04511799
-5.574222	Shearwood	-0.04511799
-3.370102	T.	-0.6828929
-3.338694	U.	-0.5331979
-5.574222	UK	-0.04511799
-4.729124	UML	-0.4128267
-4.460279	US	-0.4445527
-3.810794	V.	-0.416692
-4.460279	W.	-0.4118562
-4.972162	X.	-0.04258411
-5.574222	Xylitol	-0.179145
-3.884026	Y.	-0.7958704
-2.337433	a	-0.1269318
-2.944813	a.	-0.6452204
-5.273192	a.b.a.p	-0.04511011
-5.574222	a.b.a.p.e.r	-0.04511799
-5.574222	a.b.a.per	-0.04511799
-5.574222	a.s	-0.1135182
-5.574222	aback	-0.1766118
-5.574222	abalone	-0.1790455
-5.574222	abandoned	-0.1788683
-5.273192	abdomen	-0.2948996
-5.574222	abiding	-0.1766118
-5.574222	abilities	-0.04511799
-4.972162	ability	-0.2750862
-3.911464	abit	-0.2464838
-4.194011	able	-1.393908
-5.273192	abortion	-0.1683124
-3.040196	about	-0.2510547
-5.574222	aboutforensic	-0.1789412
-4.398131	above	-0.1264432
-4.875252	abrasion	-0.3347916
-5.574222	absolute	-0.04511799
-4.729124	absolutely	-0.04123288
-4.53283	absorb	-0.4830033
-4.875252	abu	-0.4268128
-4.796071	abuse	-0.2422951
-5.273192	aca	-0.1791381
-5.273192	acad	-0.2948996
-4.53283	academic	-0.2540845
-4.972162	academically	-0.268372
-4.875252	academy	-0.140103
-5.574222	accelerate	-0.1135182
-5.574222	accelerated	-0.1135182
-4.159249	accent	-0.6560439
-5.574222	accents	-0.04511799
-4.069072	accept	-0.3403625
-4.875252	acceptable	-0.2626892
-4.972162	acceptance	-0.06019385
-4.796071	accepted	-0.07614942
-4.53283	access	-0.2349818
-5.273192	accessories	-0.2948996
-5.574222	accessory	-0.1751141
-4.671133	accident	-0.1136536
-5.574222	accidental	-0.04511799
-5.273192	accidentally	-0.04504232
-5.574222	accidents	-0.04511799
-5.097101	accommodate	-0.1947539
-5.574222	accommodating	-0.04511799
-4.671133	accommodation	-0.2396612
-5.574222	accomodate	-0.04511799
-5.574222	accompainment	-0.1135182
-5.574222	accompany	-0.1135182
-5.574222	accomplish	-0.04511799
-5.097101	accomplishment	-0.04174304
-5.574222	accordinator	-0.04511799
-4.460279	according	-1.153562
-5.273192	accordingly	-0.2948996
-4.08286	account	-0.496841
-3.940754	accountancy	-0.4258679
-4.729124	accountant	-0.06211457
-3.961438	accounting	-0.3638344
-5.273192	accounts	-0.04339977
-4.796071	accumulate	-0.330118
-5.574222	accumulation	-0.04511799
-5.574222	accumulative	-0.04511799
-4.61998	accuracy	-0.9992676
-4.428094	accurate	-0.6053498
-5.574222	accuse	-0.1760129
-4.972162	ace	0.04752947
-5.574222	achers	-0.1135182
-4.428094	achieve	-0.3843587
-5.574222	achievement	-0.04511799
-5.574222	achiever	-0.1790895
-5.273192	achievers	-0.2948996
-4.972162	acid	-0.1885578
-5.574222	acidic	-0.1135182
-5.574222	acidify	-0.04511799
-5.574222	acids	-0.1135182
-5.273192	acknowledge	-0.04473166
-5.574222	acoustic	-0.1791312
-5.574222	acoustics	-0.1135182
-5.574222	acquisition	-0.179145
-5.574222	acquisitions	-0.1786018
-5.574222	acronyms	-0.1778849
-4.671133	across	-0.1385056
-4.252003	act	-0.06112534
-5.273192	acted	-0.1749131
-4.796071	acting	-0.01364963
-4.252003	action	-0.5349839
-5.574222	actions	-0.04511799
-4.08286	active	-0.6455692
-5.574222	actively	-0.1757563
-3.818347	activities	-0.5198214
-3.818347	activity	-0.6508019
-5.574222	activties	-0.1744804
-5.097101	actor	-0.1918103
-5.574222	actors	-0.1791404
-4.875252	actress	-0.4233648
-5.273192	actresses	-0.1125909
-4.31895	actual	-0.1460944
-2.692838	actually	-0.3831218
-5.273192	actuarial	-0.4287229
-5.574222	acturial	-0.1789412
-5.574222	acute	-0.1791439
-5.097101	ad	-0.1751118
-4.671133	adapt	-0.4475427
-3.902124	add	-0.1662416
-5.273192	added	-0.1791034
-4.875252	addict	-0.1370119
-4.972162	addicted	-0.05345871
-5.273192	addictive	-0.2948996
-5.273192	adding	-0.1778953
-4.875252	addition	-0.192259
-4.875252	additional	-0.1283872
-5.574222	additive	-0.04511799
-4.61998	address	-0.2963569
-5.097101	addresses	0.05262975
-5.097101	adeline	-0.3997256
-5.273192	adept	-0.175986
-4.875252	adidas	-0.1163857
-4.875252	adipocyte	-0.4267608
-5.097101	adjective	-0.102802
-4.574222	adjust	-0.274261
-5.273192	adjustment	0.04690956
-5.574222	adjustments	-0.1751141
-4.159249	admin	-0.2570293
-5.574222	administator	-0.1751141
-5.574222	administer	-0.1790802
-5.097101	administration	-0.1947681
-5.273192	administrative	-0.1103235
-5.273192	administrator	-0.03961889
-5.097101	admiralty	-0.1030538
-4.875252	admire	-0.1178828
-5.574222	admission	-0.04511799
-4.61998	admit	-0.33219
-4.796071	adobe	-0.1126803
-5.574222	adolescence	-0.1135182
-5.273192	adopt	-0.2948996
-5.097101	adopted	-0.04431657
-5.574222	adredaline	-0.1791312
-5.273192	adrian	-0.1135155
-4.53283	adult	-0.1268629
-5.273192	adulthood	-0.1766048
-5.097101	adults	-0.1117048
-3.961438	advance	-0.5396293
-4.972162	advanced	-0.6152856
-4.53283	advantage	-0.6923647
-5.574222	advantages	-0.1769307
-4.729124	adventure	-0.333142
-5.574222	adventurous	-0.04511799
-5.273192	advert	-0.112545
-4.875252	advertise	-0.4224439
-5.574222	advertised	-0.1135182
-4.61998	advertisement	-0.4595115
-4.495041	advertising	-0.5191485
-5.273192	advice	-0.03961889
-5.273192	advise	-0.04491934
-5.574222	advisor	-0.04511799
-5.574222	advocate	-0.179042
-5.574222	aero	-0.1791265
-5.574222	aerobic	-0.1789609
-5.273192	aerodynamics	-0.0416636
-5.273192	aeroplane	-0.1692952
-4.343773	aerospace	-0.3815591
-5.273192	aesthetic	-0.2948996
-4.796071	affair	-0.2612906
-4.671133	affairs	-0.3422513
-4.370102	affect	-0.6774002
-4.972162	affected	-0.03691614
-5.574222	affectionately	-0.1791358
-5.273192	affinity	-0.173054
-5.574222	affirmation	-0.1751141
-4.61998	afford	-0.0693903
-5.273192	affordable	-0.1109402
-5.273192	afraid	-0.4268868
-4.574222	africa	-0.7437096
-5.273192	aft	-0.04137595
-2.720524	after	-0.6354841
-4.796071	afterall	-0.4299089
-4.142859	afternoon	-0.3608094
-5.273192	afterwards	-0.0329047
-3.83386	again	-0.3855639
-4.574222	against	-0.4984577
-3.940754	age	-0.3896455
-5.574222	agencies	-0.04511799
-4.428094	agency	-0.3956953
-5.097101	agenda	-0.1826163
-4.2318	agent	-0.7819182
-5.097101	aggregate	-0.1947681
-4.729124	aggressive	-0.665157
-4.428094	agilent	-0.4915153
-5.273192	aging	-0.4289116
-4.460279	ago	-0.2760435
-4.176282	agree	-0.4169883
-4.972162	agreement	-0.6152856
-5.574222	agricultural	-0.04511799
-4.972162	agriculture	-0.1885578
-2.235169	ah	-0.5184498
-5.574222	ahah	-0.1789679
-5.097101	ahead	0.04803118
-4.972162	ahh	0.04858229
-5.273192	ahnorh	-0.4255379
-4.796071	aid	-0.02141377
-5.574222	aided	-0.04511799
-4.729124	aids	-0.1838778
-4.252003	aim	-0.4390754
-5.574222	aiming	-0.1772877
-4.61998	aims	-0.4334992
-3.676595	air	-0.4297733
-4.428094	aircon	-0.5419378
-4.671133	aircond	-0.4282025
-5.097101	aircraft	-0.1913752
-5.574222	airfare	-0.1769307
-5.574222	airforce	-0.1785241
-4.370102	airline	-0.3536327
-5.097101	airlines	-0.102802
-5.574222	airound	-0.04511799
-4.343773	airport	-0.2310662
-4.796071	airway	-0.3292751
-5.273192	airways	-0.1105689
-4.2318	aiya	-0.3668029
-4.495041	aiyah	-0.2220339
-5.574222	aiyo	-0.1135182
-4.875252	ajinomoto	-0.7434826
-5.574222	al	-0.179145
-5.574222	alam	-0.04511799
-5.273192	alamanda	0.04690956
-5.097101	alan	-0.1918055
-4.972162	alarm	-0.1719632
-5.574222	albino	-0.1788833
-4.972162	album	0.04804872
-5.574222	albums	-0.1135182
-4.875252	alcohol	-0.1754085
-5.574222	alergy	-0.04511799
-5.097101	alert	-0.04427236
-4.398131	alex	-1.220583
-5.574222	alfred	-0.04511799
-5.574222	algebra	-0.04511799
-5.574222	algo	-0.04511799
-5.273192	algori	-0.2948996
-3.741713	algorithm	-0.8350668
-4.972162	alien	-0.1520696
-5.574222	aliens	-0.1790837
-5.097101	alight	-0.3192861
-5.574222	align	-0.04511799
-5.273192	alignment	-0.2948996
-4.875252	alike	-0.02655952
-5.273192	alive	-0.1699259
-5.097101	aljunied	0.05117345
-5.273192	alkaline	-0.17913
-5.574222	alkaloid	-0.1791416
-2.736634	all	-0.4018092
-5.574222	allah	-0.04511799
-5.574222	allen	-0.04511799
-5.273192	allergic	-0.2948996
-5.574222	allergy	-0.04511799
-5.097101	alley	-0.1918055
-5.097101	alliance	-0.04510222
-4.729124	allocate	-0.4208978
-5.273192	allocated	-0.1745553
-4.53283	allow	-0.005835459
-5.574222	allowable	-0.04511799
-4.295469	allowance	-0.5869729
-4.875252	allowed	-0.8734787
-5.574222	almond	-0.1791404
-3.884026	almost	-0.2143204
-5.574222	alogrithm	-0.04511799
-4.343773	alone	-0.06537834
-4.055708	along	-0.531786
-3.266726	alot	-0.7997025
-5.574222	alphabet	-0.04511799
-5.574222	alphabets	-0.1135182
-5.574222	alread	-0.1135182
-3.149341	already	-0.3240528
-4.53283	alright	-0.17989
-2.893887	also	-0.2269437
-5.574222	alter	-0.04511799
-5.574222	altera	-0.04511799
-4.796071	alternate	-0.02076635
-4.729124	alternative	-0.1479959
-5.273192	alternatives	-0.1754773
-5.574222	alternity	-0.04511799
-3.781831	although	-0.2883932
-5.574222	altitude	-0.1791416
-4.972162	altogether	-0.1083537
-4.671133	alumni	-0.2334818
-4.671133	alvin	-0.3452851
-3.453648	always	-0.1334358
-3.378323	am	-0.1771928
-4.875252	amanda	-0.1294599
-5.574222	amateur	-0.1776131
-5.574222	amazed	-0.1784812
-4.495041	amazing	-0.4226089
-5.273192	amazon	0.04690956
-5.574222	ambassador	-0.1135182
-5.574222	ambassitor	-0.04511799
-5.574222	ambiance	-0.1791393
-4.972162	ambience	-0.6152856
-5.097101	ambiguous	-0.1946262
-4.729124	ambition	-0.1826017
-5.273192	ambitious	-0.04209393
-5.273192	ambulance	-0.04511325
-4.972162	amelia	-0.1516421
-4.460279	america	-0.5683396
-5.574222	america's	-0.1791126
-4.194011	american	-0.3929759
-5.574222	amin	-0.1135182
-5.574222	ammonia	-0.1751141
-5.574222	ammunition	-0.04511799
-4.31895	among	-0.3028393
-5.574222	amos	-0.04511799
-4.08286	amount	-0.4290105
-5.574222	amounts	-0.1790084
-5.574222	amplify	-0.1788949
-5.574222	amplitude	-0.04511799
-5.097101	amusement	-0.5336403
-4.61998	amway	-0.8659718
-5.097101	amy	-0.1902075
-3.61998	an	-0.2563666
-5.574222	anaesthetic	-0.1135182
-5.574222	analog	-0.1791335
-5.574222	analogy	-0.1135182
-5.574222	analys	-0.1766118
-4.295469	analyse	-0.44809
-5.574222	analyses	-0.1769307
-4.08286	analysis	-0.4077619
-5.273192	analyst	-0.2948996
-5.574222	analysts	-0.04511799
-5.097101	analytical	-0.04491462
-4.729124	analyze	-0.2926786
-5.574222	analyzing	-0.04511799
-5.097101	anatomy	-0.1948201
-4.729124	ancient	-0.1688051
-2.293417	and	-0.1864182
-5.273192	andersen	0.04690956
-5.097101	anderson	-0.3285497
-5.097101	andrew	0.0469154
-5.574222	andriod	-0.04511799
-4.31895	android	-0.4978862
-5.574222	andy	-0.04511799
-5.574222	andy's	-0.1785241
-4.61998	ang	-0.3237256
-5.574222	angbao	-0.04511799
-4.61998	angel	-0.2885729
-5.574222	angela's	-0.04511799
-5.273192	angeles	-0.2948996
-4.972162	angelina	-0.7493091
-5.574222	angels	-0.1757563
-5.574222	angkor	-0.1791439
-4.495041	angle	-0.1525078
-5.574222	angles	-0.04511799
-5.574222	anglican	-0.1789853
-5.273192	anglo	-0.4285178
-5.273192	angmoh	-0.04342192
-4.61998	angry	-0.02033748
-4.729124	animal	-0.06696588
-4.729124	animals	-0.1813851
-5.097101	animated	-0.1947807
-4.097101	animation	-0.9527737
-4.460279	anime	-0.5378786
-5.097101	anise	-0.1944969
-5.574222	anitmation	-0.1785241
-5.097101	ankle	0.05631891
-5.097101	anniversary	-0.03444846
-5.574222	annotation	-0.04511799
-4.875252	announce	-0.7434826
-5.574222	announcement	-0.04511799
-5.273192	annoying	-0.04498084
-4.875252	annual	-0.2624554
-3.601094	another	-0.1007641
-3.911464	answer	-0.3456692
-5.574222	answering	-0.1766176
-5.273192	answers	-0.1725618
-5.097101	anthem	-0.3997256
-5.097101	anthony	-0.04209076
-4.370102	anti	-0.4525666
-4.972162	antibody	-0.1885578
-5.574222	antioxidant	-0.04511799
-5.574222	antique	-0.04511799
-4.796071	antivirus	-0.1901448
-5.574222	antonio	-0.04511799
-5.574222	ants	-0.1135182
-5.574222	antwerp	-0.04511799
-5.574222	anxious	-0.04511799
-3.605739	any	-0.0695059
-4.972162	anybody	-0.04417448
-4.671133	anyhow	-0.05288969
-4.252003	anymore	-0.2536161
-4.729124	anyone	-0.07248501
-3.729124	anything	-0.286618
-4.796071	anytime	-0.1022503
-3.781831	anyway	-0.2666133
-4.875252	anywhere	0.07191683
-4.972162	ao	-0.0444508
-5.097101	apart	-0.2625857
-4.671133	apartment	-0.5194002
-5.574222	apathetic	-0.1135182
-5.574222	apen	-0.04511799
-4.574222	apex	-0.5687617
-5.097101	apita	-0.03928995
-5.097101	apologise	-0.02935956
-5.273192	apostrophe	-0.04412231
-5.097101	apparatus	-0.1944969
-4.428094	apparently	0.0134578
-4.53283	appeal	-0.1256866
-5.574222	appealing	-0.1751141
-4.972162	appear	-0.2196665
-5.273192	appearance	-0.04473954
-5.574222	appeared	-0.1783096
-5.574222	appears	-0.1782122
-5.574222	appetizing	-0.04511799
-4.252003	apple	-0.3568773
-5.273192	appliances	-0.04386316
-4.875252	applicable	-0.3491547
-3.761309	application	-0.6077995
-5.574222	applications	-0.04511799
-4.53283	applied	-0.4855767
-5.574222	applies	-0.1751141
-3.440683	apply	-0.6322026
-4.671133	applying	-0.2337264
-5.574222	appoint	-0.04511799
-4.875252	appointment	-0.3347916
-5.574222	appointments	-0.1135182
-5.574222	appraise	-0.04511799
-4.428094	appreciate	-0.239983
-5.574222	appreciated	-0.1784812
-5.574222	appreciation	-0.1790316
-4.31895	approach	-0.3254141
-5.574222	approached	-0.1760129
-5.574222	appropriate	-0.1766176
-5.273192	approval	-0.4283741
-4.273192	approve	-0.9459804
-4.398131	april	-0.3948651
-5.273192	aquarium	-0.2948996
-5.574222	aquilidation	-0.178925
-4.875252	ar	-0.1297915
-5.574222	arabic	-0.1790536
-5.097101	arashi	-0.1948107
-4.972162	arcade	-0.0549798
-5.273192	archaeology	-0.112545
-5.574222	archery	-0.1766118
-5.574222	archi	-0.04511799
-5.097101	archieve	-0.1948264
-5.273192	archievement	-0.04481684
-4.055708	architect	-0.7581965
-4.972162	architects	-0.6152856
-3.911464	architecture	-0.573064
-5.574222	archive	-0.1790999
-2.778342	are	-0.3449641
-3.32871	area	-0.7804042
-4.574222	areas	-0.300316
-5.273192	aren't	-0.1756267
-5.273192	argentina	-0.2948996
-4.671133	argue	-0.1128073
-5.574222	arguement	-0.04511799
-4.796071	argument	-0.307698
-5.574222	arises	-0.04511799
-4.729124	arizona	-0.3811119
-4.370102	arm	-0.2273003
-5.574222	arms	-0.1702096
-3.71689	army	-0.392725
-4.972162	arnold	-0.6152856
-5.574222	arnorh	-0.1757563
-3.286421	around	-0.2610456
-4.212494	arr	-0.06082714
-4.574222	arrange	-0.2630093
-5.574222	arranged	-0.1772877
-5.574222	arrangement	-0.04511799
-5.273192	arrangements	-0.04430236
-5.574222	arrive	-0.04511799
-5.574222	arrogant	-0.1135182
-5.574222	arrow	-0.04511799
-5.574222	arsenal	-0.04511799
-3.983158	art	-0.5153899
-4.343773	article	-0.6977765
-4.574222	articles	-0.301694
-5.574222	articulation	-0.04511799
-5.273192	artificial	-0.1791242
-5.574222	artis	-0.04511799
-4.495041	artist	-0.7048601
-5.574222	artistic	-0.04511799
-5.273192	artists	-0.04184151
-3.950973	arts	-0.409814
-2.715685	as	-0.7084138
-4.796071	asean	-0.5215691
-5.273192	ash	-0.2948996
-5.574222	ashley	-0.1135182
-3.92101	asia	-0.54655
-4.398131	asian	-0.1245107
-5.574222	asians	-0.04511799
-4.972162	aside	-0.05713378
-3.421934	ask	-0.4410415
-4.428094	asked	-0.2167948
-4.574222	asking	-0.2547783
-4.671133	asleep	-0.1455826
-5.574222	asp.net	-0.04511799
-5.273192	aspects	-0.04261261
-5.574222	aspire	-0.1751141
-5.574222	ass	-0.179123
-4.796071	assembly	-0.04020272
-5.273192	assess	-0.2948996
-4.574222	assessment	-0.3251153
-5.273192	asset	-0.03961889
-4.428094	assign	-0.6152861
-5.097101	assigned	-0.04215266
-3.849946	assignment	-0.6871706
-4.875252	assignments	-0.03404492
-4.875252	assist	-0.2274764
-5.097101	assistance	-0.04509592
-4.273192	assistant	-0.3105888
-5.574222	assistants	-0.1135182
-5.097101	associate	-0.04501079
-5.273192	association	-0.2948996
-4.671133	assume	-0.6118392
-4.972162	assuming	-0.1478307
-5.574222	assumption	-0.04511799
-5.574222	assurance	-0.1766118
-5.574222	astar	-0.1135182
-4.53283	astro	-0.3985696
-2.844248	at	-0.637094
-4.875252	ate	-0.258627
-5.574222	athlete	-0.1135182
-5.574222	athletes	-0.1135182
-5.574222	athletic	-0.04511799
-5.574222	atlantic	-0.04511799
-4.796071	atmosphere	-0.4299089
-4.875252	atom	-0.7434826
-5.574222	atoms	-0.179145
-5.574222	atract	-0.04511799
-4.671133	attach	-0.5758558
-4.495041	attached	-0.3028659
-4.111825	attachment	-0.511108
-4.61998	attack	-0.0252379
-5.273192	attacker	-0.1031062
-5.273192	attacking	-0.04507069
-5.574222	attact	-0.04511799
-4.729124	attempt	-0.4073476
-5.574222	attempted	-0.1786018
-4.252003	attend	-0.7445791
-4.972162	attendance	-0.2789589
-5.574222	attendant	-0.04511799
-4.273192	attention	-0.4184192
-5.273192	attire	0.04690956
-4.127064	attitude	-0.5304799
-4.53283	attract	-0.2272049
-5.273192	attracted	-0.4248957
-4.61998	attraction	-0.2856386
-5.273192	attractive	-0.0448547
-5.574222	attracts	-0.04511799
-5.273192	attribute	-0.4248957
-4.972162	au	-0.6152856
-5.097101	auckland	-0.3997256
-4.729124	audi	-0.2439208
-4.671133	audience	-0.1109667
-5.574222	audience's	-0.179123
-5.273192	audio	-0.04423761
-4.398131	audit	-0.480432
-4.796071	audition	-0.1001758
-5.574222	aug	-0.1791323
-4.495041	august	-0.04129685
-4.370102	aunt	-0.5433536
-3.994439	auntie	-0.3716116
-4.61998	aunties	-0.2093891
-5.574222	aunty	-0.1790038
-5.574222	austin	-0.04511799
-3.748147	australia	-0.5688665
-4.972162	australian	-0.06013735
-5.273192	authentic	-0.038252
-4.574222	author	-0.3131263
-5.273192	authorisation	0.04690956
-5.273192	authorise	0.04690956
-5.574222	authoritative	-0.1769307
-4.796071	authority	0.04914004
-5.574222	authorize	-0.04511799
-5.574222	autism	-0.04511799
-5.574222	autistic	-0.1135182
-4.370102	auto	-0.3952574
-5.574222	autoclave	-0.04511799
-4.796071	automate	-0.5404798
-5.273192	automated	-0.1134267
-4.729124	automatic	-0.1697587
-4.729124	automatically	-0.2748637
-5.097101	automation	-0.3997256
-5.574222	autonomous	-0.1759371
-4.796071	autumn	-0.09472382
-5.574222	availability	-0.04511799
-4.398131	available	-0.04753295
-5.574222	avalable	-0.1767422
-4.574222	avatar	-0.3210536
-5.273192	avenue	-0.1769121
-4.111825	average	-0.3690223
-5.574222	averagely	-0.04511799
-5.574222	aviation	-0.04511799
-5.574222	avid	-0.1791439
-5.574222	avin	-0.04511799
-4.574222	avoid	-0.21066
-5.097101	awake	-0.102802
-5.574222	awaken	-0.1135182
-5.097101	award	-0.0442076
-5.273192	awards	0.04690956
-5.574222	aware	-0.1771052
-5.574222	awareness	-0.04511799
-3.858219	away	-0.5639055
-5.574222	aways	-0.1785925
-5.097101	awesome	-0.1948248
-4.972162	awhile	0.06473133
-4.796071	awkward	-0.08498019
-5.574222	axel	-0.1791126
-4.729124	ay	-0.09331679
-3.902124	b	-0.5294831
-3.218196	b.	-0.7430443
-5.574222	b.b.six.	-0.1135182
-5.574222	b.b.streaming	-0.04511799
-5.574222	b.l.r.	-0.04511799
-5.273192	ba	-0.04495089
-5.097101	babies	-0.1721515
-4.2318	baby	-0.3972555
-5.574222	babysit	-0.04511799
-5.574222	babysitter	-0.04511799
-5.574222	bac	-0.1790235
-4.53283	bachelor	-0.3387973
-5.574222	bachelor's	-0.04511799
-3.262468	back	-0.368804
-4.972162	backdrop	0.04714726
-3.93077	background	-0.4639398
-5.574222	backgrounds	-0.1135182
-4.460279	backpack	-1.067034
-5.273192	backpacker	-0.4289255
-4.875252	backpacking	-0.03182089
-4.729124	backs	-0.3196461
-5.574222	backseat	-0.04511799
-5.574222	backstab	-0.1773075
-5.273192	backstabbing	-0.04490043
-4.729124	backstage	-0.2772857
-5.273192	backstreet	-0.1790929
-4.729124	backup	-0.1484572
-5.273192	backward	-0.1748909
-3.950973	bacteria	-0.7910606
-5.574222	bacterias	-0.179145
-3.311771	bad	-0.356213
-4.972162	badly	0.05008094
-3.858219	badminton	-0.4040455
-4.055708	bag	-0.5917594
-5.273192	baggy	-0.1760105
-5.273192	bags	-0.0416636
-4.212494	bah	-0.783008
-5.574222	bahasa	-0.1791034
-5.574222	bahru	-0.1135182
-5.273192	bail	-0.4289244
-4.875252	baileys	-0.1185221
-4.796071	bake	-0.1931834
-4.972162	baked	-0.2805475
-5.574222	baker	-0.04511799
-5.574222	bakery	-0.1790547
-4.796071	baking	-0.1929164
-4.069072	balance	-0.4310254
-5.574222	balanced	-0.04511799
-5.097101	balancing	-0.1920483
-5.273192	balastier	-0.04421234
-5.273192	balcony	0.04690956
-5.574222	balding	-0.1766118
-4.428094	bali	-0.7325985
-3.983158	ball	-0.4700598
-5.097101	ballarat	-0.3997256
-5.574222	ballet	-0.1702096
-4.398131	balloon	-0.7583153
-4.729124	ballot	-0.3177332
-4.875252	balloting	-0.120542
-5.574222	ballroom	-0.1791393
-5.273192	balls	-0.1745588
-5.273192	bamboo	-0.1791277
-5.097101	ban	-0.3997256
-4.61998	banana	-0.2129825
-3.866652	band	-0.5392078
-5.574222	band's	-0.179064
-5.574222	bandit	-0.1779011
-5.273192	bands	-0.1732078
-5.574222	bandwagon	-0.04511799
-5.574222	bandwidth	-0.04511799
-5.574222	bang	-0.1790084
-5.574222	bangalore	-0.1769307
-5.574222	bangi	-0.04511799
-4.127064	bangkok	-0.4688297
-5.574222	bangkokay	-0.04511799
-5.574222	bangla	-0.1791404
-5.097101	bangladesh	-0.1948248
-3.849946	bank	-0.3406815
-5.273192	banker	-0.04423761
-4.176282	banking	-0.4487446
-4.796071	bankrupt	-0.004167512
-4.574222	banks	-0.1892818
-5.574222	banned	-0.1772877
-4.972162	banner	-0.2759632
-5.097101	bao	-0.2528178
-4.495041	bar	-0.5399795
-5.574222	barbe	-0.04511799
-4.574222	barbecue	-0.1186278
-4.495041	barbeque	-0.7048504
-5.273192	barber	-0.4288364
-5.574222	barcelona	-0.04511799
-5.574222	barclay	-0.1791312
-5.273192	barcode	-0.04511483
-5.574222	barefoot	-0.1785241
-4.729124	bargain	-0.3831911
-5.273192	baristar	-0.03875288
-5.574222	barker	-0.04511799
-5.574222	barn	-0.1791335
-5.574222	barracks	-0.1135182
-5.273192	barracuda	0.04690956
-5.097101	barrage	-0.102802
-5.574222	barren	-0.1791138
-5.574222	barricade	-0.04511799
-4.972162	barrier	-0.05652505
-5.273192	bars	-0.2948996
-3.80337	base	-0.9279861
-5.097101	baseball	-0.10946
-3.699161	based	-0.8267485
-5.574222	baseline	-0.04511799
-5.273192	basement	0.04690956
-5.574222	bases	-0.1782122
-4.428094	bash	-0.3203529
-3.548916	basic	-0.6390099
-3.902124	basically	-0.5422487
-5.574222	basics	-0.1771052
-5.097101	basin	-0.102802
-4.796071	basis	0.05511218
-4.875252	basket	-0.03505382
-3.841829	basketball	-0.3675007
-5.273192	basketballer	-0.2948996
-5.273192	bass	-0.04506913
-5.574222	bastard	-0.1759371
-5.574222	bat	-0.04511799
-5.273192	batam	-0.2948996
-3.655144	batch	-0.7185454
-5.574222	bath	-0.179145
-5.097101	bathe	-0.1116913
-5.574222	bathing	-0.04511799
-5.097101	bathroom	-0.102802
-5.574222	bathtub	-0.1135182
-5.273192	batik	-0.1791416
-5.273192	batok	-0.04481684
-4.53283	battery	-0.3188852
-4.972162	batu	-0.7493091
-5.273192	baxter	-0.2948996
-4.671133	bay	-0.2532593
-5.574222	bbc	-0.04511799
-5.273192	bbq	0.04690956
-2.860732	be	-0.1630476
-4.176282	beach	-0.2883641
-4.796071	beam	-0.2432098
-4.875252	bean	-0.2221225
-4.495041	bear	-0.3394118
-5.574222	bearing	-0.1783293
-5.574222	bears	-0.04511799
-5.574222	beast	-0.1766176
-5.574222	beastie	-0.04511799
-4.875252	beat	-0.2565176
-5.574222	beatrice	-0.04511799
-5.574222	beautician	-0.1135182
-4.343773	beautiful	-0.1763704
-4.460279	beauty	-0.1149296
-5.273192	became	-0.1735034
-2.746207	because	-0.5851781
-4.006021	become	-0.2137909
-5.097101	becomes	-0.3225801
-5.097101	becoming	-0.326854
-4.61998	bed	-0.2634849
-5.574222	bedok	-0.1791439
-5.273192	bee	-0.1791416
-5.574222	bee's	-0.1791393
-4.671133	beef	-0.2021323
-3.875252	been	-0.1780389
-4.729124	beep	-0.5625104
-4.875252	beer	-0.4264864
-3.10884	before	-0.4594997
-5.574222	beg	-0.1772877
-5.097101	begin	0.05371679
-5.574222	begining	-0.1790154
-5.273192	beginner	-0.04509592
-4.370102	beginning	-0.2055993
-5.273192	behave	-0.2948996
-5.273192	behaves	-0.424262
-4.53283	behavior	-0.5168452
-5.574222	behavioral	-0.1769272
-5.574222	behaviorial	-0.1789667
-5.574222	behaviours	-0.04511799
-4.252003	behind	-0.1065865
-5.097101	beijing	-0.03874169
-4.212494	being	-0.1287626
-5.574222	beings	-0.04511799
-5.097101	belated	0.04698165
-4.875252	belgium	-0.7434826
-4.042743	believe	-0.2444293
-5.574222	believeable	-0.1783096
-5.574222	believer	-0.1767422
-5.097101	bell	-0.533741
-5.574222	belly	-0.1135182
-4.729124	belong	-0.5545764
-5.273192	belongs	-0.4248957
-4.495041	below	-0.08430751
-4.972162	belt	-0.6152856
-4.53283	ben	-0.9944832
-5.574222	bench	-0.04511799
-4.53283	bend	-0.2382724
-5.574222	bending	-0.1790073
-5.574222	beneficial	-0.1135182
-3.983158	benefit	-0.7567661
-4.875252	benefits	-0.3347916
-5.574222	benificial	-0.04511799
-5.574222	bertam	-0.04511799
-4.31895	beside	-0.1363666
-4.428094	besides	-0.3071846
-3.710899	best	-0.1880406
-4.972162	bet	-0.1445427
-5.097101	beta	-0.1947886
-5.273192	betray	-0.04510853
-5.574222	betrayal	-0.1771052
-3.591951	better	-0.2944447
-3.884026	between	-0.2249731
-5.574222	beverage	-0.1135182
-5.574222	beverly	-0.1769307
-5.574222	beware	-0.1771052
-5.097101	beyond	-0.03659958
-5.273192	bhatt	-0.04495403
-4.729124	bi	0.06356579
-5.574222	bia	-0.04511799
-4.875252	bias	-0.0311842
-5.574222	biathlon	-0.04511799
-4.671133	bible	0.002049685
-5.574222	bibles	-0.1766118
-4.61998	bicycle	-0.3852229
-4.875252	bid	-0.2071035
-5.273192	bidding	-0.04499976
-3.671132	big	-0.08402312
-4.495041	bigger	-0.04372281
-4.671133	biggest	-0.1775446
-4.495041	bike	-0.1812217
-5.574222	biker	-0.1760129
-5.574222	biking	-0.1776131
-4.875252	bilingual	-0.1264092
-5.574222	bilingualism	-0.04511799
-5.574222	bilinguals	-0.1135182
-4.428094	bill	-0.2375145
-5.273192	billion	-0.1135021
-5.273192	billions	-0.0420987
-4.972162	bills	-0.1457908
-5.574222	billy	-0.04511799
-5.574222	bimbo	-0.1776131
-5.574222	bimbotic	-0.1789424
-5.574222	binary	-0.1791335
-4.53283	bind	-0.6866459
-5.574222	binder	-0.1135182
-5.273192	binding	-0.04507069
-5.574222	binds	-0.04511799
-5.273192	binomial	-0.0450912
-3.754678	bio	-0.4235813
-5.273192	biochemistry	0.04690956
-5.097101	biodegradable	-0.1947571
-4.875252	biodiversity	-0.7434826
-4.972162	bioinformatics	-0.2759632
-5.574222	bioinformation	-0.04511799
-4.61998	biological	-0.2835953
-5.574222	biologist	-0.04511799
-4.460279	biology	-0.4502277
-5.273192	biomedical	-0.04483892
-5.273192	bioplastic	-0.2948996
-5.273192	bios	-0.0447364
-5.273192	bioscience	0.04690956
-4.796071	biotech	0.05378211
-4.729124	bird	-0.2410191
-5.574222	bird's	-0.1790941
-5.273192	birds	-0.1757679
-5.097101	birth	-0.1087826
-3.826034	birthday	-0.2997075
-5.574222	birthdays	-0.1791138
-5.097101	bis	-0.3287941
-4.796071	biscuit	-0.1932477
-5.097101	bishan	-0.102802
-3.699161	bit	-0.3047596
-5.273192	bitch	-0.04457861
-4.972162	bite	-0.04480582
-5.273192	bites	-0.1130629
-4.972162	bitter	-0.06026399
-5.574222	bitterness	-0.1766118
-4.273192	biz	-0.5586584
-5.574222	blabbering	-0.1791427
-4.159249	black	-0.1963901
-4.61998	blackberry	-0.1908015
-5.574222	blackmail	-0.1135182
-5.574222	blacks	-0.1786586
-5.574222	blading	-0.1759371
-4.61998	blah	-0.2966688
-5.097101	blame	-0.04075232
-5.574222	blamed	-0.1135182
-4.972162	blank	-0.05716713
-5.574222	blatantly	-0.1135182
-4.729124	bleach	-0.333142
-4.671133	blend	-0.3197025
-5.273192	blending	-0.2948996
-5.574222	blew	-0.1771447
-4.796071	blind	-0.2551691
-5.273192	blindfold	-0.2948996
-5.097101	blindfolded	-0.1826163
-5.574222	blindly	-0.04511799
-5.574222	blinds	-0.04511799
-4.972162	bling	-0.3632945
-5.273192	blinking	0.04690956
-5.273192	blister	-0.2948996
-5.574222	blisters	-0.04511799
-5.574222	blob	-0.04511799
-3.639724	block	-0.3900385
-4.972162	blocks	0.04882094
-4.127064	blog	-0.5264031
-5.574222	blogspot	-0.1135182
-5.574222	blond	-0.04511799
-5.273192	blonde	-0.1740742
-3.875252	blood	-0.2824746
-4.875252	bloody	-0.1270083
-5.574222	blot	-0.04511799
-5.574222	blotting	-0.04511799
-5.574222	blouse	-0.04511799
-4.796071	blow	-0.1074387
-5.097101	blowing	-0.03289983
-5.574222	blown	-0.1785148
-5.574222	blows	-0.1787547
-5.273192	blu	-0.4289221
-4.53283	blue	-0.1118373
-5.273192	blueray	-0.2948996
-5.097101	bluetooth	-0.3997256
-5.097101	bluff	-0.3282971
-4.2318	blur	-0.6011077
-5.574222	blurry	-0.04511799
-5.574222	bo	-0.1789262
-4.159249	board	-0.3463211
-5.097101	boards	0.0471278
-4.428094	boat	-0.4829338
-4.972162	bob	-0.4145221
-5.273192	bodies	-0.2948996
-4.030154	body	-0.08258674
-5.097101	boh	-0.1947539
-5.097101	boil	-0.102802
-5.574222	boiling	-0.04511799
-5.574222	bok	-0.04511799
-4.875252	bollywood	0.06721264
-4.875252	bomb	-0.353857
-5.097101	bombastic	-0.1947823
-4.055708	bond	-0.4493455
-5.273192	bondage	-0.04342192
-4.460279	bonded	-0.2308878
-4.428094	bonding	-0.175212
-4.671133	bonds	-0.1867062
-5.273192	bone	-0.04462753
-5.574222	bong	-0.04511799
-5.574222	bonjour	-0.1769307
-4.671133	bonus	-0.2631294
-3.491437	book	-0.504916
-5.273192	booked	-0.2948996
-4.972162	booking	-0.1885578
-4.574222	booklet	-0.463945
-5.574222	bookmark	-0.04511799
-4.53283	books	-0.1932601
-5.574222	bookshop	-0.1135182
-5.273192	bookstore	-0.2948996
-4.972162	boom	-0.2767359
-5.574222	boomz	-0.1135182
-4.875252	boon	-0.3547058
-5.097101	boost	-0.1770354
-5.273192	booster	-0.4289105
-5.574222	boot	-0.04511799
-5.273192	booth	-0.1135061
-5.574222	booths	-0.04511799
-5.097101	boots	-0.1826163
-5.273192	borderline	-0.3632999
-5.574222	borders	-0.1135182
-4.972162	bored	0.05036166
-5.574222	boredom	-0.04511799
-3.80337	boring	-0.5127066
-4.796071	born	-0.1677994
-5.574222	borough	-0.04511799
-4.53283	borrow	-0.1622319
-5.097101	borrowing	-0.04175098
-4.097101	boss	-0.4867835
-5.574222	bossy	-0.04511799
-5.273192	boston	-0.4289255
-5.273192	botanic	-0.1791265
-5.574222	botanical	-0.179145
-3.892981	both	-0.2975418
-4.875252	bother	-0.03901516
-5.097101	bothered	-0.1744254
-4.460279	bottle	-0.8571953
-4.875252	bottom	-0.1749634
-4.796071	bought	-0.2394523
-4.796071	bouldering	-0.08596195
-5.097101	bounce	-0.5335164
-5.097101	bound	-0.102802
-5.574222	boundaries	-0.04511799
-5.273192	boundary	-0.3632999
-5.574222	bouquets	-0.1769307
-5.574222	boutique	-0.04511799
-5.097101	bow	-0.1948201
-5.574222	bowel	-0.1135182
-4.671133	bowl	-0.1323126
-4.495041	bowling	-0.1828068
-4.127064	box	-0.3198639
-5.273192	boxers	0.04690956
-5.273192	boxing	-0.04468592
-4.295469	boy	-0.06007412
-4.097101	boyfriend	-0.3861845
-4.142859	boys	-0.2406098
-5.273192	bra	0.04690956
-5.273192	brace	-0.4289174
-5.273192	braces	-0.2948996
-5.273192	bracket	-0.1134563
-4.398131	brain	-0.08915922
-5.574222	brainless	-0.04511799
-5.097101	brains	-0.03797169
-5.574222	brainstorm	-0.04511799
-5.273192	brake	0.04690956
-4.428094	branch	-0.2388272
-4.31895	brand	-0.3437755
-4.875252	branded	-0.7434826
-5.273192	branding	-0.113265
-4.972162	brandon	-0.6152856
-5.273192	brass	-0.2948996
-4.31895	braun	-0.5721024
-5.097101	brave	-0.04075073
-5.574222	brazil	-0.04511799
-5.574222	brazilian	-0.1135182
-4.53283	bread	-0.0934543
-3.735373	break	-0.4654977
-5.574222	breakdown	-0.1784453
-4.370102	breakfast	-0.1412473
-5.273192	breaking	-0.038252
-5.574222	breaks	-0.1767422
-5.273192	breakthrough	-0.04498714
-5.574222	breakup	-0.04511799
-4.729124	breast	-0.3100882
-5.273192	breath	-0.3632999
-4.671133	breathe	-0.1200985
-5.574222	breathing	-0.04511799
-5.574222	bred	-0.1767422
-5.574222	breed	-0.04511799
-5.574222	brendy	-0.04511799
-5.574222	brew	-0.04511799
-5.273192	brian	-0.0416636
-5.273192	bribe	-0.2948996
-5.097101	bricks	-0.3997256
-5.574222	bride	-0.04511799
-4.31895	bridge	-0.2767826
-5.574222	bridging	-0.1786586
-5.574222	brief	-0.178925
-5.097101	brigade	-0.2629362
-4.972162	bright	-0.1030386
-5.273192	brightness	-0.2948996
-3.911464	bring	-0.2873098
-5.273192	bringing	-0.1740484
-5.097101	brisbane	-0.3997256
-5.574222	british	-0.1791393
-5.097101	broad	-0.1790825
-4.875252	broadband	-0.1264151
-4.370102	broadcast	-0.4217874
-5.574222	broadcaster	-0.1135182
-5.574222	broadcasting	-0.1778849
-4.61998	brochure	-0.2625663
-5.574222	broco's	-0.1789424
-5.097101	broke	-0.1939697
-5.273192	broken	-0.4289221
-5.574222	brokering	-0.04511799
-5.574222	bronze	-0.1791335
-5.574222	broth	-0.1135182
-3.748147	brother	-0.3220825
-5.574222	brother's	-0.1789621
-4.729124	brothers	-0.1727703
-5.574222	brouchures	-0.04511799
-4.671133	brought	-0.2203648
-4.796071	brown	-0.2431611
-5.574222	brownie	-0.04511799
-5.574222	browse	-0.1790165
-5.574222	browser	-0.04511799
-5.097101	bruce	-0.5337503
-4.796071	brunei	-0.333087
-4.972162	brush	-0.2851742
-5.273192	brussel	0.04690956
-4.972162	bryan	-0.1515347
-4.61998	bubble	-0.2636392
-5.574222	bubbling	-0.04511799
-4.972162	buck	-0.7486824
-5.574222	bucket	-0.04511799
-5.574222	buckle	-0.04511799
-4.428094	bucks	-0.05487315
-5.574222	buddha	-0.1135182
-5.574222	buddhism	-0.1702096
-4.460279	buddhist	-0.08220859
-5.574222	buddhists	-0.1135182
-4.53283	buddy	-1.035018
-3.875252	budget	-0.5011573
-5.574222	buffect	-0.1791022
-4.972162	buffer	-0.2028721
-4.08286	buffet	-0.4781156
-4.875252	bug	-0.4224439
-4.460279	bugis	-0.2876416
-4.972162	bugs	-0.6152856
-4.08286	build	-0.6144435
-3.428094	building	-0.5624157
-5.273192	buildings	-0.04413179
-5.574222	builds	-0.1785148
-5.273192	built	-0.04356273
-4.796071	bukit	-0.2852919
-5.097101	bulb	0.04808392
-4.972162	bulk	-0.1505405
-4.53283	bull	-0.2110323
-5.097101	bulldog	-0.03214212
-4.796071	bullet	-0.6743505
-5.273192	bullshit	-0.1127029
-4.729124	bully	-0.2928091
-5.273192	bump	-0.1790061
-5.574222	bumpkin	-0.1135182
-4.875252	bunch	-0.1366704
-5.574222	bundle	-0.1773075
-4.671133	bungalow	-0.1492447
-4.61998	bungee	-0.8157945
-5.097101	bunk	-0.1939492
-4.875252	buoyancy	-0.03639798
-4.729124	burden	-0.1847422
-4.875252	burger	-0.04304205
-4.273192	burn	-0.4502246
-5.574222	burning	-0.179145
-5.273192	burns	-0.1783328
-5.273192	burnt	-0.1135115
-5.574222	burp	-0.04511799
-5.574222	burst	-0.1790084
-3.309404	bus	-0.6129243
-4.729124	buses	-0.1618467
-5.273192	bush	-0.2948996
-5.574222	bushy	-0.176401
-5.574222	busic	-0.04511799
-3.227869	business	-0.4212968
-5.574222	businessman	-0.1702096
-5.574222	businessmen	-0.1135182
-4.111825	busy	-0.1649425
-2.132999	but	-0.7050589
-5.273192	butt	-0.04501553
-4.729124	butter	-0.0716155
-5.273192	butterfly	-0.04496349
-5.097101	butterworth	-0.3997256
-4.495041	button	-0.03844495
-3.774882	buy	-0.1989177
-4.398131	buyer	-0.418101
-4.875252	buying	-0.1943599
-5.574222	buys	-0.1789111
-3.194011	by	-0.1897784
-4.574222	bye	-0.296817
-5.574222	byran	-0.04511799
-3.364707	c	-0.4012093
-2.774193	c.	-0.747762
-5.097101	c.a.m.s.t.a.r.	-0.3997256
-5.574222	c.a.m.s.t.a.r.loh	-0.04511799
-5.574222	c.a.m.s.t.a.r.mah	-0.1135182
-5.574222	ca	-0.1791416
-4.796071	cab	-0.4299089
-5.574222	cabbage	-0.04511799
-5.574222	cabin	-0.04511799
-4.194011	cable	-0.9127044
-4.972162	cabohidrate	-0.1459732
-5.273192	cac	0.04690956
-5.574222	cactus	-0.1790964
-5.273192	cadet	-0.1786389
-5.273192	cadets	-0.1757294
-4.370102	cafe	-0.2493487
-3.892981	cake	-0.7271863
-5.574222	calamary	-0.04511799
-5.097101	calcium	-0.3997256
-5.574222	calcul	-0.04511799
-4.127064	calculate	-0.4689336
-5.574222	calculated	-0.1782504
-4.343773	calculation	-0.6690819
-5.097101	calculations	-0.3997256
-5.574222	calculator	-0.04511799
-5.574222	calculus	-0.1135182
-5.574222	caleb	-0.04511799
-4.729124	calendar	-0.2923237
-5.574222	calibration	-0.1789864
-4.671133	california	-0.0501577
-3.336176	call	-0.4550567
-3.768042	called	-0.1337533
-5.574222	caller	-0.04511799
-5.574222	calligraphy	-0.1766118
-4.875252	calling	-0.2894441
-4.428094	calls	-0.2278763
-5.273192	calm	-0.2948996
-4.574222	calorie	-0.2431775
-4.972162	calories	-0.2750862
-5.574222	cam	-0.04511799
-5.574222	camaraderie	-0.1766118
-4.370102	cambodia	-0.1554466
-5.097101	cambridge	-0.3997256
-4.111825	came	-0.451522
-5.574222	cameo	-0.04511799
-3.884026	camera	-0.579816
-4.875252	cameraman	-0.4233648
-5.574222	cameras	-0.1135182
-4.428094	cameron	-1.190633
-3.235766	camp	-0.6584867
-4.53283	campaign	-0.3904781
-5.574222	campaigns	-0.04511799
-5.574222	camper	-0.04511799
-5.574222	campfire	-0.04511799
-4.972162	camping	0.05262381
-4.972162	camps	-0.0438869
-5.097101	campsite	-0.1731186
-4.273192	campus	-0.319463
-2.730367	can	-0.3511232
-3.875252	can't	-0.1582888
-4.796071	canada	-0.2385974
-4.61998	canadian	-0.3556069
-5.574222	canal	-0.1784801
-4.343773	cancel	-0.6435516
-4.972162	cancelled	-0.1460259
-4.273192	cancer	-0.6857646
-4.972162	cancerous	-0.1885578
-5.097101	candice	0.04691735
-5.574222	candid	-0.1791358
-5.273192	candidate	-0.2948996
-4.61998	candle	-0.1940543
-5.574222	candles	-0.1744804
-4.142859	candy	-0.3274314
-5.097101	cane	-0.03991729
-5.574222	caned	-0.1772877
-5.574222	canidae	-0.04511799
-4.875252	caning	-0.03232288
-5.273192	cannon	-0.2948996
-3.146087	cannot	-0.3198399
-4.370102	cannula	-0.3258799
-5.273192	cannulation	-0.1132448
-4.671133	canoe	-0.2395803
-4.972162	canoeing	-0.102539
-5.273192	canon	-0.1790571
-5.574222	cans	-0.1771052
-4.729124	cant	-0.1609093
-3.983158	canteen	-0.2923033
-4.212494	cantonese	-0.5451874
-4.729124	canvas	-0.07757883
-4.495041	canvass	-0.08823708
-3.961438	canvassing	-0.4102135
-5.097101	canyon	0.05153953
-4.671133	cap	-0.3244305
-4.972162	capability	-0.2028721
-5.097101	capable	-0.1083305
-5.273192	capacitor	0.04690956
-4.671133	capacity	-0.1397368
-4.460279	capital	-0.8562894
-5.273192	capsule	-0.2948996
-4.428094	captain	-0.2437193
-5.574222	captains	-0.1135182
-5.574222	captivating	-0.1788833
-4.252003	capture	-0.9657773
-3.748147	car	-0.2865171
-5.273192	caramel	0.04690956
-5.097101	caravan	-0.1948248
-5.574222	carbohydrate	-0.04511799
-4.111825	carbon	-0.4534209
-5.574222	carbonated	-0.04511799
-3.682128	card	-0.6929772
-4.875252	cardboard	-0.7434826
-5.574222	cardboards	-0.1135182
-4.875252	cards	-0.02101758
-3.93077	care	-0.261496
-4.428094	career	-0.2600832
-5.574222	careers	-0.04511799
-5.574222	carefree	-0.04511799
-4.875252	careful	-0.03733356
-5.574222	cargo	-0.179145
-5.574222	caribbean	-0.1135182
-5.574222	carlo	-0.04511799
-5.574222	carnegie	-0.04511799
-5.574222	carnival	-0.04511799
-4.370102	caroling	-0.1605286
-5.097101	carolling	-0.04323834
-5.273192	carols	0.04690956
-5.097101	carpark	-0.3997256
-5.097101	carpet	-0.3997256
-5.097101	carried	-0.04420128
-5.097101	carrot	-0.3288011
-4.2318	carry	-0.3818423
-4.972162	carrying	-0.1672798
-4.495041	cars	-0.3352713
-5.574222	carton	-0.1791138
-4.127064	cartoon	-0.5421892
-5.574222	carved	-0.1787513
-5.574222	carvings	-0.1135182
-3.710899	case	-0.4169223
-4.495041	cases	-0.1614816
-4.53283	cash	-0.2770756
-4.796071	cashier	-0.1758417
-4.972162	casing	-0.2166355
-4.428094	casino	-0.6042346
-5.273192	casinos	-0.0329047
-4.295469	cast	-0.2530108
-5.574222	casted	-0.1751141
-5.273192	caster	-0.04487363
-5.574222	casting	-0.1789274
-5.273192	castle	-0.1765617
-4.370102	castor	-0.4517985
-5.097101	casual	-0.1947665
-4.972162	cat	-0.1512267
-5.574222	catalog	-0.04511799
-4.875252	catalyst	-0.1293936
-4.069072	catch	-0.4798755
-4.972162	catchy	-0.1748348
-5.097101	categories	-0.102802
-5.273192	categorise	-0.113358
-4.972162	categorize	-0.6152856
-4.370102	category	-0.5447068
-4.796071	cater	-0.2772407
-4.61998	cathay	-0.3827347
-5.574222	cathedral	-0.04511799
-5.574222	cather	-0.1772877
-4.61998	catheter	-0.222927
-5.574222	cathode	-0.1791404
-4.796071	catholic	-0.1038269
-5.273192	cats	-0.0451038
-5.574222	catter	-0.1790663
-5.574222	catwalk	-0.04511799
-5.574222	caucasian	-0.04511799
-4.875252	caught	-0.2990617
-5.574222	causation	-0.04511799
-3.171102	cause	-0.4888946
-5.097101	caused	-0.1879636
-5.273192	cave	-0.1732019
-5.574222	cd	-0.04511799
-5.574222	cds	-0.1135182
-5.574222	cecification	-0.1791126
-5.273192	ceiling	-0.4289105
-4.972162	celcom	0.046929
-4.055708	celebrate	-0.3234274
-5.574222	celebrated	-0.1790814
-5.097101	celebrating	-0.1771831
-4.53283	celebration	-0.1560936
-5.273192	celebrations	-0.1107208
-4.729124	celebrity	-0.2927468
-5.097101	celestica	-0.102802
-5.574222	celine	-0.179145
-4.006021	cell	-0.7193899
-5.273192	cello	-0.0329047
-4.972162	cells	-0.1513815
-5.273192	celtics	-0.2948996
-5.097101	cement	-0.194612
-5.574222	cemented	-0.1790918
-5.574222	cemetery	-0.1135182
-5.574222	censor	-0.04511799
-4.729124	cent	-0.0642567
-4.111825	center	-0.6135002
-5.574222	centers	-0.1135182
-5.574222	centimeters	-0.04511799
-5.574222	centimetre	-0.179145
-4.460279	central	-0.1746113
-5.574222	centralised	-0.1135182
-5.574222	centralize	-0.04511799
-5.273192	centralized	-0.2948996
-3.62974	centre	-0.5658625
-5.574222	centres	-0.1744804
-5.574222	centric	-0.1791312
-4.796071	cents	-0.1009512
-5.574222	century	-0.17913
-5.574222	cep	-0.1744804
-5.574222	ceramic	-0.1791427
-5.273192	cereal	-0.2948996
-4.729124	ceremony	-0.4111272
-4.08286	cert	-0.5816332
-3.729124	certain	-0.1772681
-4.796071	certificate	-0.1891133
-5.574222	certificates	-0.1135182
-4.875252	certification	-0.7434826
-4.53283	certified	-0.7844313
-4.671133	certify	-0.2533939
-4.796071	cervic	-0.4775369
-4.796071	cervix	-0.2776756
-5.273192	cetera	-0.03752121
-5.574222	cf.	-0.1786644
-5.273192	cha	-0.04511483
-5.574222	chachuchat	-0.1769272
-4.574222	chain	-0.2776729
-4.194011	chair	-0.5469556
-5.273192	chairman	-0.04349154
-5.273192	chairperson	-0.176755
-5.574222	chairs	-0.04511799
-4.370102	chalet	-0.4093116
-5.574222	chalets	-0.04511799
-4.495041	challenge	-0.1549816
-5.574222	challenger	-0.04511799
-5.273192	challenges	-0.2948996
-4.53283	challenging	-0.2357658
-5.097101	champ	-0.102802
-5.273192	champaign	-0.2948996
-4.796071	champion	0.06564569
-4.972162	champions	-0.2819132
-4.972162	championship	-0.2028721
-4.574222	chan	-0.2455764
-3.994439	chance	-0.5429956
-4.729124	chances	-0.2891289
-3.699161	change	-0.2650594
-5.097101	changed	-0.0387001
-5.097101	changers	-0.1945237
-4.574222	changes	-0.05822812
-4.61998	changi	-0.04629456
-5.273192	changing	-0.1773947
-4.252003	channel	-0.2909868
-5.574222	channels	-0.179064
-4.796071	chap	-0.1009786
-5.097101	chapel	0.0620563
-4.31895	chapter	-0.6660438
-5.574222	char	-0.1135182
-4.111825	character	-0.5504993
-4.729124	characteristic	-0.333142
-5.273192	characteristics	-0.2948996
-4.875252	characters	-0.03491805
-5.097101	charcoal	-0.1918103
-3.875252	charge	-0.8148572
-4.796071	charged	-0.09347199
-5.574222	charger	-0.1702096
-5.273192	charges	-0.04421076
-5.574222	charging	-0.04511799
-5.574222	charitable	-0.1791161
-4.729124	charity	-0.2381546
-5.574222	charlie	-0.1769307
-4.972162	charming	-0.6152856
-4.53283	chart	-0.04890199
-5.273192	chartered	-0.04511325
-5.574222	charts	-0.1791404
-4.729124	chase	-0.07081179
-4.252003	chat	-0.454644
-4.796071	chatting	-0.1846659
-5.273192	che	-0.1790848
-5.273192	cheah	0.04690956
-4.069072	cheap	-0.2285554
-4.460279	cheaper	-0.07874693
-5.574222	cheapest	-0.1791439
-5.574222	cheapo	-0.04511799
-4.875252	cheat	-0.2315516
-5.574222	cheated	-0.1785508
-5.574222	cheating	-0.1781356
-3.386702	check	-0.6444655
-5.273192	checked	-0.1740566
-4.972162	checking	-0.03741056
-5.574222	checkup	-0.04511799
-5.273192	cheena	-0.1766397
-4.142859	cheer	-0.1406991
-5.574222	cheerful	-0.04511799
-5.574222	cheerleader	-0.1135182
-5.273192	cheerleaders	-0.1784418
-4.08286	cheerleading	-0.3093466
-3.972162	cheese	-0.6770051
-5.273192	cheesecake	-0.04074277
-5.574222	chef	-0.04511799
-5.273192	chefs	-0.2948996
-5.574222	cheh	-0.1135182
-5.273192	chelsea	-0.2948996
-4.176282	chem	-0.2752393
-4.069072	chemical	-0.4724031
-5.574222	chemicals	-0.04511799
-5.574222	chemist	-0.1772877
-3.866652	chemistry	-0.4175377
-5.574222	chemotherapy	-0.1135182
-5.273192	chen	-0.2948996
-5.097101	chendol	-0.4681258
-5.574222	cheong	-0.179145
-4.875252	cheque	-0.139875
-5.574222	cherish	-0.1135182
-4.875252	cheryl	-0.1791101
-4.972162	chess	-0.05887274
-5.273192	chest	-0.178662
-5.574222	chestand	-0.1791323
-5.273192	chester	-0.1771366
-5.574222	chestnut	-0.1135182
-5.574222	chey	-0.04511799
-5.273192	chi	-0.1740941
-5.574222	chia	-0.1135182
-5.097101	chiang	-0.3288543
-5.574222	chicago	-0.04511799
-5.574222	chick	-0.1135182
-3.972162	chicken	-0.2608039
-4.671133	chief	-0.2817494
-4.273192	child	-0.1994806
-4.875252	childhood	-0.1300527
-4.08286	children	-0.2058636
-5.574222	children's	-0.1791057
-4.875252	chili	-0.222154
-5.574222	chimpanzee	-0.1135182
-5.574222	chin	-0.1135182
-3.841829	china	-0.2701427
-4.875252	chinatown	-0.3347916
-3.025219	chinese	-0.35432
-5.574222	ching	-0.04511799
-5.097101	chingay	-0.5336901
-5.574222	chio	-0.1791381
-4.671133	chiong	0.01853633
-4.972162	chip	-0.2203974
-4.972162	chips	-0.1885578
-5.574222	chipset	-0.04511799
-4.875252	chit	-0.8774865
-5.273192	choa	-0.4289244
-4.343773	chocolate	-0.3753136
-5.097101	chocolates	-0.03862812
-3.660408	choice	-0.5142963
-4.729124	choices	-0.4039532
-4.030154	choir	-0.406155
-5.273192	choking	-0.2948996
-5.273192	cholera	-0.2948996
-5.574222	cholesterol	-0.04511799
-5.097101	chong	-0.1931113
-3.710899	choose	-0.2491316
-4.729124	chop	-0.107811
-5.273192	chopper	0.04690956
-5.097101	chord	-0.2632271
-5.574222	chords	-0.04511799
-5.574222	chore	-0.04511799
-5.574222	choreograph	-0.04511799
-5.273192	chores	-0.1756793
-5.273192	chorus	-0.04479791
-4.972162	chose	-0.2789857
-5.273192	chosen	-0.1782899
-4.796071	chris	-0.09070168
-4.875252	christchurch	-0.4268112
-4.111825	christian	-0.2571481
-5.574222	christians	-0.1789934
-3.781831	christmas	-0.2927362
-4.729124	chromosome	-0.149316
-5.273192	chronicle	0.04690956
-5.273192	chronicles	-0.2948996
-5.097101	chu	-0.1948201
-5.574222	chua	-0.04511799
-5.574222	chuan	-0.1776131
-5.273192	chui	-0.1131775
-5.574222	chun	-0.1791358
-5.273192	chunky	-0.2948996
-3.875252	church	-0.3820887
-5.574222	cicada	-0.04511799
-5.273192	cigarette	-0.2948996
-4.875252	cigarettes	-0.02816324
-5.273192	cinderalla	-0.04504076
-5.574222	cinderella	-0.04511799
-4.729124	cinema	-0.333142
-5.273192	cinemas	-0.1124762
-4.495041	circle	-0.3834276
-5.273192	circles	-0.04502183
-4.671133	circuit	-0.2535968
-5.574222	circuits	-0.1135182
-5.574222	circumstances	-0.04511799
-5.273192	cisco	-0.04510064
-5.097101	citation	-0.102802
-5.574222	cite	-0.1791427
-4.875252	citibank	-0.123831
-4.972162	cities	-0.03860095
-5.273192	citizen	0.04690956
-5.273192	citizens	-0.2948996
-3.768042	city	-0.39336
-5.574222	cityhall	-0.1790293
-4.370102	civil	-0.219495
-5.097101	civilian	-0.04165725
-5.574222	civilized	-0.04511799
-4.495041	claim	-0.5162418
-5.273192	claimed	-0.4263992
-5.574222	claiming	-0.179145
-5.273192	clara	-0.1772656
-5.574222	clarence	-0.1788382
-4.875252	clarify	-0.2313369
-5.574222	clarinet	-0.1135182
-4.495041	clash	-0.2556117
-5.574222	clashes	-0.1785624
-3.370102	class	-0.4670935
-4.875252	classes	-0.1128272
-5.097101	classic	-0.1948107
-5.574222	classical	-0.04511799
-4.61998	classmate	-0.3962993
-5.273192	classmates	-0.1134092
-5.097101	classroom	-0.1738023
-5.273192	classy	-0.04476006
-5.273192	clay	-0.04504076
-4.460279	clean	-0.03814937
-5.097101	cleaner	-0.1000851
-5.097101	cleaning	0.04692124
-5.097101	cleanliness	-0.04407176
-3.665737	clear	-0.3646317
-5.097101	clearing	-0.328669
-5.574222	clearly	-0.1757563
-5.574222	cleary	-0.04511799
-4.574222	clementi	-0.3236718
-5.273192	clerical	-0.4285955
-4.796071	clerk	-0.2420002
-5.574222	clerks	-0.178349
-4.875252	clever	-0.1244378
-5.097101	cliche	-0.3997256
-3.994439	click	-0.2385615
-5.574222	clicks	-0.1135182
-4.398131	client	-0.5249754
-4.796071	clients	-0.08322906
-5.574222	cliff	-0.1791439
-5.273192	climate	-0.1790351
-5.273192	climax	-0.2948996
-4.574222	climb	-0.2970194
-5.574222	climber	-0.04511799
-4.31895	climbing	-0.4733694
-4.495041	clinic	-0.2147183
-4.972162	clinical	-0.2857077
-5.097101	clint	-0.5337503
-4.796071	clip	-0.1921573
-4.08286	clique	-0.4473093
-5.273192	cliques	-0.1676223
-4.460279	clock	-0.1820247
-5.574222	cloning	-0.04511799
-5.574222	clooney	-0.04511799
-3.495041	close	-0.5804487
-4.729124	closed	-0.1656544
-5.097101	closely	-0.26318
-4.729124	closer	-0.476563
-5.097101	closest	-0.04479949
-5.574222	closet	-0.1791439
-4.671133	closing	-0.1097545
-5.273192	cloth	-0.2948996
-4.53283	clothes	-0.1843426
-5.574222	clothings	-0.179064
-5.273192	cloud	-0.1791173
-5.097101	cloudy	-0.1948233
-3.578587	club	-0.5764682
-4.398131	clubbing	-0.1956596
-4.729124	clubs	-0.001039863
-5.574222	clueless	-0.04511799
-5.574222	clumsy	-0.04511799
-4.796071	cluster	-0.2729485
-5.574222	clustered	-0.04511799
-4.61998	clustering	-0.907333
-5.574222	clutering	-0.04511799
-5.574222	cluttered	-0.04511799
-5.273192	cm	-0.1791254
-4.252003	co	-0.1584697
-5.273192	co.	-0.3632999
-4.01792	coach	-0.6265126
-5.273192	coaching	0.04690956
-5.574222	coagulate	-0.04511799
-4.2318	coast	-0.5779241
-4.495041	coaster	-0.5222223
-5.574222	coasters	-0.04511799
-5.097101	coat	-0.1826163
-5.574222	coby	-0.1791416
-4.972162	coca	-0.7493091
-4.729124	cock	-0.1428549
-4.729124	cockroach	-0.1717665
-5.097101	cocktail	-0.1942965
-5.574222	cocoa	-0.1791404
-5.097101	coconut	-0.3288254
-5.273192	cod	-0.113393
-3.961438	code	-0.8521293
-4.428094	coding	-0.7718049
-4.142859	coffee	-0.3616719
-4.875252	cognitive	-0.22045
-5.273192	cohort	-0.177828
-5.273192	coin	-0.3632999
-5.097101	coincide	-0.1940345
-5.574222	coincidence	-0.1766176
-5.273192	coincidentally	-0.1757236
-4.972162	cola	-0.1522494
-4.53283	cold	-0.1004563
-5.273192	colder	-0.0420987
-5.273192	coli	0.04690956
-4.729124	collaborate	-0.3206296
-5.097101	collaboration	-0.1942176
-5.273192	collage	-0.1752379
-5.097101	collapse	-0.102802
-5.097101	collate	-0.1076254
-3.961438	colleague	-0.8646855
-5.574222	colleague's	-0.1791346
-4.729124	colleagues	-0.1846892
-4.030154	collect	-0.1584531
-5.574222	collected	-0.1787501
-4.972162	collection	-0.1103466
-5.574222	collective	-0.176401
-5.273192	collectively	-0.2948996
-5.273192	collector	-0.0423367
-5.273192	collects	-0.1781495
-5.574222	colledge	-0.1790061
-3.875252	college	-0.6283616
-5.574222	colleges	-0.1767422
-5.574222	collegue	-0.1790073
-5.574222	collin	-0.178669
-5.574222	colllaborate	-0.04511799
-5.273192	colony	-0.2948996
-4.194011	color	-0.5751501
-5.574222	colorful	-0.04511799
-5.273192	coloring	-0.179086
-5.574222	colosseum	-0.04511799
-4.042743	colour	-0.4540011
-5.273192	coloured	-0.4288445
-5.574222	colourful	-0.1769307
-4.61998	column	-0.9993511
-5.574222	columns	-0.04511799
-3.557189	com	-0.4051561
-5.273192	coma	-0.1031062
-4.875252	combat	-0.877505
-4.875252	combination	-0.2287951
-4.097101	combine	-0.4658036
-4.972162	combined	-0.2941046
-5.574222	combo	-0.04511799
-5.097101	combustion	-0.1920483
-3.268871	come	-0.6521435
-4.972162	comedy	-0.1885578
-4.212494	comes	-0.357929
-5.574222	comfartable	-0.04511799
-4.212494	comfortable	-0.1644625
-4.460279	comic	-0.7395988
-5.574222	comical	-0.1769307
-4.111825	coming	-0.1444802
-4.159249	comm	-0.5552166
-5.574222	comma	-0.04511799
-4.212494	command	-0.5346161
-5.097101	commander	-0.3997256
-4.671133	commando	-0.1045268
-5.574222	commendable	-0.1784812
-5.574222	commendator	-0.04511799
-4.252003	comment	-0.3980045
-5.574222	commentary	-0.04511799
-5.273192	commentator	-0.2948996
-5.273192	commentators	-0.2948996
-5.574222	commented	-0.1782122
-5.574222	commenter	-0.04511799
-5.097101	commenting	-0.04105471
-4.796071	comments	-0.3269968
-5.574222	commer	-0.04511799
-5.574222	commerce	-0.04511799
-4.53283	commercial	-0.2063882
-5.574222	commercialism	-0.1135182
-5.097101	commercialize	-0.102802
-5.273192	commision	-0.2948996
-4.729124	commission	-0.4175961
-4.53283	commit	-0.1465962
-4.343773	commitee	-0.3574215
-4.796071	commitment	-0.5186599
-5.097101	commitments	-0.1088139
-5.097101	committed	-0.1879636
-3.596499	committee	-0.4726076
-4.428094	committees	-0.1427914
-3.892981	common	-0.2351959
-5.273192	commonly	-0.04496665
-5.574222	commonsense	-0.04511799
-5.097101	comms	0.0469797
-4.176282	communicate	-0.5756322
-3.858219	communication	-0.4330503
-4.295469	communications	-0.2777677
-5.273192	communicator	-0.2948996
-5.097101	communism	-0.3997256
-4.796071	communist	-0.09508638
-4.343773	community	-0.4234106
-4.460279	comp	-0.2803271
-4.61998	compact	-0.1910491
-5.574222	compactness	-0.04511799
-4.61998	companies	-0.1971055
-3.300065	company	-0.5768925
-5.574222	comparable	-0.04511799
-5.574222	comparative	-0.1751141
-5.574222	comparatively	-0.04511799
-3.781831	compare	-0.9562387
-3.649943	compared	-1.078693
-5.273192	comparison	-0.03875288
-5.574222	compartment	-0.1702096
-5.273192	compass	-0.1132125
-5.574222	compatible	-0.04511799
-5.574222	compensating	-0.1785624
-5.097101	compensation	0.05064455
-4.796071	compete	-0.4797659
-4.875252	competency	-0.8774344
-5.574222	competi	-0.1790999
-3.972162	competition	-0.3189942
-5.273192	competitions	0.04690956
-4.671133	competitive	-0.2611337
-5.574222	competitively	-0.1757563
-4.875252	competitor	-0.7434826
-4.61998	compile	-0.2846956
-5.574222	compiled	-0.1769307
-5.273192	compiler	-0.0451038
-5.574222	compla	-0.04511799
-4.01792	complain	-0.4732415
-4.671133	complaining	-0.3018723
-4.671133	complaint	-0.8202143
-5.574222	complement	-0.04511799
-5.574222	complementary	-0.04511799
-4.212494	complete	-0.3436178
-4.972162	completely	-0.1521737
-5.574222	completion	-0.04511799
-4.460279	complex	-0.133222
-4.671133	complicated	-0.1451664
-5.574222	complusory	-0.1791404
-4.671133	component	-0.5174488
-5.273192	components	-0.1135155
-4.972162	compose	-0.2840643
-5.574222	composed	-0.1771052
-5.273192	composing	-0.1770226
-5.574222	composition	-0.04511799
-4.252003	compound	-0.5190407
-5.273192	compounds	-0.4248957
-5.574222	comprehension	-0.04511799
-5.273192	compress	-0.2948996
-5.574222	compressed	-0.1791312
-5.097101	compressor	-0.102802
-5.097101	compromise	0.05371679
-5.574222	compromising	-0.04511799
-4.61998	compulsory	-0.374679
-5.273192	compute	-0.428804
-3.470419	computer	-0.4370463
-5.574222	computerised	-0.04511799
-5.574222	computerize	-0.04511799
-5.574222	computers	-0.04511799
-4.460279	computing	-0.2876982
-5.097101	coms	0.05118328
-4.2318	con	-0.3320268
-5.273192	conan	-0.2948996
-5.574222	concede	-0.04511799
-4.194011	concentrate	-0.6311001
-4.875252	concentration	-0.1267098
-5.574222	concentrations	-0.04511799
-4.295469	concept	-0.9302753
-4.495041	concern	-0.2607269
-5.574222	concerns	-0.1766118
-4.142859	concert	-0.5128839
-5.574222	concerts	-0.1766118
-5.574222	concise	-0.04511799
-4.671133	conclusion	-0.03244559
-5.574222	conclusions	-0.1783664
-5.273192	concrete	-0.04488623
-5.273192	concurrently	0.04690956
-5.097101	cond	-0.3997256
-5.574222	condiment	-0.1135182
-5.273192	condiments	0.04690956
-4.495041	condition	-0.3207276
-5.574222	conditional	-0.1791416
-5.097101	conditions	-0.1884645
-5.273192	condo	-0.2948996
-4.398131	condominium	-0.6331794
-5.273192	conducive	0.04690956
-4.671133	conduct	-0.4646477
-4.875252	conductor	-0.01553902
-5.097101	conductors	-0.1128701
-5.273192	cone	-0.2948996
-3.902124	conference	-0.7522973
-5.097101	conferencing	-0.102802
-4.796071	confidence	-0.3309911
-4.796071	confident	-0.01248954
-5.273192	confidential	-0.2948996
-4.729124	configuration	-0.07156661
-4.796071	configure	-0.3885335
-5.574222	confinement	-0.1135182
-3.911464	confirm	-0.4551712
-5.574222	confirmation	-0.1702096
-5.574222	confirmed	-0.04511799
-4.671133	conflict	-0.2629189
-5.574222	conflicts	-0.1789111
-5.574222	confront	-0.04511799
-5.574222	confuse	-0.04511799
-5.097101	confused	-0.1108332
-5.574222	confusing	-0.1779522
-5.574222	congested	-0.1135182
-5.097101	congo	-0.102802
-5.574222	congratulations	-0.1788208
-4.2318	connect	-0.6677486
-5.574222	connected	-0.1751141
-5.273192	connecting	-0.1719514
-4.671133	connection	-0.3395595
-5.574222	connective	-0.1791346
-5.574222	conning	-0.1787096
-5.574222	conquer	-0.1790953
-5.574222	cons	-0.1766118
-4.875252	conscious	-0.1236302
-5.097101	consecutive	-0.102802
-5.097101	consent	-0.533638
-5.574222	consequences	-0.1784175
-5.574222	conservation	-0.04511799
-5.574222	conservative	-0.04511799
-5.273192	conserve	-0.04507069
-3.858219	consider	-0.2764529
-4.972162	consideration	-0.2796354
-4.273192	considered	-0.01718159
-5.574222	considering	-0.1780648
-5.574222	consign	-0.1789841
-5.574222	consist	-0.1771052
-5.574222	consistant	-0.04511799
-5.574222	consistency	-0.1769272
-5.097101	consistent	-0.1131262
-5.273192	console	-0.2948996
-5.273192	constant	-0.1772982
-5.574222	constantly	-0.04511799
-5.574222	constitute	-0.1789748
-4.972162	constraint	-0.2805837
-5.574222	constraints	-0.178349
-4.61998	construct	-0.2152245
-4.142859	construction	-0.5653514
-5.273192	constructive	-0.1121292
-5.574222	constructor	-0.04511799
-4.972162	consult	-0.6152856
-4.295469	consultant	-0.9300985
-5.574222	consultation	-0.04511799
-5.097101	consulting	-0.3288323
-5.273192	consumable	-0.04509276
-5.574222	consumables	-0.04511799
-5.574222	consume	-0.179123
-4.460279	consumer	-0.2105468
-5.574222	consumer's	-0.1791277
-5.574222	consumers	-0.1787756
-4.729124	consuming	-0.2891073
-4.61998	consumption	-0.2044714
-3.781831	contact	-0.5804195
-5.097101	contacted	-0.323678
-5.273192	contacts	-0.04445393
-4.972162	contain	-0.1765559
-4.875252	container	-0.1380134
-5.574222	contains	-0.174114
-5.273192	contamination	-0.04049593
-5.273192	contemporary	-0.4289209
-5.574222	contempt	-0.1135182
-5.574222	contended	-0.1135182
-4.295469	content	-0.446818
-5.574222	contented	-0.1135182
-5.574222	contents	-0.04511799
-4.972162	context	-0.0549798
-5.574222	continent	-0.178866
-5.574222	continents	-0.1767422
-5.574222	contingency	-0.04511799
-5.574222	continual	-0.1790686
-5.574222	continuation	-0.1759371
-3.80337	continue	-0.3274158
-5.574222	continuos	-0.1783096
-5.097101	continuous	-0.1923242
-4.972162	continuously	-0.1496311
-3.849946	contract	-0.5884148
-4.61998	contractor	-0.2930301
-5.273192	contractors	-0.1783282
-5.574222	contradicting	-0.1778849
-5.273192	contrary	-0.2948996
-5.574222	contrast	-0.04511799
-5.574222	contrasting	-0.1790779
-4.295469	contribute	-0.4844829
-5.574222	contributed	-0.1784453
-5.097101	contributing	-0.1945063
-4.194011	contribution	-0.6826736
-5.574222	contributions	-0.1751141
-5.574222	contributor	-0.04511799
-3.615181	control	-0.6212839
-4.796071	controller	-0.09142146
-5.273192	controlling	-0.04364496
-5.574222	controversial	-0.1791115
-4.729124	convenience	-0.4251428
-4.61998	convenient	-0.08527146
-5.574222	convening	-0.1135182
-4.61998	convent	-0.3588363
-5.574222	conventional	-0.1789343
-5.574222	conventionalised	-0.04511799
-4.194011	conversation	-0.3060767
-5.574222	conversational	-0.1791369
-5.574222	conversion	-0.1786586
-4.159249	convert	-0.5134967
-5.273192	convertion	-0.04510538
-5.574222	convey	-0.04511799
-5.574222	conveyor	-0.1791416
-4.671133	convince	-0.3533198
-5.574222	convinced	-0.04511799
-5.273192	convincing	-0.2948996
-5.273192	convo	-0.0329047
-5.097101	convocation	-0.1902075
-5.097101	convoluted	-0.04495877
-4.398131	cook	-0.04215381
-5.273192	cooked	-0.178844
-4.875252	cookie	-0.2626892
-5.273192	cookies	-0.2948996
-4.972162	cooking	-0.2805033
-4.006021	cool	-0.3491982
-5.273192	cooling	-0.1134119
-4.972162	cooper	-0.05599222
-5.097101	cooperate	-0.2625507
-5.574222	cooperation	-0.04511799
-5.574222	cooperative	-0.1135182
-5.574222	coopers	-0.04511799
-5.574222	coordi	-0.04511799
-4.972162	coordinate	-0.1885578
-5.574222	coordination	-0.1790895
-4.796071	coordinator	-0.3337613
-4.53283	cope	-0.3531284
-5.574222	coping	-0.1790293
-4.097101	copy	-0.2608277
-5.574222	copying	-0.1788382
-5.574222	copyright	-0.04511799
-4.428094	coral	-0.4970962
-3.748147	core	-0.5122995
-5.273192	cores	-0.04505967
-4.53283	corner	-0.2032425
-5.273192	corp	0.04690956
-5.273192	corporal	-0.2948996
-4.61998	corporate	-0.08887403
-5.273192	corpus	-0.1128742
-3.902124	correct	-0.3398212
-5.273192	corrective	-0.1791103
-5.273192	correctly	-0.1127649
-5.574222	corrector	-0.04511799
-5.574222	correlate	-0.04511799
-5.574222	correlated	-0.04511799
-5.574222	correlation	-0.1766118
-5.574222	corresponding	-0.1785624
-5.574222	correspondingly	-0.04511799
-5.097101	corridor	-0.1105622
-5.574222	corroded	-0.1773075
-5.273192	corrosive	0.04690956
-5.574222	corrupt	-0.179145
-5.574222	corrupted	-0.04511799
-5.574222	corruption	-0.04511799
-5.574222	corrupts	-0.1787096
-5.574222	cortex	-0.1135182
-3.61998	cos	-0.2770062
-5.097101	cosmetic	-0.5337422
-5.574222	cosmetics	-0.1769307
-5.574222	cosplay	-0.04511799
-3.761309	cost	-0.5137146
-4.875252	costa	-0.877505
-5.097101	costly	-0.102802
-5.574222	costs	-0.04511799
-4.574222	costume	-0.3216161
-5.574222	costumer	-0.1769307
-5.574222	cosway	-0.04511799
-5.273192	cosy	0.04690956
-5.574222	cotent	-0.1135182
-5.574222	cottage	-0.04511799
-4.729124	cotton	-0.3848525
-5.273192	couch	-0.04427078
-5.574222	cough	-0.1791323
-4.460279	could	-0.3370337
-4.53283	couldn't	-0.2523223
-4.796071	council	-0.3227724
-5.273192	counsellors	-0.0329047
-4.53283	count	-0.1009712
-4.671133	countdown	0.007852346
-4.796071	counted	-0.1787827
-4.53283	counter	-0.3041164
-5.574222	counterpart	-0.04511799
-5.574222	counterparts	-0.04511799
-5.574222	counting	-0.04511799
-4.069072	countries	-0.3499927
-3.671132	country	-0.4110216
-5.273192	countryside	-0.1134105
-5.574222	counts	-0.04511799
-5.273192	county	-0.04074277
-4.875252	couple	-0.4268112
-4.574222	coupon	-0.2488256
-5.574222	coupons	-0.1135182
-5.574222	coupun	-0.04511799
-2.94994	course	-0.5719734
-4.972162	coursemate	-0.05599222
-4.159249	courses	-0.5704374
-4.729124	coursework	-0.665157
-4.142859	court	-0.3572795
-5.273192	courts	0.04690956
-5.574222	courtship	-0.1790848
-5.574222	courtyard	-0.1135182
-5.574222	couse	-0.04511799
-5.574222	couseller	-0.04511799
-4.127064	cousin	-0.4304091
-5.574222	cousin's	-0.1789274
-5.574222	cousine	-0.04511799
-4.671133	cousins	-0.1402303
-3.884026	cover	-0.5343069
-4.875252	covered	-0.2607972
-5.273192	cow	-0.0450502
-4.972162	cowboy	-0.277566
-5.273192	cows	0.04690956
-5.574222	coxed	-0.1787084
-5.574222	coz	-0.1782504
-5.273192	cozy	-0.04486573
-4.796071	crab	-0.4299089
-4.61998	crack	-0.1911251
-5.574222	cracker	-0.1135182
-4.671133	cracking	-0.3241596
-4.53283	craft	-0.6933693
-5.574222	cram	-0.04511799
-5.574222	cramp	-0.1789864
-5.273192	cramped	-0.112951
-5.273192	cranky	-0.1080865
-4.671133	crap	-0.2497425
-5.574222	crappers	-0.1760129
-5.097101	crappy	-0.3997256
-4.370102	crash	-0.4491376
-5.273192	crashed	-0.4238956
-5.574222	crashes	-0.1769272
-5.574222	crashing	-0.1135182
-5.574222	crave	-0.1791068
-5.574222	craving	-0.1772877
-5.273192	crawl	0.04690956
-4.31895	crazy	-0.3526235
-4.042743	cream	-0.4633636
-5.273192	creamy	-0.0420987
-4.08286	create	-0.4786272
-5.574222	creating	-0.04511799
-5.574222	creation	-0.04511799
-4.61998	creative	-0.2964447
-5.273192	credentials	-0.2948996
-3.892981	credit	-0.7761398
-5.574222	creditor	-0.04511799
-4.574222	credits	-0.3383923
-5.574222	crescent	-0.1791404
-5.097101	crew	-0.1133364
-5.574222	cricket	-0.04511799
-5.097101	crime	-0.1918103
-5.574222	crimes	-0.1760129
-5.097101	criminal	-0.04509592
-4.729124	crisis	-0.1528018
-4.972162	crispy	-0.2805727
-5.574222	crist	-0.04511799
-5.574222	cristal	-0.1790524
-4.460279	criteria	-0.2724391
-5.574222	critic	-0.04511799
-4.796071	critical	-0.3346003
-4.972162	criticise	-0.05176345
-5.574222	criticism	-0.04511799
-5.574222	criticize	-0.04511799
-5.574222	critics	-0.04511799
-5.574222	critique	-0.04511799
-4.875252	crocodile	-0.354649
-5.574222	crocodiles	-0.1135182
-5.574222	crop	-0.1787513
-4.08286	cross	-0.2460895
-4.729124	crowd	-0.3846664
-4.460279	crowded	-0.2785985
-5.574222	crown	-0.1791335
-4.875252	cruel	-0.1258764
-4.875252	cruise	-0.03463635
-5.574222	crunches	-0.04511799
-5.574222	crush	-0.1782122
-4.875252	cry	-0.03509796
-5.273192	crying	-0.0329047
-5.574222	cryptography	-0.04511799
-5.273192	cryptology	0.04690956
-4.295469	crystal	-0.6542412
-4.972162	crystalized	-0.6152856
-5.574222	crystallize	-0.04511799
-5.574222	cube	-0.04511799
-4.875252	cubicle	-0.128448
-5.273192	cubicles	-0.1701623
-5.097101	cucumber	-0.3997256
-5.574222	cues	-0.1769307
-4.972162	cui	-0.1379318
-5.097101	cuisine	-0.2606477
-5.574222	culcure	-0.04511799
-4.030154	cultural	-0.2243175
-3.754678	culture	-0.5561683
-5.273192	cultures	-0.1109402
-5.574222	culturing	-0.1783664
-5.574222	cum	-0.04511799
-5.574222	cumulative	-0.04511799
-4.343773	cup	-0.5361713
-5.574222	cupboard	-0.04511799
-5.574222	cupid	-0.04511799
-5.574222	curd	-0.1791312
-5.273192	cure	-0.2948996
-4.972162	curfew	-0.1885578
-4.972162	curious	-0.3479435
-4.972162	curly	0.04697771
-5.574222	currencies	-0.04511799
-4.273192	currency	-0.3726625
-4.343773	current	-0.2730641
-4.176282	currently	-0.5151474
-4.796071	curriculum	-0.2394865
-4.127064	curry	-0.3578749
-4.796071	curse	-0.2394924
-4.729124	cursive	-0.5591607
-5.574222	curtain	-0.1789459
-4.53283	curve	-0.5292291
-5.574222	curved	-0.179145
-5.574222	cus	-0.1791196
-5.273192	custard	-0.4289035
-4.61998	custom	-0.4771403
-3.565622	customer	-0.7995767
-4.796071	customers	-0.09474824
-5.097101	customization	-0.193728
-4.972162	customized	-0.1494091
-3.699161	cut	-0.4933392
-3.866652	cute	-0.3347747
-5.574222	cutlet	-0.1135182
-5.273192	cutoff	-0.04476006
-5.574222	cy	-0.04511799
-5.574222	cyb	-0.1791369
-4.671133	cyber	-0.2807299
-4.972162	cybertron	-0.2028721
-4.295469	cycle	-0.2468685
-4.495041	cycling	-0.04300988
-5.574222	cynthia	-0.04511799
-5.574222	cyrptology	-0.04511799
-5.273192	czech	-0.04511325
-4.006021	d	-0.1450584
-3.197645	d.	-0.6592752
-5.574222	d.o.s.	-0.179064
-5.574222	d.s	-0.04511799
-5.097101	d.s.l.r.	-0.3997256
-4.875252	da	-0.877505
-4.398131	dad	0.04797733
-4.972162	dad's	-0.1519734
-5.097101	daddy	-0.1947996
-5.097101	daemon	-0.1947823
-5.574222	dail	-0.1772877
-4.343773	daily	-0.3651562
-5.574222	dair	-0.179145
-5.574222	dairy	-0.179145
-4.796071	dam	-0.5218955
-5.097101	damage	-0.102802
-3.810794	damn	-0.1198503
-3.80337	dance	-0.2315585
-5.097101	dancer	-0.1945458
-5.574222	dancers	-0.04511799
-5.574222	dances	-0.04511799
-4.796071	dancing	-0.01561113
-5.574222	danesh	-0.04511799
-4.574222	dangerous	0.03132041
-5.574222	dangling	-0.179145
-5.574222	daniel	-0.04511799
-5.574222	danny	-0.04511799
-5.574222	daphne	-0.04511799
-4.398131	dare	-0.3263319
-5.574222	dared	-0.1751141
-5.273192	daring	0.04690956
-5.574222	darius	-0.04511799
-4.495041	dark	-0.04179321
-5.574222	darling	-0.04511799
-4.61998	darts	-0.03169028
-5.574222	daryl	-0.04511799
-5.574222	dash	-0.04511799
-3.722964	data	-0.5222191
-4.042743	database	-0.6974107
-5.097101	dataset	-0.1826163
-4.252003	date	-0.2477189
-5.097101	dateline	-0.194705
-5.097101	dates	-0.04207966
-5.574222	dating	-0.04511799
-4.574222	daughter	-0.004883856
-4.972162	dave	-0.2028721
-5.574222	david	-0.179145
-3.136472	day	-0.359359
-5.273192	daydreaming	-0.1031062
-3.687732	days	-0.3377577
-5.574222	daytime	-0.178349
-5.273192	de	-0.2948996
-4.428094	dead	-0.09848937
-4.495041	deadline	-0.2509815
-5.273192	deadlines	-0.1728779
-4.671133	deaf	-0.2383738
-3.911464	deal	-1.108263
-5.273192	dealing	-0.428344
-5.574222	dealings	-0.1135182
-4.212494	dean	-0.9287987
-4.972162	dean's	-0.7492512
-5.574222	deans	-0.1790837
-4.343773	death	-0.1705206
-5.574222	deathnote	-0.04511799
-5.273192	debate	-0.04511641
-5.574222	debit	-0.1790906
-5.574222	debra	-0.179145
-4.796071	debt	-0.1892235
-5.574222	decades	-0.1135182
-5.574222	decay	-0.04511799
-5.574222	decease	-0.1135182
-3.994439	december	-0.43885
-4.370102	decide	-0.2736963
-4.428094	decided	-0.6425997
-5.574222	deciding	-0.1790432
-5.574222	decipher	-0.04511799
-4.729124	decision	-0.1078738
-5.574222	decisions	-0.04511799
-5.574222	deck	-0.04511799
-5.574222	decker	-0.04511799
-5.574222	declaration	-0.1790918
-4.796071	declare	-0.1849828
-5.097101	deco	-0.1923242
-5.097101	decode	-0.3997256
-5.273192	decoding	-0.2948996
-5.574222	decommit	-0.1751141
-4.61998	decorate	-0.2992727
-4.875252	decorations	-0.1255202
-5.273192	decrease	-0.04473954
-5.273192	decreasing	-0.1763322
-5.097101	dedicated	-0.3997256
-5.574222	dedicating	-0.04511799
-5.574222	dee	-0.1771447
-4.875252	deejay	-0.1400913
-4.574222	deep	-0.07930718
-5.574222	def	-0.04511799
-5.574222	default	-0.174114
-5.574222	defeats	-0.174114
-5.097101	defect	-0.3997256
-5.273192	defects	0.04690956
-4.398131	defence	-0.6517136
-4.729124	defend	-0.665157
-5.097101	defender	-0.3263641
-5.574222	defending	-0.04511799
-5.273192	defensive	-0.04507069
-5.273192	deferment	-0.04421076
-5.273192	deficit	0.04690956
-4.875252	define	-0.1301482
-5.574222	definite	-0.1791277
-4.31895	definitely	-0.2105057
-4.875252	definition	-0.1267098
-5.574222	deform	-0.04511799
-5.574222	degenerate	-0.179145
-4.729124	degrade	-0.3123629
-5.574222	degration	-0.1771052
-5.574222	degredation	-0.1790675
-3.517318	degree	-0.4491687
-4.796071	degrees	-0.1711081
-5.574222	degu	-0.1135182
-5.574222	del	-0.179145
-4.53283	delay	-0.66302
-5.574222	delegate	-0.04511799
-4.972162	delete	-0.2803867
-5.574222	deleted	-0.1788382
-5.574222	delhi	-0.1702096
-5.273192	deli	-0.1791404
-5.574222	deliberation	-0.1782122
-5.574222	delicacy	-0.1776131
-5.574222	delicious	-0.1135182
-5.574222	delight	-0.04511799
-4.574222	deliver	-0.3724964
-5.574222	deliverables	-0.04511799
-5.097101	delivery	-0.044037
-4.042743	dell	-0.6491241
-5.574222	delta	-0.1790906
-4.53283	demand	-0.2374963
-4.972162	demanding	-0.2028721
-5.574222	demands	-0.1135182
-5.574222	demark	-0.04511799
-5.273192	democracy	-0.2948996
-5.574222	demolish	-0.04511799
-5.574222	demolition	-0.04511799
-5.574222	demonstrate	-0.179145
-5.574222	demonstration	-0.04511799
-5.574222	demoralised	-0.04511799
-5.097101	demoralize	-0.1939223
-5.574222	demoralizing	-0.04511799
-5.574222	denial	-0.1771052
-5.273192	denmark	-0.04511641
-5.273192	denominator	-0.2948996
-4.972162	density	-0.6152856
-5.097101	dentist	-0.1944811
-4.972162	deny	-0.4251972
-5.574222	dep	-0.1790594
-5.097101	depand	-0.3997256
-5.574222	depart	-0.04511799
-3.639724	department	-0.808965
-4.111825	depend	-1.178597
-5.097101	dependent	-0.1935574
-4.729124	depending	-0.4238974
-3.699161	depends	-1.084378
-5.097101	deploy	-0.3997256
-4.61998	deposit	-0.3822415
-5.574222	deposition	-0.04511799
-5.574222	deposits	-0.04511799
-5.574222	depreciated	-0.04511799
-5.574222	depreciation	-0.04511799
-5.273192	depress	-0.04421076
-5.574222	depressed	-0.04511799
-5.273192	depression	-0.2948996
-4.796071	depth	0.05311562
-5.574222	derick	-0.1791439
-5.574222	derivative	-0.1791126
-5.574222	derivatives	-0.1791126
-5.097101	derive	-0.1939824
-5.574222	derived	-0.1785925
-5.273192	derrick	-0.04511483
-5.574222	des	-0.1791427
-5.574222	descendants	-0.1785914
-4.398131	describe	-0.3625164
-5.574222	describes	-0.174114
-5.097101	description	-0.1109795
-5.574222	descriptive	-0.04511799
-5.097101	desert	-0.102802
-5.574222	deserted	-0.1759371
-5.097101	deserve	-0.325616
-5.574222	deserves	-0.1751141
-5.574222	desi	-0.04511799
-3.293189	design	-0.6737884
-5.574222	designation	-0.1135182
-4.796071	designer	-0.4299089
-4.972162	designing	-0.0346342
-5.574222	desirable	-0.04511799
-5.574222	desires	-0.1771052
-4.729124	desk	-0.1875843
-4.875252	desktop	-0.3347916
-5.097101	desmond	-0.1940739
-5.273192	desperate	-0.04258567
-5.273192	despite	-0.4238956
-5.097101	despo	-0.3997256
-4.972162	dessert	0.04693875
-4.796071	destination	-0.08835311
-5.574222	destinations	-0.1135182
-5.273192	destiny	-0.1135155
-5.574222	destroy	-0.1789644
-5.574222	detached	-0.04511799
-4.574222	detail	-0.2696651
-5.273192	detailed	-0.04506913
-5.273192	detailing	0.04690956
-4.460279	details	-0.2218738
-4.370102	detect	-0.4178813
-5.273192	detective	-0.2948996
-5.574222	detention	-0.179145
-4.875252	determination	-0.3347916
-5.574222	determind	-0.1788683
-4.398131	determine	-0.6452453
-5.574222	determining	-0.17913
-5.574222	detonate	-0.179145
-5.574222	detour	-0.1766118
-5.574222	deve	-0.04511799
-4.006021	develop	-0.4175512
-5.273192	develope	-0.0420987
-4.729124	developed	-0.4123883
-5.273192	developement	-0.04511641
-4.006021	developer	-0.5443739
-5.574222	developing	-0.04511799
-4.53283	development	-0.2069254
-5.574222	deviate	-0.179086
-5.273192	deviation	0.04690956
-4.53283	device	-0.2279953
-4.972162	devices	-0.6152856
-5.574222	devil	-0.179086
-5.273192	devious	-0.04485627
-5.574222	devision	-0.1779011
-5.574222	devote	-0.178349
-5.273192	devotion	-0.1133593
-5.574222	dft	-0.1791404
-4.972162	dhabi	-0.2805806
-4.796071	di	-0.3346335
-4.295469	diabetes	-0.569809
-4.796071	diabetic	-0.5218592
-4.972162	diablo	-0.0602601
-4.61998	diagnosis	-0.4326565
-5.574222	diagon	-0.04511799
-5.574222	diagonal	-0.178866
-5.574222	diagonally	-0.1791369
-4.875252	diagram	-0.1301365
-4.495041	dialect	-0.4072877
-4.972162	dialects	-0.1885578
-5.097101	diameter	-0.1945237
-5.097101	diamond	-0.04410651
-5.574222	dian	-0.04511799
-5.273192	diapers	-0.04049593
-5.574222	diaphragm	-0.04511799
-5.273192	diarrhea	-0.04511641
-5.574222	diarrheoa	-0.04511799
-5.273192	diary	-0.2948996
-5.097101	dicom	-0.1948122
-4.972162	dictionary	-0.278053
-3.665737	did	-0.2263246
-3.498675	didn't	-0.2534952
-4.030154	die	-0.2550206
-4.972162	died	-0.2137788
-5.273192	diego	0.04690956
-5.097101	diet	-0.102802
-5.273192	diff	-0.0450502
-4.01792	difference	-0.2116727
-5.574222	differences	-0.1784221
-3.190407	different	-0.1851251
-5.574222	different's	-0.1789748
-4.972162	differentiate	-0.04438923
-5.273192	differentiation	-0.2948996
-3.884026	difficult	-0.7718804
-4.875252	difficulties	-0.1221113
-4.875252	difficulty	-0.03866976
-5.097101	dig	-0.1737109
-5.273192	digest	-0.2948996
-4.972162	digestive	-0.2862939
-4.875252	digi	-0.2220973
-5.273192	digit	-0.04497138
-4.574222	digital	-0.2576923
-5.574222	digitalize	-0.04511799
-5.574222	dignity	-0.1135182
-5.097101	dilemma	-0.0327604
-5.574222	dilute	-0.1135182
-5.574222	diluted	-0.1757563
-4.796071	dim	-0.6744987
-5.097101	dimension	-0.102802
-5.273192	dimensional	-0.2948996
-5.097101	din	-0.1787895
-5.574222	dinasaur	-0.04511799
-5.273192	ding	-0.4289255
-5.574222	dining	-0.1790767
-3.761309	dinner	-0.6076969
-5.574222	dinobot	-0.04511799
-5.273192	dinosaur	0.04690956
-5.574222	dio	-0.04511799
-5.574222	dion	-0.04511799
-5.097101	dioxide	-0.4681258
-5.574222	dip	-0.04511799
-3.983158	diploma	-0.5565171
-5.574222	diplomatic	-0.1787501
-3.741713	direct	-0.3809876
-5.574222	directing	-0.04511799
-4.31895	direction	-1.157115
-5.574222	directions	-0.04511799
-4.729124	directly	0.05835027
-3.950973	director	-0.428223
-5.574222	director's	-0.1791439
-4.796071	directors	-0.3885335
-5.574222	direst	-0.1790408
-4.671133	dirty	-0.07805312
-4.875252	dis	-0.1078643
-5.574222	disabled	-0.04511799
-4.875252	disadvantage	-0.2176512
-5.574222	disadvantages	-0.1135182
-5.574222	disagree	-0.1735796
-5.273192	disappear	-0.04436395
-5.574222	disappoint	-0.1791358
-4.460279	disappointed	-0.3822964
-5.574222	disappointing	-0.1783189
-5.574222	disastrous	-0.04511799
-5.574222	disbanded	-0.1135182
-5.574222	disc	-0.1757563
-4.273192	discipline	-0.2430627
-5.273192	disclaimer	-0.1128378
-4.972162	disclose	-0.05716713
-5.273192	disconnect	-0.2948996
-4.428094	discount	-0.5715681
-5.273192	discounted	-0.04504232
-4.729124	discover	-0.5590749
-4.574222	discovery	-0.3889722
-5.574222	discrete	-0.1790605
-5.574222	discretionary	-0.1791126
-3.972162	discuss	-0.6654949
-5.097101	discussing	-0.0439406
-4.31895	discussion	-0.456468
-4.61998	disease	-0.2626952
-5.574222	disguise	-0.1791393
-4.729124	disgusting	-0.2240637
-4.875252	dish	-0.3347916
-4.972162	dishes	0.06013605
-5.574222	dishwasher	-0.04511799
-5.097101	disinfectant	-0.04303409
-5.574222	disipline	-0.04511799
-4.671133	disk	-0.5201764
-4.61998	disney	-0.4335891
-4.111825	disneyland	-0.6813339
-5.574222	disneysea	-0.04511799
-5.273192	disneyworld	-0.2948996
-4.875252	disorder	-0.140025
-5.574222	dispatch	-0.04511799
-5.574222	dispenser	-0.1135182
-4.574222	display	-0.3727673
-4.671133	disposable	-0.3549628
-4.972162	dispose	-0.2803977
-5.574222	disposition	-0.04511799
-5.574222	disqualify	-0.04511799
-5.574222	disruption	-0.1751141
-5.574222	dissapoint	-0.04511799
-5.574222	dissect	-0.04511799
-5.574222	dissecting	-0.1771447
-4.574222	dissolve	-1.045102
-4.127064	distance	-0.3295647
-4.796071	distinction	-0.307698
-5.273192	distract	-0.04239063
-5.574222	distracting	-0.1766118
-5.574222	distracts	-0.1760129
-4.574222	distribute	-0.2998046
-5.574222	distributed	-0.04511799
-5.574222	distribution	-0.04511799
-4.729124	distributor	-0.333142
-4.972162	district	-0.1520097
-4.875252	disturb	-0.350445
-5.574222	disturbing	-0.1790941
-4.53283	dive	-0.2691925
-5.097101	diver	-0.1942965
-5.574222	diverse	-0.1135182
-5.574222	diversified	-0.04511799
-5.273192	diversify	-0.2948996
-4.53283	divide	-0.3904121
-5.574222	divided	-0.1788683
-4.671133	diving	-0.2232866
-4.495041	division	-0.6425925
-4.796071	divorce	-0.2413882
-5.574222	divorced	-0.1702096
-5.574222	dna	-0.04511799
-2.846681	do	-0.4304277
-4.972162	doc	-0.268372
-5.273192	docking	0.04690956
-3.788893	doctor	-0.3596402
-5.273192	doctors	-0.04437658
-4.729124	document	-0.665157
-5.574222	documentaries	-0.04511799
-4.370102	documentary	-0.439535
-5.574222	documentation	-0.1772877
-5.574222	documented	-0.04511799
-4.273192	does	-0.1672087
-3.810794	doesn't	-0.3880434
-4.574222	dog	-0.3347565
-5.574222	dogs	-0.1791184
-3.665737	doing	-0.06854239
-4.042743	dollar	-0.2001108
-3.748147	dollars	-0.3627136
-4.61998	dolphin	-0.3962993
-4.61998	domain	-0.2111816
-5.574222	dome	-0.1135182
-5.097101	domestic	-0.1791242
-4.875252	dominant	-0.4266158
-5.273192	dominate	-0.1113789
-5.273192	don	-0.1135169
-5.574222	don'r	-0.1790351
-5.574222	don's	-0.1780602
-2.593764	don't	-0.8696604
-4.729124	donald	-0.509611
-4.460279	donate	-0.291935
-5.574222	donated	-0.1790883
-4.370102	donation	-0.4582705
-4.252003	done	-0.1506955
-5.273192	dong	-0.0329047
-5.574222	dongguan	-0.1135182
-4.972162	donkey	-0.05856384
-5.574222	donor	-0.04511799
-5.574222	donors	-0.1790096
-5.574222	dont	-0.1783502
-3.994439	door	-0.2875558
-5.574222	dopod	-0.04511799
-5.574222	dorae	-0.04511799
-5.273192	dorm	-0.04423761
-5.574222	dormitries	-0.1790814
-4.08286	dot	-0.5302355
-4.875252	dota	-0.1163922
-5.097101	dots	0.04903431
-4.176282	double	-0.06649774
-5.574222	dovey	-0.1791219
-3.309404	down	-0.5055308
-5.574222	downfall	-0.1771052
-3.961438	download	-0.933808
-5.273192	downloaded	-0.1772482
-5.574222	downloads	-0.1787652
-5.273192	downstream	-0.2948996
-4.972162	downtown	-0.749257
-5.574222	downturn	-0.04511799
-5.574222	doze	-0.1790269
-4.61998	dr.	-0.6855522
-5.097101	draft	-0.3997256
-5.273192	draftman	-0.04511483
-4.31895	drag	-0.6809895
-5.273192	draggy	-0.2948996
-4.729124	dragon	-0.3848178
-5.574222	dragonboat	-0.1135182
-4.875252	drain	-0.2869476
-3.796071	drama	-0.5227416
-4.875252	dramas	-0.1106083
-5.574222	dramastically	-0.1790594
-5.273192	dramatic	-0.03875288
-5.574222	drank	-0.1787652
-4.574222	draw	-0.2502943
-4.295469	drawing	-0.4630511
-5.273192	drawings	-0.113389
-5.574222	dreading	-0.04511799
-4.295469	dream	-0.2226895
-5.273192	dreaming	-0.1109402
-4.428094	dreams	-0.1558619
-5.273192	dreamweaver	0.04690956
-4.31895	dress	-0.1992185
-5.574222	dresses	-0.04511799
-4.796071	dressing	-0.4803087
-5.574222	dribble	-0.174114
-5.574222	drill	-0.04511799
-5.574222	drills	-0.1766176
-4.159249	drink	-0.02179754
-4.729124	drinking	-0.005295262
-4.495041	drinks	-0.5172299
-5.574222	drip	-0.1135182
-5.574222	dripping	-0.1790628
-4.030154	drive	-0.1310878
-5.273192	driven	-0.04084624
-4.295469	driver	-0.7297741
-5.574222	drivers	-0.1784221
-5.273192	drives	-0.1775771
-4.343773	driving	-0.4656329
-5.574222	drizzle	-0.04511799
-3.902124	drop	-0.4369528
-5.574222	dropout	-0.1135182
-5.273192	dropping	-0.04482788
-4.875252	drown	-0.2619849
-5.574222	drownded	-0.1788683
-5.097101	drowning	0.04738711
-3.818347	drug	-0.6126388
-4.671133	drugs	-0.3600137
-4.796071	drum	-0.2418869
-5.574222	drummer	-0.04511799
-4.972162	drums	-0.7489188
-5.273192	drunk	-0.04508804
-4.796071	dry	-0.09287117
-4.53283	dual	-0.4460175
-5.097101	dubai	-0.3997256
-5.574222	dublin	-0.04511799
-4.671133	duck	-0.1126787
-5.574222	ducks	-0.178349
-4.53283	due	-0.4205244
-5.574222	dues	-0.1769307
-5.273192	duet	-0.04339977
-5.273192	duke	-0.1105689
-5.273192	dull	-0.04511483
-5.097101	dumb	-0.1695485
-5.574222	dummy	-0.04511799
-5.097101	dump	-0.3997256
-5.574222	dumpling	-0.1791288
-5.574222	dumplings	-0.1135182
-5.574222	dunedin	-0.04511799
-5.574222	dunk	-0.04511799
-4.875252	dunman	-0.4950322
-5.097101	dunno	-0.1113734
-4.398131	duplicate	-1.214343
-5.574222	duplication	-0.04511799
-5.574222	durable	-0.1135182
-5.097101	duration	-0.04320192
-5.574222	durian	-0.1135182
-5.574222	durians	-0.04511799
-3.467012	during	-0.3129962
-5.097101	dust	-0.0444492
-5.273192	duster	-0.04302934
-5.097101	dusty	-0.1113153
-5.574222	dutch	-0.1790964
-5.273192	duties	-0.2948996
-4.460279	duty	-0.5008881
-4.972162	dvd	-0.2795106
-5.574222	dwell	-0.1782122
-5.574222	dwindling	-0.04511799
-4.671133	dye	-0.2519421
-5.574222	dyes	-0.04511799
-5.273192	dying	-0.1759674
-5.273192	dynamic	-0.2948996
-5.097101	dynamics	-0.04302301
-5.574222	dyslexia	-0.04511799
-3.950973	e	-0.3185376
-3.487863	e.	-0.30117
-5.273192	e.b.s.	-0.2948996
-5.574222	e.p.i.k.o.	-0.04511799
-5.097101	e.r.p.	-0.04484838
-5.574222	e.s.	-0.04511799
-3.774882	each	-0.5900917
-5.574222	eagle	-0.1791369
-5.574222	ear	-0.179145
-4.398131	earlier	-0.1378427
-4.042743	early	-0.04821759
-5.574222	earmark	-0.04511799
-4.194011	earn	-0.1068989
-5.273192	earned	-0.1744675
-4.875252	earning	-0.1227875
-5.574222	earnings	-0.1702096
-5.574222	earpiece	-0.04511799
-5.574222	earplugs	-0.1782122
-5.574222	earrings	-0.04511799
-5.097101	earth	0.0481562
-4.972162	earthquake	-0.151702
-4.428094	easier	-0.2210169
-5.097101	easiest	-0.178487
-4.875252	easily	0.04692315
-3.884026	east	-0.662859
-5.574222	easter	-0.1791034
-4.796071	eastern	-0.2814607
-5.273192	eastin	-0.04500449
-5.097101	eastwood	-0.3997256
-3.911464	easy	-0.3558369
-4.796071	easylink	-0.5218135
-3.644803	eat	-0.05362943
-4.428094	eating	-0.01242569
-5.574222	eazy	-0.1790999
-5.097101	ebay	-0.3997256
-5.574222	ebook	-0.04511799
-5.574222	eco	-0.1791184
-5.574222	ecology	-0.04511799
-5.574222	econ	-0.1135182
-4.53283	economic	-0.1487742
-5.574222	economical	-0.1790941
-4.370102	economics	-0.09629968
-5.574222	economies	-0.1771052
-5.574222	economist	-0.04511799
-4.006021	economy	-0.5856291
-4.097101	econs	-0.1964439
-5.574222	ed	-0.1791416
-5.097101	ed.	-0.3997256
-5.574222	edge	-0.04511799
-5.273192	edison	-0.4289255
-4.460279	edit	-0.5537646
-4.972162	edited	-0.05176345
-4.671133	editing	-0.2628331
-5.273192	edition	-0.04423761
-5.574222	editions	-0.04511799
-4.53283	editor	-0.3101815
-5.574222	editorial	-0.1135182
-5.574222	editors	-0.1135182
-5.574222	edmund	-0.1791427
-4.875252	educate	-0.4199531
-4.574222	educated	-0.1297585
-4.055708	education	-0.3425469
-4.972162	educational	0.0511203
-5.574222	edward	-0.1791358
-5.097101	edwin	-0.04095288
-5.574222	ee	-0.1786655
-5.574222	eel	-0.04511799
-3.884026	effect	-0.6643193
-4.495041	effective	-0.2155682
-4.875252	effectively	-0.2196644
-4.460279	effects	-0.2833749
-5.574222	efficicient	-0.04511799
-4.729124	efficiency	-0.320653
-4.428094	efficient	-0.1648383
-3.950973	effort	-0.4273393
-4.875252	egg	-0.2626892
-5.574222	egypt	-0.04511799
-2.452991	eh	-0.6606284
-5.574222	ehh	-0.1735796
-5.574222	ehm	-0.04511799
-5.273192	ei	-0.3632999
-5.574222	eiffel	-0.1791416
-3.557189	eight	-0.227774
-4.142859	eighteen	-0.05354753
-5.574222	eighteenth	-0.1790814
-5.097101	eighth	-0.04339661
-5.273192	eighties	-0.038252
-4.273192	eighty	-0.2448046
-5.273192	eileen	-0.04413179
-3.80337	either	-0.3337355
-4.796071	elaborate	-0.09693965
-5.273192	elastic	-0.1134496
-5.574222	elasticity	-0.04511799
-4.398131	elder	-0.558806
-5.097101	elderly	-0.1915531
-5.574222	eldest	-0.1791138
-5.273192	election	-0.2948996
-3.591951	elective	-0.6132515
-4.194011	electives	-1.025061
-4.295469	electric	-0.1948817
-4.671133	electrical	-0.2081044
-4.61998	electricity	-0.03158845
-5.574222	electrode	-0.1791393
-5.574222	electrolysis	-0.1135182
-4.495041	electronic	-0.1901167
-4.53283	electronics	-0.09267147
-5.574222	elects	-0.1744804
-4.796071	elegant	-0.3271879
-5.273192	element	0.04690956
-5.273192	elements	-0.3632999
-5.574222	elephant	-0.04511799
-5.574222	elephants	-0.1767422
-5.097101	elevator	0.04691151
-4.212494	eleven	-0.08787954
-5.574222	eleventh	-0.1135182
-5.574222	elias	-0.1790327
-4.972162	eliminate	-0.2805837
-5.574222	eliminated	-0.1135182
-5.097101	elimination	-0.1113369
-5.273192	elite	-0.1784499
-5.574222	elongated	-0.1782122
-3.994439	else	-0.1842996
-5.097101	em	-0.1068755
-3.591951	email	-0.5363274
-5.574222	embarassing	-0.178925
-5.574222	embark	-0.1782122
-5.574222	embarrassed	-0.1751141
-4.796071	embarrassing	-0.01141609
-5.574222	embarrassment	-0.1135182
-5.574222	embedded	-0.1790223
-5.574222	embrace	-0.04511799
-4.53283	emcee	-0.1221143
-4.53283	emergency	-0.4046584
-5.097101	emerging	-0.3285359
-5.574222	emirates	-0.04511799
-5.574222	emit	-0.04511799
-5.574222	emm	-0.04511799
-4.428094	emo	-0.1784784
-5.574222	emoticon	-0.1778849
-5.097101	emotion	-0.3997256
-4.729124	emotional	-0.0342336
-5.574222	emotionally	-0.1791323
-5.574222	emotionless	-0.04511799
-4.972162	emotions	-0.15141
-5.273192	emphasis	-0.4279938
-5.273192	empire	-0.04429762
-5.574222	empires	-0.04511799
-4.398131	employee	-0.5097706
-5.574222	employees	-0.04511799
-5.273192	employer	-0.2948996
-5.574222	employers	-0.04511799
-4.796071	empty	-0.1779357
-5.273192	en	-0.1757551
-5.273192	enable	-0.2948996
-5.574222	enclosed	-0.1789424
-5.574222	encode	-0.1785925
-5.574222	encoded	-0.1791115
-5.574222	encoding	-0.04511799
-5.097101	encounter	-0.1937675
-5.574222	encounters	-0.1135182
-4.370102	encourage	-0.5176665
-5.574222	encryption	-0.04511799
-3.041468	end	-0.5733953
-5.574222	endangered	-0.1791427
-5.574222	endeavors	-0.1135182
-5.574222	ended	-0.1785148
-4.53283	ending	-0.131278
-5.574222	endorsement	-0.1744804
-5.097101	ends	-0.102802
-5.574222	enemies	-0.1766118
-5.097101	enemy	0.0521957
-4.097101	energy	-0.4156403
-4.729124	eng	-0.005893022
-4.972162	engage	-0.1783595
-4.729124	engaged	-0.333142
-3.841829	engine	-0.6053848
-5.574222	engineeering	-0.04511799
-3.83386	engineer	-0.5444844
-3.480801	engineering	-0.4232039
-4.972162	engineers	-0.05917752
-5.574222	engines	-0.1791312
-5.097101	england	-0.03960612
-3.22204	english	-0.4046319
-5.097101	englishmen	-0.3997256
-5.574222	enha	-0.04511799
-4.796071	enhance	-0.5404798
-5.097101	enhancement	-0.102802
-5.574222	enhancements	-0.04511799
-3.849946	enjoy	-0.2754371
-5.273192	enjoyable	-0.2948996
-5.273192	enjoyed	-0.4288839
-5.097101	enjoying	-0.1076159
-5.574222	enjoyment	-0.1767422
-5.273192	enlarged	-0.2948996
-5.574222	enlightened	-0.1702096
-5.574222	enlist	-0.1779522
-3.615181	enough	-0.3797958
-5.273192	enrich	-0.04487047
-5.574222	enriching	-0.04511799
-5.273192	enrichment	-0.1790107
-5.574222	ensure	-0.178349
-4.398131	enter	-0.4232651
-5.273192	enterpreneur	-0.2948996
-4.671133	enterprise	-0.2631411
-4.729124	entertain	-0.1857615
-5.574222	entertained	-0.1788683
-5.574222	entertaining	-0.1135182
-4.53283	entertainment	-0.6026755
-4.972162	enthu	-0.2797381
-4.875252	enthusiastic	-0.03166328
-4.796071	entire	-0.1813806
-5.574222	entirely	-0.178866
-4.972162	entrance	-0.06017242
-4.972162	entrepreneur	-0.4136168
-5.574222	entrepreneurial	-0.1135182
-5.097101	entrepreneurship	0.0620563
-5.273192	entries	0.04690956
-5.574222	entropy	-0.04511799
-4.252003	entry	-0.5171981
-5.574222	envelop	-0.1767422
-3.788893	environment	-0.7240777
-4.428094	environmental	-0.2805119
-5.574222	environments	-0.1135182
-5.574222	envy	-0.1790003
-5.097101	enzymes	-0.3997256
-4.428094	episode	-0.3022294
-5.097101	episodes	-0.1931113
-5.097101	equal	-0.3247895
-5.574222	equalize	-0.1789216
-5.097101	equally	-0.178815
-5.574222	equals	-0.1751141
-5.273192	equation	0.04690956
-5.574222	equations	-0.1766118
-5.273192	equatorial	-0.04500449
-5.574222	equiment	-0.04511799
-4.273192	equipment	-0.5454563
-4.796071	equity	-0.1110521
-5.097101	equivalence	-0.1893305
-4.796071	equivalent	-0.09598288
-2.200575	er	-0.2727222
-5.273192	era	-0.04209393
-5.273192	erase	-0.04403226
-5.574222	erasing	-0.1135182
-3.31895	erm	-0.2280944
-5.574222	erode	-0.04511799
-5.273192	erosion	-0.1125909
-3.412854	err	-0.2374268
-5.574222	errands	-0.04511799
-4.729124	error	-0.4704939
-3.892981	errr	-0.2219046
-4.875252	escalate	-0.4267986
-4.796071	escalation	-0.1841472
-4.495041	escalator	-0.3200102
-5.574222	escalope	-0.1135182
-4.671133	escape	-0.1270498
-4.069072	especially	-0.1920097
-5.574222	espirit	-0.04511799
-4.875252	esplanade	-0.3347916
-5.574222	ess	-0.04511799
-4.111825	essay	-0.6201566
-5.097101	essays	-0.1102082
-5.574222	esso	-0.179145
-4.972162	establish	-0.05176345
-5.574222	established	-0.04511799
-5.574222	estate	-0.04511799
-4.796071	esther	-0.3305006
-5.273192	estimate	-0.2948996
-5.273192	estimation	0.04690956
-5.273192	et	-0.4289255
-5.574222	ethan	-0.1781356
-5.273192	ethical	-0.1791092
-5.574222	ethically	-0.179145
-5.574222	ethics	-0.04511799
-5.574222	eu	-0.04511799
-5.273192	eucariot	-0.2948996
-5.574222	eugene	-0.04511799
-5.574222	eukariot	-0.1791173
-4.875252	eunice	0.04880331
-4.53283	eureka	-0.9944832
-4.574222	euro	-0.4768477
-3.884026	europe	-0.5393009
-4.53283	european	-0.3587579
-5.273192	euros	-0.0439169
-5.574222	evacuation	-0.1789424
-5.574222	evade	-0.179049
-5.097101	evaluate	-0.3997256
-5.097101	evaluation	-0.102802
-5.574222	evaluations	-0.1135182
-5.574222	evaluative	-0.04511799
-4.61998	eve	-0.2004275
-3.233778	even	-0.3436067
-4.61998	evening	-0.3537933
-3.735373	event	-0.4786682
-5.574222	eventhough	-0.04511799
-4.006021	events	-0.3508551
-4.343773	eventually	-0.6678226
-4.273192	ever	-0.09346679
-5.574222	everage	-0.04511799
-5.574222	evergreen	-0.1135182
-3.50234	every	-0.2141435
-3.940754	everybody	-0.01972422
-3.994439	everyday	-0.1278304
-3.866652	everyone	-0.1390403
-5.574222	everyone's	-0.1744804
-3.434343	everything	-0.2251443
-5.574222	everything's	-0.1787501
-4.127064	everytime	-0.2788917
-4.729124	everywhere	-0.4087023
-5.097101	evidence	-0.2627354
-5.097101	evident	-0.03879927
-4.875252	evil	-0.2199528
-5.574222	evolutionary	-0.04511799
-5.574222	evolve	-0.1751141
-4.042743	ex	-0.09407279
-4.729124	exact	-0.1002064
-4.295469	exactly	-0.3713152
-5.574222	exaggerated	-0.1790154
-5.574222	exaggerates	-0.1789864
-3.596499	exam	-0.5380827
-5.574222	examinable	-0.04511799
-5.574222	examinations	-0.1784998
-5.574222	examine	-0.04511799
-4.729124	examiner	-0.665157
-5.574222	examiners	-0.04511799
-3.548916	example	-0.5075807
-5.097101	examples	-0.04121219
-4.370102	exams	-0.1596037
-5.273192	excavation	-0.2948996
-5.574222	exceed	-0.04511799
-5.574222	exceeded	-0.04511799
-4.428094	excel	-0.4948379
-5.097101	excellence	-0.102802
-5.273192	excellent	-0.2948996
-4.796071	except	-0.3145605
-5.273192	exception	-0.0329047
-5.574222	excess	-0.1791242
-3.557189	exchange	-0.6640353
-4.460279	excited	-0.3792607
-4.2318	exciting	-0.2061644
-5.574222	exclamation	-0.1791265
-5.273192	exclude	-0.04049593
-5.574222	excluding	-0.1788138
-4.972162	exclusive	-0.2771309
-5.273192	exco	-0.0329047
-5.574222	excursion	-0.04511799
-4.495041	excuse	-0.3553884
-4.61998	exec	-0.8659718
-5.273192	execute	-0.2948996
-5.574222	execution	-0.04511799
-4.729124	executive	-0.06846829
-4.796071	exempt	-0.5215044
-4.796071	exempted	-0.01608877
-5.273192	exemption	0.04690956
-4.055708	exercise	-0.6119281
-5.273192	exercises	0.04690956
-5.574222	exercising	-0.04511799
-5.574222	exerted	-0.1791173
-4.495041	exhibition	-0.1582312
-5.574222	exhibiton	-0.1791358
-4.796071	exist	-0.1094481
-5.574222	existence	-0.1135182
-4.875252	existing	-0.7434826
-4.972162	exit	-0.03044997
-4.729124	exotic	-0.3843856
-4.61998	expand	-0.907333
-5.273192	expatriate	-0.2948996
-4.08286	expect	-0.3360831
-4.729124	expectation	-0.1464048
-4.729124	expectations	-0.1798874
-4.972162	expected	0.04862337
-5.097101	expecting	-0.1893305
-5.574222	expects	-0.1779151
-5.574222	expedite	-0.04511799
-5.273192	expedition	-0.04416811
-5.574222	expeimental	-0.1790594
-5.574222	expend	-0.04511799
-5.273192	expendables	-0.1128175
-5.574222	expenditure	-0.04511799
-5.574222	expenditures	-0.04511799
-4.53283	expenses	-0.5126846
-4.01792	expensive	-0.3176326
-3.364707	experience	-0.6100516
-4.972162	experienced	0.06208654
-5.097101	experiences	-0.102802
-4.61998	experient	-0.3006072
-4.31895	experiment	-0.4699678
-4.729124	expert	-0.3168119
-4.972162	experty	-0.6152856
-5.574222	expiration	-0.1791219
-4.972162	expire	-0.1518409
-5.097101	expired	-0.0443971
-5.574222	expires	-0.1135182
-5.273192	expiry	-0.4289035
-4.111825	explain	-0.5287741
-4.972162	explaining	-0.05345871
-5.574222	explains	-0.1780648
-5.097101	explanation	-0.1904543
-5.574222	explicit	-0.1790802
-5.574222	explodes	-0.1790073
-5.574222	exploit	-0.04511799
-5.574222	exploitative	-0.04511799
-4.460279	explore	-0.8480978
-5.097101	explorer	-0.1948107
-4.729124	expo	-0.665157
-5.097101	export	-0.04207648
-4.729124	exports	-0.1422072
-4.61998	expose	-0.2568018
-4.972162	exposed	-0.1437365
-4.671133	exposure	-0.1325979
-4.273192	express	-0.3356263
-4.796071	expression	-0.5184821
-5.273192	expressionist	-0.2948996
-5.574222	expressive	-0.1135182
-5.574222	expressway	-0.174114
-4.252003	extend	-0.474835
-4.972162	extended	-0.1516136
-5.574222	extension	-0.1135182
-5.273192	extensive	-0.1132516
-4.972162	extent	-0.02878064
-5.574222	extern	-0.1791254
-4.61998	external	-0.1890257
-5.273192	extinct	-0.2948996
-3.92101	extra	-0.2051192
-4.875252	extract	-0.4260651
-5.574222	extraction	-0.04511799
-5.574222	extraordinary	-0.04511799
-4.972162	extreme	-0.1885578
-5.574222	extrude	-0.04511799
-4.875252	ey	-0.1241783
-3.92101	eye	-0.5798981
-5.574222	eyelashes	-0.04511799
-4.729124	eyes	0.06130046
-5.574222	eyesight	-0.1766118
-4.159249	f	-0.2977957
-3.540799	f.	-0.5697085
-4.875252	faber	-0.4265416
-5.574222	fabricate	-0.04511799
-5.574222	fac	-0.04511799
-3.761309	face	-0.2753046
-3.754678	facebook	-0.6706508
-5.574222	facebooking	-0.04511799
-5.574222	faces	-0.1790073
-4.671133	facial	-0.4261366
-5.574222	facili	-0.04511799
-5.273192	facilitate	-0.038252
-5.574222	facilitator	-0.1135182
-4.875252	facilities	0.05713786
-4.398131	facility	-0.158729
-5.273192	facing	-0.1739945
-4.2318	fact	-0.3945714
-4.428094	factor	-0.236545
-5.273192	factors	-0.0329047
-4.295469	factory	-0.5042443
-4.972162	facts	-0.27903
-4.671133	faculty	-0.2688111
-3.884026	fail	-0.3682156
-4.53283	failed	-0.1905448
-5.574222	failing	-0.1702096
-4.53283	failure	-0.2689207
-5.574222	faint	-0.1791254
-5.574222	fainted	-0.1785241
-4.08286	fair	-0.7197004
-5.574222	fairfield	-0.1791416
-5.273192	fairy	-0.1791427
-5.273192	faith	-0.04184151
-4.61998	fake	0.004147097
-4.31895	fall	-0.3449947
-4.972162	falling	-0.2860959
-5.273192	false	-0.1135102
-5.574222	falsetto	-0.179123
-5.574222	famer	-0.04511799
-4.972162	familiar	0.05579165
-5.574222	familiarity	-0.04511799
-4.875252	families	-0.2204515
-3.290921	family	-0.3508915
-5.574222	family's	-0.1790038
-4.127064	famous	-0.6318985
-4.398131	fan	-0.1720296
-5.574222	fanny	-0.1135182
-4.875252	fans	-0.0303648
-4.972162	fantasy	-0.06010422
-3.29776	far	-0.7717611
-5.574222	farewell	-0.1791034
-3.940754	farm	-0.4822188
-5.273192	farmer	-0.2948996
-5.574222	farms	-0.1785241
-5.574222	fas	-0.179145
-5.574222	fascinated	-0.1785624
-4.460279	fashion	-0.5432139
-5.574222	fass	-0.04511799
-4.030154	fast	-0.3405607
-4.796071	faster	-0.09482716
-5.574222	fastest	-0.1779522
-5.574222	fastfood	-0.04511799
-4.252003	fat	-0.2076474
-5.574222	fatal	-0.1135182
-5.273192	fate	-0.04509276
-4.127064	father	-0.4416247
-4.796071	father's	-0.469026
-5.574222	fathom	-0.04511799
-4.875252	fats	-0.218825
-5.097101	fattening	-0.02935138
-5.574222	fatty	-0.1791288
-4.796071	fault	-0.0883076
-5.574222	faults	-0.1766118
-5.574222	favorable	-0.04511799
-4.729124	favorite	-0.1632072
-5.273192	favour	-0.04258567
-4.428094	favourite	-0.07308635
-5.097101	fax	-0.3997256
-5.574222	faxes	-0.1135182
-5.273192	feasible	0.04690956
-5.273192	feather	-0.4289255
-4.671133	feature	-0.2539456
-5.574222	featured	-0.04511799
-5.273192	features	-0.04167154
-5.097101	feb	-0.1948091
-4.875252	february	-0.02549846
-4.972162	fed	-0.7486824
-5.097101	federal	-0.5336692
-5.273192	fedora	-0.2948996
-4.428094	fee	-0.5813181
-4.53283	feed	-0.126382
-4.370102	feedback	-0.443083
-5.273192	feeder	-0.1694136
-5.097101	feeding	-0.102802
-3.392379	feel	-0.562094
-4.127064	feeling	-0.3005706
-5.097101	feelings	0.04799798
-5.097101	feels	-0.1740402
-4.176282	fees	-0.7338353
-4.796071	feet	-0.4299089
-5.574222	felicia	-0.1135182
-4.972162	fell	-0.4143866
-5.273192	fellow	-0.04421234
-5.574222	fellowship	-0.176401
-4.574222	felt	-0.29566
-4.176282	female	-0.3836496
-5.574222	females	-0.1776131
-5.273192	feminine	-0.04261261
-5.273192	femoral	-0.1791369
-5.574222	fencing	-0.1785369
-5.574222	fend	-0.04511799
-5.574222	fengshui	-0.04511799
-5.273192	fergerson	-0.2948996
-5.574222	fergie	-0.04511799
-5.574222	ferment	-0.1135182
-4.972162	fermentation	-0.1442297
-5.574222	ferrari	-0.1791323
-5.574222	ferraris	-0.1769307
-5.574222	ferry	-0.04511799
-5.273192	fertilizers	0.04690956
-5.097101	fest	-0.102802
-4.398131	festival	-0.2725189
-5.097101	festivals	-0.102802
-5.097101	fetch	-0.1942571
-5.574222	fetched	-0.1772877
-5.574222	fettish	-0.04511799
-5.273192	fever	-0.1127663
-3.540799	few	-0.1972145
-5.574222	fewer	-0.1787096
-4.972162	fi	-0.05768286
-4.574222	fiber	-0.5672363
-5.097101	fibonacci	-0.1947224
-5.574222	fico	-0.1787211
-5.097101	fiction	0.04693682
-5.574222	fictional	-0.1135182
-5.273192	ficture	-0.2948996
-5.574222	fidel	-0.1789331
-3.71689	field	-0.4951773
-5.574222	fielder	-0.04511799
-5.273192	fields	-0.2948996
-5.097101	fieldwork	-0.102802
-4.729124	fierce	-0.1480232
-5.574222	fiercer	-0.1789528
-4.875252	fiesta	-0.1290305
-3.994439	fifteen	-0.1727306
-5.273192	fifth	-0.1770447
-3.858219	fifty	-0.2655644
-4.097101	fight	-0.314223
-4.729124	fighting	-0.3704697
-4.796071	figure	-0.1001209
-5.574222	figured	-0.1766176
-4.972162	figures	0.0530484
-4.006021	file	-0.6597873
-5.574222	filed	-0.04511799
-5.097101	filer	-0.3997256
-4.875252	files	-0.3347916
-5.273192	filipino	-0.04507701
-4.796071	fill	-0.1815619
-5.273192	filled	-0.1109402
-4.428094	film	-0.09295826
-5.574222	filmed	-0.1767422
-5.273192	filming	-0.113075
-5.273192	films	-0.2948996
-4.729124	filter	-0.1469502
-5.273192	filtering	-0.2948996
-5.574222	fin	-0.1791393
-3.704991	final	-0.6549903
-5.273192	finalised	-0.1780486
-5.574222	finalize	-0.04511799
-5.574222	finalized	-0.1790547
-4.460279	finally	-0.2000436
-4.398131	finals	-0.4908816
-3.774882	finance	-0.5521278
-3.994439	financial	-0.1991639
-4.875252	financially	-0.03627518
-3.624832	find	-0.2201828
-5.574222	finder	-0.04511799
-4.972162	finding	-0.04198126
-5.273192	findings	0.04690956
-5.273192	finds	-0.1787223
-4.2318	fine	-0.2800069
-5.097101	fingers	-0.3997256
-3.911464	finish	-0.2606821
-5.273192	finished	-0.04499346
-5.574222	finisher	-0.174114
-5.097101	finishing	-0.3287767
-5.273192	finland	-0.2948996
-5.574222	fins	-0.04511799
-4.729124	fire	-0.1496785
-5.574222	fireman	-0.1791207
-5.097101	firewall	-0.0440449
-4.295469	firm	-0.7093723
-5.574222	firms	-0.04511799
-2.991024	first	-0.3805259
-4.972162	firstly	-0.6152856
-4.08286	fish	-0.2955567
-5.574222	fishes	-0.04511799
-4.574222	fishing	-1.032905
-5.574222	fishmonger	-0.04511799
-4.142859	fit	-0.5136645
-4.61998	fitness	-0.1885266
-5.273192	fitting	-0.2948996
-3.100006	five	-0.2080623
-4.212494	fix	-0.7824431
-4.495041	fixed	-0.2156695
-5.574222	fixing	-0.1135182
